{"learner":{"attributes":{},"feature_names":["entity_count_total","entity_count_money","entity_count_peril","entity_count_coverage","entity_count_claim_status","entity_count_property_type","entity_count_vehicle","has_open_claim","has_denied_claim","has_fire_peril","has_flood_peril","has_earthquake_peril","has_wind_peril","has_cyber_coverage","has_umbrella_coverage","max_monetary_value","mean_monetary_value","num_monetary_values","prior_claims_indicator","property_risk_score","coverage_breadth","peril_diversity"],"feature_types":[],"gradient_booster":{"model":{"cats":{"enc":[],"feature_segments":[],"sorted_idx":[]},"gbtree_model_param":{"num_parallel_tree":"1","num_trees":"200"},"iteration_indptr":[0,1,2,3,4,5,6,7,8,9,10,11,12,13,14,15,16,17,18,19,20,21,22,23,24,25,26,27,28,29,30,31,32,33,34,35,36,37,38,39,40,41,42,43,44,45,46,47,48,49,50,51,52,53,54,55,56,57,58,59,60,61,62,63,64,65,66,67,68,69,70,71,72,73,74,75,76,77,78,79,80,81,82,83,84,85,86,87,88,89,90,91,92,93,94,95,96,97,98,99,100,101,102,103,104,105,106,107,108,109,110,111,112,113,114,115,116,117,118,119,120,121,122,123,124,125,126,127,128,129,130,131,132,133,134,135,136,137,138,139,140,141,142,143,144,145,146,147,148,149,150,151,152,153,154,155,156,157,158,159,160,161,162,163,164,165,166,167,168,169,170,171,172,173,174,175,176,177,178,179,180,181,182,183,184,185,186,187,188,189,190,191,192,193,194,195,196,197,198,199,200],"tree_info":[0,0,0,0,0,0,0,0,0,0,0,0,0,0,0,0,0,0,0,0,0,0,0,0,0,0,0,0,0,0,0,0,0,0,0,0,0,0,0,0,0,0,0,0,0,0,0,0,0,0,0,0,0,0,0,0,0,0,0,0,0,0,0,0,0,0,0,0,0,0,0,0,0,0,0,0,0,0,0,0,0,0,0,0,0,0,0,0,0,0,0,0,0,0,0,0,0,0,0,0,0,0,0,0,0,0,0,0,0,0,0,0,0,0,0,0,0,0,0,0,0,0,0,0,0,0,0,0,0,0,0,0,0,0,0,0,0,0,0,0,0,0,0,0,0,0,0,0,0,0,0,0,0,0,0,0,0,0,0,0,0,0,0,0,0,0,0,0,0,0,0,0,0,0,0,0,0,0,0,0,0,0,0,0,0,0,0,0,0,0,0,0,0,0,0,0,0,0,0,0],"trees":[{"base_weights":[3.5176712E2,-1.1428328E4,9.682203E3,-2.015099E4,-2.1803984E3,1.4971659E4,9.113579E3,-5.0296167E3,-2.1602113E4,-3.8994456E3,1.0284552E4,2.8166023E3,1.9412447E4,1.4124691E3,9.588688E3,-2.1354498E4,1.3639418E3,-2.3793115E4,-1.26143545E4,-5.332922E3,5.268081E3,4.8146025E3,1.583642E3,-2.5213126E2,4.904447E3,2.4535627E3,8.147632E3,-2.463153E3,1.0866113E4,1.0402453E4,6.654621E3,5.523668E2,-3.215511E3,1.6591869E3,-9.707998E3,-2.0738633E4,-3.5023489E3,-1.3458494E3,-2.9906967E4,-3.9321426E3,-2.8023887E4,1.6860024E3,1.3527869E4,1.5993668E3,1.7954097E3,3.383668E2,-2.006998E3,-1.116332E2,6.331869E2,9.567717E3,2.1182239E2,1.9243668E3,-5.388188E3,1.7481556E3,3.188002E3,1.111132E4,1.6843182E3,1.0732905E4,3.2422761E3,-1.6474131E3,4.8048907E2,-2.440939E3,-5.719183E2,-4.6601544E2,2.749867E3,-3.9948887E3,-1.4880554E3,-6.814176E2,2.7954865E2,-3.096613E3,-6.6563324E2,5.854225E2,-2.4166333E3,1.5125502E3,3.568668E2,-5.195109E2,4.5348593E2,-3.6651096E2,1.483668E2,1.1939869E3,2.4248906E2,-1.2970554E3,2.6540974E1,-5.9513324E2,8.218224E2,1.0223079E3,1.6805289E3,-7.0422205E2,5.3039545E2,-1.4305534E2,1.3127054E3,1.1193801E1,1.3664299E3],"categories":[],"categories_nodes":[],"categories_segments":[],"categories_sizes":[],"default_left":[0,0,0,0,0,0,0,0,0,0,0,0,0,0,0,0,0,0,0,0,0,0,0,0,0,0,0,0,0,0,0,0,0,0,0,0,0,0,0,0,0,0,0,0,0,0,0,0,0,0,0,0,0,0,0,0,0,0,0,0,0,0,0,0,0,0,0,0,0,0,0,0,0,0,0,0,0,0,0,0,0,0,0,0,0,0,0,0,0,0,0,0,0],"id":0,"left_children":[1,3,5,7,9,11,13,15,17,19,21,23,25,27,29,31,33,35,37,39,41,43,-1,45,47,-1,49,51,53,55,57,-1,-1,-1,59,61,-1,63,65,67,69,71,73,-1,75,-1,77,-1,-1,79,-1,-1,81,-1,83,85,87,89,91,-1,-1,-1,-1,-1,-1,-1,-1,-1,-1,-1,-1,-1,-1,-1,-1,-1,-1,-1,-1,-1,-1,-1,-1,-1,-1,-1,-1,-1,-1,-1,-1,-1,-1],"loss_changes":[7.01255E10,2.2704034E10,9.342976E8,3.0730813E9,2.9971453E9,1.7265976E9,1.1719311E9,1.4903635E9,2.2992323E9,1.6313491E9,4.4001715E8,6.530695E7,1.1851725E9,7.5954E8,6.590075E8,1.3388163E9,2.0157034E9,2.875474E9,5.415882E9,3.25902E9,4.8017456E8,3.088023E8,0E0,3.8692732E7,5.863363E7,0E0,5.679392E7,1.05608666E9,2.4903347E8,1.4459453E9,9.2544026E8,0E0,0E0,0E0,7.665295E8,4.546679E9,0E0,1.8489395E9,1.0653727E9,1.9773636E9,1.7108992E8,1.5423327E9,2.5577856E7,0E0,1.9591069E8,0E0,2.8589456E7,0E0,0E0,8.965414E7,0E0,0E0,6.035895E8,0E0,2.3280091E8,9.3581926E8,6.3750266E8,9.215337E8,1.2708242E9,0E0,0E0,0E0,0E0,0E0,0E0,0E0,0E0,0E0,0E0,0E0,0E0,0E0,0E0,0E0,0E0,0E0,0E0,0E0,0E0,0E0,0E0,0E0,0E0,0E0,0E0,0E0,0E0,0E0,0E0,0E0,0E0,0E0,0E0],"parents":[2147483647,0,0,1,1,2,2,3,3,4,4,5,5,6,6,7,7,8,8,9,9,10,10,11,11,12,12,13,13,14,14,15,15,16,16,17,17,18,18,19,19,20,20,21,21,23,23,24,24,26,26,27,27,28,28,29,29,30,30,34,34,35,35,37,37,38,38,39,39,40,40,41,41,42,42,44,44,46,46,49,49,52,52,54,54,55,55,56,56,57,57,58,58],"right_children":[2,4,6,8,10,12,14,16,18,20,22,24,26,28,30,32,34,36,38,40,42,44,-1,46,48,-1,50,52,54,56,58,-1,-1,-1,60,62,-1,64,66,68,70,72,74,-1,76,-1,78,-1,-1,80,-1,-1,82,-1,84,86,88,90,92,-1,-1,-1,-1,-1,-1,-1,-1,-1,-1,-1,-1,-1,-1,-1,-1,-1,-1,-1,-1,-1,-1,-1,-1,-1,-1,-1,-1,-1,-1,-1,-1,-1,-1],"split_conditions":[1E0,2E0,1.04226E-3,1.00728E-3,3E0,8.3611E-4,1.13408E-3,8.2317E-4,2.836167E-2,3.150864E-2,1.45361E-3,2E0,8E0,3E0,2.7710374E-2,6.9445E-4,9.0002E-4,2.3204684E-2,3.488064E-2,2.9648835E-2,3.780453E-2,1.00728E-3,1.583642E3,7.7076E-4,6.9445E-4,2.4535627E3,9.8742E-4,2E0,1.05777E-3,1E1,2E0,5.523668E2,-3.215511E3,1.6591869E3,7E0,1.631851E-2,-3.5023489E3,3.4671135E-2,3.683609E-2,1.940711E-2,3.1295814E-2,3.7051145E-2,4.1306376E-2,1.5993668E3,1.26032E-3,3.383668E2,8E0,-1.116332E2,6.331869E2,9E0,2.1182239E2,1.9243668E3,1.06198E-3,1.7481556E3,1.06198E-3,2.524291E-2,3E0,2.9648835E-2,3E0,-1.6474131E3,4.8048907E2,-2.440939E3,-5.719183E2,-4.6601544E2,2.749867E3,-3.9948887E3,-1.4880554E3,-6.814176E2,2.7954865E2,-3.096613E3,-6.6563324E2,5.854225E2,-2.4166333E3,1.5125502E3,3.568668E2,-5.195109E2,4.5348593E2,-3.6651096E2,1.483668E2,1.1939869E3,2.4248906E2,-1.2970554E3,2.6540974E1,-5.9513324E2,8.218224E2,1.0223079E3,1.6805289E3,-7.0422205E2,5.3039545E2,-1.4305534E2,1.3127054E3,1.1193801E1,1.3664299E3],"split_indices":[7,2,16,16,2,16,16,16,16,16,16,2,0,3,16,16,16,16,16,16,16,16,0,16,16,0,16,2,16,0,4,0,0,0,0,16,0,16,16,16,16,16,16,0,16,0,0,0,0,0,0,0,16,0,16,16,2,16,2,0,0,0,0,0,0,0,0,0,0,0,0,0,0,0,0,0,0,0,0,0,0,0,0,0,0,0,0,0,0,0,0,0,0],"split_type":[0,0,0,0,0,0,0,0,0,0,0,0,0,0,0,0,0,0,0,0,0,0,0,0,0,0,0,0,0,0,0,0,0,0,0,0,0,0,0,0,0,0,0,0,0,0,0,0,0,0,0,0,0,0,0,0,0,0,0,0,0,0,0,0,0,0,0,0,0,0,0,0,0,0,0,0,0,0,0,0,0,0,0,0,0,0,0,0,0,0,0,0,0],"sum_hessian":[6.36E2,2.81E2,3.55E2,1.44E2,1.37E2,3.2E1,3.23E2,1.3E1,1.31E2,1.21E2,1.6E1,9E0,2.3E1,1.9E1,3.04E2,3E0,1E1,1.04E2,2.7E1,1.05E2,1.6E1,9E0,7E0,4E0,5E0,1.5E1,8E0,1.4E1,5E0,2.36E2,6.8E1,1E0,2E0,4E0,6E0,8.4E1,2E1,1.7E1,1E1,1E2,5E0,1.2E1,4E0,1E0,8E0,1E0,3E0,1E0,4E0,6E0,2E0,1E0,1.3E1,2E0,3E0,2.18E2,1.8E1,3E1,3.8E1,4E0,2E0,6.7E1,1.7E1,1.6E1,1E0,5E0,5E0,7E1,3E1,4E0,1E0,1.1E1,1E0,3E0,1E0,2E0,6E0,2E0,1E0,4E0,2E0,5E0,8E0,1E0,2E0,1.91E2,2.7E1,5E0,1.3E1,5E0,2.5E1,3E1,8E0],"tree_param":{"num_deleted":"0","num_feature":"22","num_nodes":"93","size_leaf_vector":"1"}},{"base_weights":[1.1686292E3,-1.0701543E4,9.903148E3,-1.9010291E4,-1.2436637E3,1.300052E4,8.488304E3,-1.3539857E4,-2.2351385E4,-3.541616E3,1.4632487E3,1.8714855E4,1.0552279E4,1.5885593E3,9.081375E3,-1.7283088E4,7.9284653E3,-2.8743162E3,-1.9260604E4,-4.2931377E3,1.3098965E3,2.2456199E3,1.2977588E4,8.525346E3,1.30438545E4,6.4950166E3,-7.196311E3,1.0341072E4,5.578033E3,-1.5454955E4,-3.3528796E3,1.9378705E4,-1.0264388E3,3.6371145E3,-2.2785488E4,-5.1044297E3,4.0057122E3,4.7342827E3,1.5544764E4,9.857051E3,-2.2174773E3,2.0350526E3,9.599433E3,-1.6756836E3,8.875725E3,-1.9042264E4,9.410207E3,1.1040059E4,2.475402E3,9.313933E3,2.5173877E3,-1.8495758E3,1.2570619E3,5.364137E2,2.2262183E3,-2.0795864E3,7.0866187E2,-7.547289E2,1.9504442E3,-2.8170056E3,-1.6110359E3,-4.679309E2,-2.2958015E3,9.976811E2,-1.6378217E2,-1.0605157E2,6.4481116E2,1.8218978E3,2.3405313E2,8.000297E2,1.966419E3,-1.0873315E3,4.8287704E2,5.6046686E2,1.3460038E3,2.0510391E2,-6.427926E2,3.06804E2,1.3204122E3,-5.622244E2,-2.0991707E3,1.631612E3,-5.653766E2,1.0015428E3,1.5926537E3,-6.858831E2,5.38053E2,2.9189517E2,1.2189506E3,-3.438284E1,9.9909326E2],"categories":[],"categories_nodes":[],"categories_segments":[],"categories_sizes":[],"default_left":[0,0,0,0,0,0,0,0,0,0,0,0,0,0,0,0,0,0,0,0,0,0,0,0,0,0,0,0,0,0,0,0,0,0,0,0,0,0,0,0,0,0,0,0,0,0,0,0,0,0,0,0,0,0,0,0,0,0,0,0,0,0,0,0,0,0,0,0,0,0,0,0,0,0,0,0,0,0,0,0,0,0,0,0,0,0,0,0,0,0,0],"id":1,"left_children":[1,3,5,7,9,11,13,15,17,19,-1,21,23,25,27,29,31,-1,33,35,-1,-1,37,39,41,43,45,47,49,51,-1,53,55,57,59,61,63,65,67,69,71,-1,73,75,77,79,81,83,85,87,89,-1,-1,-1,-1,-1,-1,-1,-1,-1,-1,-1,-1,-1,-1,-1,-1,-1,-1,-1,-1,-1,-1,-1,-1,-1,-1,-1,-1,-1,-1,-1,-1,-1,-1,-1,-1,-1,-1,-1,-1],"loss_changes":[6.480246E10,2.0800889E10,1.4672732E9,2.2744556E9,4.6121523E9,1.3554135E9,1.0085847E9,4.637236E9,1.1453727E9,1.4318687E9,0E0,3.954555E8,2.928169E8,9.5189466E8,9.573417E8,9.073797E8,9.427132E8,0E0,5.006295E9,7.34123E8,0E0,0E0,2.4383693E8,6.9425254E8,6.6033306E8,2.872016E8,1.7529517E9,8.963359E8,6.9691174E8,4.067414E9,0E0,4.222528E7,1.1097153E9,1.7444047E9,1.4511329E9,6.2879565E8,3.5332115E8,5.6494776E7,3.4577818E8,6.0747725E8,4.184518E8,0E0,3.101161E8,8.402507E7,2.3600691E8,1.2787456E7,5.083694E8,6.1153894E8,4.436612E8,4.7931776E8,7.732385E8,0E0,0E0,0E0,0E0,0E0,0E0,0E0,0E0,0E0,0E0,0E0,0E0,0E0,0E0,0E0,0E0,0E0,0E0,0E0,0E0,0E0,0E0,0E0,0E0,0E0,0E0,0E0,0E0,0E0,0E0,0E0,0E0,0E0,0E0,0E0,0E0,0E0,0E0,0E0,0E0],"parents":[2147483647,0,0,1,1,2,2,3,3,4,4,5,5,6,6,7,7,8,8,9,9,11,11,12,12,13,13,14,14,15,15,16,16,18,18,19,19,22,22,23,23,24,24,25,25,26,26,27,27,28,28,29,29,31,31,32,32,33,33,34,34,35,35,36,36,37,37,38,38,39,39,40,40,42,42,43,43,44,44,45,45,46,46,47,47,48,48,49,49,50,50],"right_children":[2,4,6,8,10,12,14,16,18,20,-1,22,24,26,28,30,32,-1,34,36,-1,-1,38,40,42,44,46,48,50,52,-1,54,56,58,60,62,64,66,68,70,72,-1,74,76,78,80,82,84,86,88,90,-1,-1,-1,-1,-1,-1,-1,-1,-1,-1,-1,-1,-1,-1,-1,-1,-1,-1,-1,-1,-1,-1,-1,-1,-1,-1,-1,-1,-1,-1,-1,-1,-1,-1,-1,-1,-1,-1,-1,-1],"split_conditions":[1E0,2E0,8E0,1.4039E-3,3E0,1.13703E-3,1.06198E-3,1.35283E-3,1.6744984E-2,7.42E-2,1.4632487E3,2E0,1.52078E-3,1.01944E-3,2.7710374E-2,1.34272E-3,1.38913E-3,-2.8743162E3,2.0330725E-2,9E0,1.3098965E3,2.2456199E3,8.3611E-4,1.43753E-3,1.628E-3,8.3611E-4,3E0,1E1,9E0,1.27539E-3,-3.3528796E3,7E0,1.39089E-3,3.77E-2,5.54E-2,7.3E-2,4.37E-2,6.9445E-4,1.04658E-3,1.38288E-3,1.44698E-3,2.0350526E3,2.71E-2,3E0,3E0,1.04226E-3,1.05777E-3,2.524291E-2,3E0,2E0,3E0,-1.8495758E3,1.2570619E3,5.364137E2,2.2262183E3,-2.0795864E3,7.0866187E2,-7.547289E2,1.9504442E3,-2.8170056E3,-1.6110359E3,-4.679309E2,-2.2958015E3,9.976811E2,-1.6378217E2,-1.0605157E2,6.4481116E2,1.8218978E3,2.3405313E2,8.000297E2,1.966419E3,-1.0873315E3,4.8287704E2,5.6046686E2,1.3460038E3,2.0510391E2,-6.427926E2,3.06804E2,1.3204122E3,-5.622244E2,-2.0991707E3,1.631612E3,-5.653766E2,1.0015428E3,1.5926537E3,-6.858831E2,5.38053E2,2.9189517E2,1.2189506E3,-3.438284E1,9.9909326E2],"split_indices":[7,2,0,15,2,15,15,15,16,15,0,2,15,15,16,15,15,0,16,0,0,0,15,15,15,15,3,0,0,15,0,0,15,15,15,15,15,15,15,15,15,0,15,2,2,15,15,16,2,2,2,0,0,0,0,0,0,0,0,0,0,0,0,0,0,0,0,0,0,0,0,0,0,0,0,0,0,0,0,0,0,0,0,0,0,0,0,0,0,0,0],"split_type":[0,0,0,0,0,0,0,0,0,0,0,0,0,0,0,0,0,0,0,0,0,0,0,0,0,0,0,0,0,0,0,0,0,0,0,0,0,0,0,0,0,0,0,0,0,0,0,0,0,0,0,0,0,0,0,0,0,0,0,0,0,0,0,0,0,0,0,0,0,0,0,0,0,0,0,0,0,0,0,0,0,0,0,0,0,0,0,0,0,0,0],"sum_hessian":[6.23E2,2.64E2,3.59E2,1.4E2,1.24E2,1.1E2,2.49E2,5.5E1,8.5E1,1.09E2,1.5E1,3.1E1,7.9E1,2E1,2.29E2,4.7E1,8E0,2.5E1,6E1,1.05E2,4E0,1.7E1,1.4E1,4.6E1,3.3E1,1.3E1,7E0,1.67E2,6.2E1,4.4E1,3E0,3E0,5E0,8E0,5.2E1,9.6E1,9E0,4E0,1E1,4.1E1,5E0,9E0,2.4E1,3E0,1E1,4E0,3E0,1.53E2,1.4E1,2.7E1,3.5E1,4E1,4E0,1E0,2E0,1E0,4E0,5E0,3E0,2.7E1,2.5E1,9.5E1,1E0,4E0,5E0,1E0,3E0,8E0,2E0,3.6E1,5E0,2E0,3E0,1.3E1,1.1E1,2E0,1E0,5E0,5E0,1E0,3E0,2E0,1E0,1.29E2,2.4E1,3E0,1.1E1,9E0,1.8E1,2.6E1,9E0],"tree_param":{"num_deleted":"0","num_feature":"22","num_nodes":"91","size_leaf_vector":"1"}},{"base_weights":[-2.0026747E2,-1.0688336E4,8.043032E3,-1.9347879E4,-1.9524484E3,8.995208E3,4.4884854E3,-2.0877955E4,-1.1082593E4,-4.249225E3,1.2040672E4,9.398992E3,6.807994E2,-1.0681142E4,5.24781E3,6.172272E2,-2.1164355E4,6.846374E3,-2.67799E4,-5.849998E3,2.8258088E3,8.619714E3,1.5264097E4,8.516464E3,1.2051399E4,8.337411E3,-6.1038354E3,-1.3731697E3,-7.647383E1,1.164141E3,4.2964434E3,-1.9436963E4,-2.6976154E4,1.408037E4,-1.114171E4,-2.8880428E4,-7.867871E1,-6.911293E3,2.4203318E3,1.236111E4,7.77458E2,1.1414991E4,1.7541211E2,1.6104553E3,4.2702228E2,7.911491E3,1.4294714E4,1.4456506E4,7.9802246E3,-1.9712793E2,1.0384072E3,-1.0018076E4,3.7592578E3,-2.371495E3,5.673149E3,-2.0395497E3,1.6117505E3,-3.5009375E3,-1.873747E3,1.6300604E3,-1.8407481E2,4.8071933E2,-1.8060409E3,-3.542395E3,-1.914592E3,-3.1338297E2,-1.2033369E3,6.623613E2,-4.7889853E2,3.4159192E2,1.9598342E3,-2.1591658E3,3.091183E2,3.5805032E2,1.6966481E3,-6.009699E2,4.240349E2,1.0816317E3,6.14586E2,6.527658E2,1.5412948E3,5.723269E2,1.6885702E3,3.7816782E2,1.130886E3,-3.337409E2,-1.2524058E3,4.9894434E2,6.4944336E1,1.5784204E2,-8.2170605E2,8.535171E2,2.812882E2],"categories":[],"categories_nodes":[],"categories_segments":[],"categories_sizes":[],"default_left":[0,0,0,0,0,0,0,0,0,0,0,0,0,0,0,0,0,0,0,0,0,0,0,0,0,0,0,0,0,0,0,0,0,0,0,0,0,0,0,0,0,0,0,0,0,0,0,0,0,0,0,0,0,0,0,0,0,0,0,0,0,0,0,0,0,0,0,0,0,0,0,0,0,0,0,0,0,0,0,0,0,0,0,0,0,0,0,0,0,0,0,0,0],"id":2,"left_children":[1,3,5,7,9,11,13,15,17,19,21,23,25,27,29,-1,31,33,35,37,39,41,43,45,47,49,51,-1,-1,-1,53,55,57,59,61,63,-1,65,67,69,71,73,75,-1,-1,77,79,81,83,-1,-1,85,87,89,91,-1,-1,-1,-1,-1,-1,-1,-1,-1,-1,-1,-1,-1,-1,-1,-1,-1,-1,-1,-1,-1,-1,-1,-1,-1,-1,-1,-1,-1,-1,-1,-1,-1,-1,-1,-1,-1,-1],"loss_changes":[5.48128E10,2.1068235E10,1.1611402E9,1.5391334E9,4.5506335E9,9.3026714E8,9.4299034E8,1.03705395E9,6.937821E9,1.3869197E9,8.897152E7,5.2002406E8,7.781526E8,1.1050099E8,4.001001E8,0E0,6.402212E8,1.7183882E9,6.8706816E8,8.85676E8,4.3961757E8,2.8124768E8,1.4388992E7,5.965322E8,5.112965E8,1.6815875E8,3.4651264E8,0E0,0E0,0E0,6.1931994E8,3.4981724E9,9.3240934E8,3.4814272E8,5.2820253E8,8.615117E7,0E0,1.6649536E9,3.9535386E8,1.920073E8,1.1018634E9,3.3068928E8,1.2605157E8,0E0,0E0,8.8749056E8,5.572659E7,7.3073254E8,3.2059456E8,0E0,0E0,5.8651904E7,8.236584E6,2.9004387E8,4.2622976E8,0E0,0E0,0E0,0E0,0E0,0E0,0E0,0E0,0E0,0E0,0E0,0E0,0E0,0E0,0E0,0E0,0E0,0E0,0E0,0E0,0E0,0E0,0E0,0E0,0E0,0E0,0E0,0E0,0E0,0E0,0E0,0E0,0E0,0E0,0E0,0E0,0E0,0E0],"parents":[2147483647,0,0,1,1,2,2,3,3,4,4,5,5,6,6,7,7,8,8,9,9,10,10,11,11,12,12,13,13,14,14,16,16,17,17,18,18,19,19,20,20,21,21,22,22,23,23,24,24,25,25,26,26,30,30,31,31,32,32,33,33,34,34,35,35,37,37,38,38,39,39,40,40,41,41,42,42,45,45,46,46,47,47,48,48,51,51,52,52,53,53,54,54],"right_children":[2,4,6,8,10,12,14,16,18,20,22,24,26,28,30,-1,32,34,36,38,40,42,44,46,48,50,52,-1,-1,-1,54,56,58,60,62,64,-1,66,68,70,72,74,76,-1,-1,78,80,82,84,-1,-1,86,88,90,92,-1,-1,-1,-1,-1,-1,-1,-1,-1,-1,-1,-1,-1,-1,-1,-1,-1,-1,-1,-1,-1,-1,-1,-1,-1,-1,-1,-1,-1,-1,-1,-1,-1,-1,-1,-1,-1,-1],"split_conditions":[1E0,2E0,2.780768E-2,6.01E-2,3E0,1E1,5.51E-2,6.9445E-4,6.94E-2,3E0,9E0,9E0,1.827389E-2,1E1,5.68E-2,6.172272E2,4.45E-2,8E0,8.22E-2,6.15E-2,1.01944E-3,1.38913E-3,1E1,4.74E-2,3.82E-2,3E0,4.74E-2,-1.3731697E3,-7.647383E1,1.164141E3,6.01E-2,4.4E-2,4.95E-2,6.85E-2,6.39E-2,7.24E-2,-7.867871E1,3.44E-2,7.24E-2,9.9351E-4,1.15335E-3,1.27643E-3,1.40652E-3,1.6104553E3,4.2702228E2,1.22339E-3,8E0,1.18578E-3,4.89E-2,-1.9712793E2,1.0384072E3,3.77E-2,3E0,5.9E-2,9E0,-2.0395497E3,1.6117505E3,-3.5009375E3,-1.873747E3,1.6300604E3,-1.8407481E2,4.8071933E2,-1.8060409E3,-3.542395E3,-1.914592E3,-3.1338297E2,-1.2033369E3,6.623613E2,-4.7889853E2,3.4159192E2,1.9598342E3,-2.1591658E3,3.091183E2,3.5805032E2,1.6966481E3,-6.009699E2,4.240349E2,1.0816317E3,6.14586E2,6.527658E2,1.5412948E3,5.723269E2,1.6885702E3,3.7816782E2,1.130886E3,-3.337409E2,-1.2524058E3,4.9894434E2,6.4944336E1,1.5784204E2,-8.2170605E2,8.535171E2,2.812882E2],"split_indices":[7,2,16,15,2,0,15,15,15,3,0,0,16,0,15,0,15,0,15,15,15,15,0,15,15,2,15,0,0,0,15,15,15,15,15,15,0,15,15,15,15,15,15,0,0,15,0,15,15,0,0,15,3,15,0,0,0,0,0,0,0,0,0,0,0,0,0,0,0,0,0,0,0,0,0,0,0,0,0,0,0,0,0,0,0,0,0,0,0,0,0,0,0],"split_type":[0,0,0,0,0,0,0,0,0,0,0,0,0,0,0,0,0,0,0,0,0,0,0,0,0,0,0,0,0,0,0,0,0,0,0,0,0,0,0,0,0,0,0,0,0,0,0,0,0,0,0,0,0,0,0,0,0,0,0,0,0,0,0,0,0,0,0,0,0,0,0,0,0,0,0,0,0,0,0,0,0,0,0,0,0,0,0,0,0,0,0,0,0],"sum_hessian":[6.32E2,2.78E2,3.54E2,1.39E2,1.39E2,2.78E2,7.6E1,1.16E2,2.3E1,1.2E2,1.9E1,2.65E2,1.3E1,3E0,7.3E1,1E0,1.15E2,1.1E1,1.2E1,9.8E1,2.2E1,1.1E1,8E0,2.02E2,6.3E1,6E0,7E0,2E0,1E0,8E0,6.5E1,9.2E1,2.3E1,8E0,3E0,1.1E1,1E0,8.7E1,1.1E1,3E0,1.9E1,8E0,3E0,7E0,1E0,1.85E2,1.7E1,3.8E1,2.5E1,1E0,5E0,5E0,2E0,1.1E1,5.4E1,9E1,2E0,1E1,1.3E1,7E0,1E0,1E0,2E0,5E0,6E0,5.1E1,3.6E1,7E0,4E0,2E0,1E0,1E0,1.8E1,4E0,4E0,1E0,2E0,6.8E1,1.17E2,3E0,1.4E1,9E0,2.9E1,1.2E1,1.3E1,2E0,3E0,1E0,1E0,7E0,4E0,2.6E1,2.8E1],"tree_param":{"num_deleted":"0","num_feature":"22","num_nodes":"93","size_leaf_vector":"1"}},{"base_weights":[-2.6759103E2,-6.3589175E3,3.9465325E3,-9.6483E3,5.1502563E3,2.394856E3,7.092118E3,-9.203969E3,-1.2532645E3,4.304951E3,5.67005E2,1.4252621E3,6.647536E3,7.730681E3,3.6930383E3,-9.6237616E2,-6.8216425E2,5.0246237E2,-1.0893233E2,1.589621E2,-4.4360546E1,2.4625577E2,1.0093958E4,6.1548505E2,8.5207794E2,-3.8791028E2,6.1483213E3,1.7445016E3,7.964447E2,6.494386E2,3.056465E1],"categories":[],"categories_nodes":[],"categories_segments":[],"categories_sizes":[],"default_left":[0,0,0,0,0,0,0,0,0,0,0,0,0,0,0,0,0,0,0,0,0,0,0,0,0,0,0,0,0,0,0],"id":3,"left_children":[1,3,5,7,9,11,13,15,-1,17,-1,19,21,23,25,-1,-1,-1,-1,-1,-1,-1,27,-1,-1,-1,29,-1,-1,-1,-1],"loss_changes":[1.6761676E10,1.0157797E10,1.8670551E9,1.5122432E8,1.953792E6,1.0626024E9,2.4710758E8,1.1836621E8,0E0,1.1029046E8,0E0,6.613133E7,6.6745664E8,7.953203E7,4.3286838E8,0E0,0E0,0E0,0E0,0E0,0E0,0E0,2.6806835E8,0E0,0E0,0E0,3.2388032E7,0E0,0E0,0E0,0E0],"parents":[2147483647,0,0,1,1,2,2,3,3,4,4,5,5,6,6,7,7,9,9,11,11,12,12,13,13,14,14,22,22,26,26],"right_children":[2,4,6,8,10,12,14,16,-1,18,-1,20,22,24,26,-1,-1,-1,-1,-1,-1,-1,28,-1,-1,-1,30,-1,-1,-1,-1],"split_conditions":[2E0,2E0,2E0,8E0,2E0,3E0,1E1,3E0,-1.2532645E3,8E0,5.67005E2,9E0,9E0,9E0,3E0,-9.6237616E2,-6.8216425E2,5.0246237E2,-1.0893233E2,1.589621E2,-4.4360546E1,2.4625577E2,2E0,6.1548505E2,8.5207794E2,-3.8791028E2,1.1E1,1.7445016E3,7.964447E2,6.494386E2,3.056465E1],"split_indices":[2,4,4,0,1,2,0,3,0,0,0,0,0,0,2,0,0,0,0,0,0,0,1,0,0,0,0,0,0,0,0],"split_type":[0,0,0,0,0,0,0,0,0,0,0,0,0,0,0,0,0,0,0,0,0,0,0,0,0,0,0,0,0,0,0],"sum_hessian":[6.51E2,2.66E2,3.85E2,2.07E2,5.9E1,2.59E2,1.26E2,1.83E2,2.4E1,2.6E1,3.3E1,2.12E2,4.7E1,1.05E2,2.1E1,1.53E2,3E1,2.3E1,3E0,1.95E2,1.7E1,2.2E1,2.5E1,3.8E1,6.7E1,5E0,1.6E1,4E0,2.1E1,1.5E1,1E0],"tree_param":{"num_deleted":"0","num_feature":"22","num_nodes":"31","size_leaf_vector":"1"}},{"base_weights":[2.4708229E2,-9.481713E3,7.6971045E3,-1.5275322E4,-3.4074495E3,1.1285736E4,7.3280283E3,-1.7129549E4,-4.3827383E3,-5.317452E3,9.515205E3,3.3662004E3,1.527377E4,5.656335E3,8.1647637E3,-1.3465831E4,-1.960646E4,2.0147408E4,-1.0953183E4,-7.0113823E3,6.1313057E3,5.1723516E3,1.2472252E4,1.3345605E4,-1.4431128E3,1.8139264E3,6.951457E3,6.4611504E3,-9.907204E3,8.937357E3,4.483972E3,-1.7278004E4,6.8124805E2,-2.609995E4,-1.3451421E4,2.2587527E3,5.193467E2,-4.905333E3,-1.6455996E4,-1.9657102E3,-1.1391243E4,2.8509172E3,1.1123468E4,1.4160208E3,2.2788438E3,1.3045061E3,3.6584885E2,2.3919626E3,1.8477227E3,6.911621E1,-6.770473E2,-1.0417318E2,9.794544E3,3.347313E3,7.39624E3,8.584036E2,-1.5504609E4,1.0599687E4,7.4702026E3,1.4722587E4,2.2441404E3,-1.469487E3,-3.2937595E3,1.1802819E3,-1.7249514E3,-2.1992097E3,-3.4610652E3,5.797388E2,-1.7241741E3,-1.2383887E1,-1.6020873E3,-2.8653977E3,-5.581342E2,-3.2757588E3,-2.6554361E-2,-3.5279172E3,-9.373452E2,7.466038E2,-2.1650146E3,1.3102448E3,4.7770053E2,-6.227138E2,6.1520276E2,-1.6277872E2,4.399371E2,-2.4432962E2,3.1923526E2,7.096922E2,-7.253182E2,2.1147396E1,1.6112766E3,1.3731732E3,9.442956E1,1.8498973E3,6.748651E2,4.2631992E2,-2.975594E2,-1.9367092E3,-1.958582E2,8.002709E2,1.6200688E3,1.0759066E3,4.0319357E2,6.415068E2,2.3660925E3,1.01584076E3,-3.8037668E2],"categories":[],"categories_nodes":[],"categories_segments":[],"categories_sizes":[],"default_left":[0,0,0,0,0,0,0,0,0,0,0,0,0,0,0,0,0,0,0,0,0,0,0,0,0,0,0,0,0,0,0,0,0,0,0,0,0,0,0,0,0,0,0,0,0,0,0,0,0,0,0,0,0,0,0,0,0,0,0,0,0,0,0,0,0,0,0,0,0,0,0,0,0,0,0,0,0,0,0,0,0,0,0,0,0,0,0,0,0,0,0,0,0,0,0,0,0,0,0,0,0,0,0,0,0,0,0],"id":4,"left_children":[1,3,5,7,9,11,13,15,17,19,21,23,25,27,29,31,33,35,37,39,41,43,45,47,49,-1,51,53,55,57,59,61,63,65,67,-1,-1,69,71,73,75,77,79,-1,81,-1,-1,-1,83,85,-1,87,89,91,93,95,97,99,101,103,105,-1,-1,-1,-1,-1,-1,-1,-1,-1,-1,-1,-1,-1,-1,-1,-1,-1,-1,-1,-1,-1,-1,-1,-1,-1,-1,-1,-1,-1,-1,-1,-1,-1,-1,-1,-1,-1,-1,-1,-1,-1,-1,-1,-1,-1,-1],"loss_changes":[4.646002E10,9.731299E9,3.980841E8,2.7929457E9,3.4320727E9,9.5925325E8,4.1820774E8,8.340234E8,3.7665055E9,2.370197E9,1.666455E8,5.951882E8,3.7470413E8,1.4919506E9,5.8270925E8,2.8161884E9,2.4466575E9,6.5139456E7,5.1832115E8,2.2980388E9,2.3030758E8,2.0178896E8,2.760832E6,4.4211853E8,7.297365E7,0E0,1.4143875E8,2.9261978E8,3.7486605E8,3.5981824E8,8.8427155E8,1.1744707E9,2.5966116E9,3.925422E8,2.872405E9,0E0,0E0,5.2950483E8,1.03391155E9,3.0259779E9,2.3685596E9,1.4054698E9,1.2766656E7,0E0,3.0187136E8,0E0,0E0,0E0,3.3766076E7,7.057473E7,0E0,2.0591733E8,2.993323E8,6.607896E8,4.7192832E8,5.184748E7,1.7135315E8,1.0630963E9,1.0761108E9,3.6800154E8,1.6660416E9,0E0,0E0,0E0,0E0,0E0,0E0,0E0,0E0,0E0,0E0,0E0,0E0,0E0,0E0,0E0,0E0,0E0,0E0,0E0,0E0,0E0,0E0,0E0,0E0,0E0,0E0,0E0,0E0,0E0,0E0,0E0,0E0,0E0,0E0,0E0,0E0,0E0,0E0,0E0,0E0,0E0,0E0,0E0,0E0,0E0,0E0],"parents":[2147483647,0,0,1,1,2,2,3,3,4,4,5,5,6,6,7,7,8,8,9,9,10,10,11,11,12,12,13,13,14,14,15,15,16,16,17,17,18,18,19,19,20,20,21,21,22,22,23,23,24,24,26,26,27,27,28,28,29,29,30,30,31,31,32,32,33,33,34,34,37,37,38,38,39,39,40,40,41,41,42,42,44,44,48,48,49,49,51,51,52,52,53,53,54,54,55,55,56,56,57,57,58,58,59,59,60,60],"right_children":[2,4,6,8,10,12,14,16,18,20,22,24,26,28,30,32,34,36,38,40,42,44,46,48,50,-1,52,54,56,58,60,62,64,66,68,-1,-1,70,72,74,76,78,80,-1,82,-1,-1,-1,84,86,-1,88,90,92,94,96,98,100,102,104,106,-1,-1,-1,-1,-1,-1,-1,-1,-1,-1,-1,-1,-1,-1,-1,-1,-1,-1,-1,-1,-1,-1,-1,-1,-1,-1,-1,-1,-1,-1,-1,-1,-1,-1,-1,-1,-1,-1,-1,-1,-1,-1,-1,-1,-1,-1],"split_conditions":[1E0,2E0,1.02554E-3,6.31E-2,3E0,8.3611E-4,1.44698E-3,1.38913E-3,6.56E-2,6.15E-2,9E0,7.6619E-4,8E0,1.4308E-3,1E0,1.28125E-3,1.8939326E-2,8E0,6.94E-2,1.51754E-3,7.42E-2,1.00728E-3,1E1,2E0,3E0,1.8139264E3,3E0,1.13408E-3,2E0,4.4E-2,1.48472E-3,1.24787E-3,7E0,1E0,2.0330725E-2,2.2587527E3,5.193467E2,8E0,7.24E-2,7.9531E-4,1.61183E-3,7.3E-2,8.13E-2,1.4160208E3,1.26032E-3,1.3045061E3,3.6584885E2,2.3919626E3,6.9445E-4,2E0,-6.770473E2,9E0,9E0,2E0,1.1411E-3,7E0,9E0,9E0,9E0,1.45997E-3,2E0,-1.469487E3,-3.2937595E3,1.1802819E3,-1.7249514E3,-2.1992097E3,-3.4610652E3,5.797388E2,-1.7241741E3,-1.2383887E1,-1.6020873E3,-2.8653977E3,-5.581342E2,-3.2757588E3,-2.6554361E-2,-3.5279172E3,-9.373452E2,7.466038E2,-2.1650146E3,1.3102448E3,4.7770053E2,-6.227138E2,6.1520276E2,-1.6277872E2,4.399371E2,-2.4432962E2,3.1923526E2,7.096922E2,-7.253182E2,2.1147396E1,1.6112766E3,1.3731732E3,9.442956E1,1.8498973E3,6.748651E2,4.2631992E2,-2.975594E2,-1.9367092E3,-1.958582E2,8.002709E2,1.6200688E3,1.0759066E3,4.0319357E2,6.415068E2,2.3660925E3,1.01584076E3,-3.8037668E2],"split_indices":[7,2,15,15,2,15,15,15,15,15,0,15,0,15,14,15,16,0,15,15,15,15,0,2,2,0,2,15,4,15,15,15,0,14,16,0,0,0,15,15,15,15,15,0,15,0,0,0,15,2,0,0,0,2,15,0,0,0,0,15,2,0,0,0,0,0,0,0,0,0,0,0,0,0,0,0,0,0,0,0,0,0,0,0,0,0,0,0,0,0,0,0,0,0,0,0,0,0,0,0,0,0,0,0,0,0,0],"split_type":[0,0,0,0,0,0,0,0,0,0,0,0,0,0,0,0,0,0,0,0,0,0,0,0,0,0,0,0,0,0,0,0,0,0,0,0,0,0,0,0,0,0,0,0,0,0,0,0,0,0,0,0,0,0,0,0,0,0,0,0,0,0,0,0,0,0,0,0,0,0,0,0,0,0,0,0,0,0,0,0,0,0,0,0,0,0,0,0,0,0,0,0,0,0,0,0,0,0,0,0,0,0,0,0,0,0,0],"sum_hessian":[6.39E2,2.77E2,3.62E2,1.41E2,1.36E2,3.1E1,3.31E2,1.2E2,2.1E1,1.19E2,1.7E1,1.1E1,2E1,1.13E2,2.18E2,5.1E1,6.9E1,4E0,1.7E1,1.04E2,1.5E1,8E0,9E0,3E0,8E0,1.4E1,6E0,1.08E2,5E0,1.79E2,3.9E1,4E1,1.1E1,3.2E1,3.7E1,3E0,1E0,9E0,8E0,4.9E1,5.5E1,1E1,5E0,1E0,7E0,8E0,1E0,1E0,2E0,7E0,1E0,2E0,4E0,2.6E1,8.2E1,2E0,3E0,8.1E1,9.8E1,6E0,3.3E1,3.6E1,4E0,7E0,4E0,2.4E1,8E0,6E0,3.1E1,7E0,2E0,3E0,5E0,2E0,4.7E1,3E0,5.2E1,9E0,1E0,3E0,2E0,2E0,5E0,1E0,1E0,4E0,3E0,1E0,1E0,2E0,2E0,4E0,2.2E1,3E0,7.9E1,1E0,1E0,2E0,1E0,5.7E1,2.4E1,4.9E1,4.9E1,4E0,2E0,1.4E1,1.9E1],"tree_param":{"num_deleted":"0","num_feature":"22","num_nodes":"107","size_leaf_vector":"1"}},{"base_weights":[1.9125688E2,-7.294284E3,6.0649478E3,-1.3967581E4,-3.346442E2,9.510399E3,5.7523135E3,-1.8231824E4,-1.1781067E4,-1.9718757E3,9.751062E3,5.2250747E3,1.845278E4,1.5176039E3,6.07014E3,-8.495877E3,-2.2834303E4,4.658229E3,-1.386523E4,1.38746E3,-2.6211235E3,1.1958362E4,6.8579653E3,1.4118165E4,3.5458987E3,2.0445648E3,7.6518257E3,1.2078602E4,7.409969E1,1.2727412E4,5.8996836E3,-1.6122539E4,1.303262E4,-2.9979495E3,-1.4766223E4,-3.0380225E3,2.0810238E4,-1.6036148E4,-7.317489E3,-3.7889485E3,6.4082017E3,7.497273E3,1.4919998E3,1.4940898E2,8.6826575E2,2.2723647E3,-1.5463985E2,-7.5290405E2,6.7407466E3,-3.9219687E2,1.5399707E3,2.4378613E2,1.5680042E3,-2.6122258E3,8.1207266E3,2.1647249E3,-6.381451E2,5.618743E3,9.485022E3,-1.9101855E3,9.814631E2,1.726887E3,-1.9561876E2,1.2128412E2,-1.6977621E3,7.101026E2,-2.5683127E3,6.0067523E2,2.3742483E3,-2.1464531E3,-1.4018691E3,1.8688287E3,-1.3453059E3,-2.4361588E2,-2.257324E3,8.0538837E2,-7.492834E2,1.3002634E3,-2.3422997E2,4.476104E2,-2.8863498E2,9.093027E2,2.0994055E2,1.6432544E2,-5.4696454E2,1.4277091E3,1.4732715E2,5.8249884E2,-1.0532465E3,1.8752028E3,6.201491E2],"categories":[],"categories_nodes":[],"categories_segments":[],"categories_sizes":[],"default_left":[0,0,0,0,0,0,0,0,0,0,0,0,0,0,0,0,0,0,0,0,0,0,0,0,0,0,0,0,0,0,0,0,0,0,0,0,0,0,0,0,0,0,0,0,0,0,0,0,0,0,0,0,0,0,0,0,0,0,0,0,0,0,0,0,0,0,0,0,0,0,0,0,0,0,0,0,0,0,0,0,0,0,0,0,0,0,0,0,0,0,0],"id":5,"left_children":[1,3,5,7,9,11,13,15,17,19,21,23,25,27,29,31,33,35,37,-1,39,41,43,45,47,-1,49,51,53,55,57,59,61,-1,63,65,67,69,71,73,75,77,-1,-1,-1,-1,-1,79,81,-1,-1,-1,-1,83,85,-1,-1,87,89,-1,-1,-1,-1,-1,-1,-1,-1,-1,-1,-1,-1,-1,-1,-1,-1,-1,-1,-1,-1,-1,-1,-1,-1,-1,-1,-1,-1,-1,-1,-1,-1],"loss_changes":[2.8799152E10,1.3371124E10,3.4061312E8,1.1558113E9,2.3640223E9,1.014892E9,4.4704973E8,1.9568579E9,3.4908037E9,1.3018268E9,4.5708544E7,2.635328E8,3.727744E7,3.8022608E8,2.8236698E8,3.0013588E9,1.4020516E9,1.554941E9,1.1477565E9,0E0,1.279096E9,2.026176E7,9.468896E7,4.395431E8,2.6602155E8,0E0,3.2941434E8,6.593584E7,5.1837795E8,1.3312763E9,2.5795072E8,1.1920532E9,3.5126285E8,0E0,6.213046E8,2.248775E9,3.1014656E7,4.218962E8,4.0808602E9,2.638595E9,3.806201E8,3.554784E8,0E0,0E0,0E0,0E0,0E0,1.1332186E8,1.0100509E8,0E0,0E0,0E0,0E0,2.278625E8,2.2451091E8,0E0,0E0,1.024042E9,5.2270784E8,0E0,0E0,0E0,0E0,0E0,0E0,0E0,0E0,0E0,0E0,0E0,0E0,0E0,0E0,0E0,0E0,0E0,0E0,0E0,0E0,0E0,0E0,0E0,0E0,0E0,0E0,0E0,0E0,0E0,0E0,0E0,0E0],"parents":[2147483647,0,0,1,1,2,2,3,3,4,4,5,5,6,6,7,7,8,8,9,9,10,10,11,11,12,12,13,13,14,14,15,15,16,16,17,17,18,18,20,20,21,21,22,22,23,23,24,24,26,26,27,27,28,28,29,29,30,30,31,31,32,32,34,34,35,35,36,36,37,37,38,38,39,39,40,40,41,41,47,47,48,48,53,53,54,54,57,57,58,58],"right_children":[2,4,6,8,10,12,14,16,18,20,22,24,26,28,30,32,34,36,38,-1,40,42,44,46,48,-1,50,52,54,56,58,60,62,-1,64,66,68,70,72,74,76,78,-1,-1,-1,-1,-1,80,82,-1,-1,-1,-1,84,86,-1,-1,88,90,-1,-1,-1,-1,-1,-1,-1,-1,-1,-1,-1,-1,-1,-1,-1,-1,-1,-1,-1,-1,-1,-1,-1,-1,-1,-1,-1,-1,-1,-1,-1,-1],"split_conditions":[1E0,2E0,1.02554E-3,1.27539E-3,3E0,9.7926E-4,1.13408E-3,1.03599E-3,1.38913E-3,8.944E-4,1.38913E-3,6.9445E-4,3E0,2E0,1.1411E-3,3E0,1.17861E-3,1.35283E-3,6.31E-2,1.38746E3,6.15E-2,1.27643E-3,1.45361E-3,2E0,8.3611E-4,2.0445648E3,2E0,2E0,3E0,2E0,6.94E-2,1.02554E-3,9.7637E-4,-2.9979495E3,1.1934E-3,1.34272E-3,3E0,1.52445E-3,6.56E-2,5.82E-2,3E0,1.24787E-3,1.4919998E3,1.4940898E2,8.6826575E2,2.2723647E3,-1.5463985E2,7.7076E-4,9.4403E-4,-3.9219687E2,1.5399707E3,2.4378613E2,1.5680042E3,2E0,1.05777E-3,2.1647249E3,-6.381451E2,6.62E-2,7.13E-2,-1.9101855E3,9.814631E2,1.726887E3,-1.9561876E2,1.2128412E2,-1.6977621E3,7.101026E2,-2.5683127E3,6.0067523E2,2.3742483E3,-2.1464531E3,-1.4018691E3,1.8688287E3,-1.3453059E3,-2.4361588E2,-2.257324E3,8.0538837E2,-7.492834E2,1.3002634E3,-2.3422997E2,4.476104E2,-2.8863498E2,9.093027E2,2.0994055E2,1.6432544E2,-5.4696454E2,1.4277091E3,1.4732715E2,5.8249884E2,-1.0532465E3,1.8752028E3,6.201491E2],"split_indices":[7,2,15,15,2,15,15,15,15,15,15,15,2,2,15,3,15,15,15,0,15,15,15,2,15,0,4,4,3,4,15,15,15,0,15,15,3,15,15,15,3,15,0,0,0,0,0,15,15,0,0,0,0,4,15,0,0,15,15,0,0,0,0,0,0,0,0,0,0,0,0,0,0,0,0,0,0,0,0,0,0,0,0,0,0,0,0,0,0,0,0],"split_type":[0,0,0,0,0,0,0,0,0,0,0,0,0,0,0,0,0,0,0,0,0,0,0,0,0,0,0,0,0,0,0,0,0,0,0,0,0,0,0,0,0,0,0,0,0,0,0,0,0,0,0,0,0,0,0,0,0,0,0,0,0,0,0,0,0,0,0,0,0,0,0,0,0,0,0,0,0,0,0,0,0,0,0,0,0,0,0,0,0,0,0],"sum_hessian":[6.53E2,2.87E2,3.66E2,1.46E2,1.41E2,2.8E1,3.38E2,4.7E1,9.9E1,1.22E2,1.9E1,2E1,8E0,2.4E1,3.14E2,1.6E1,3.1E1,1.1E1,8.8E1,4E0,1.18E2,9E0,1E1,2E0,1.8E1,6E0,2E0,2E0,2.2E1,6E0,3.08E2,1.2E1,4E0,1.5E1,1.6E1,8E0,3E0,6.5E1,2.3E1,1.05E2,1.3E1,5E0,4E0,3E0,7E0,1E0,1E0,8E0,1E1,1E0,1E0,1E0,1E0,1.7E1,5E0,4E0,2E0,2.88E2,2E1,1.1E1,1E0,3E0,1E0,2E0,1.4E1,6E0,2E0,1E0,2E0,1.5E1,5E1,4E0,1.9E1,9.9E1,6E0,1.2E1,1E0,3E0,2E0,2E0,6E0,6E0,4E0,7E0,1E1,2E0,3E0,2.85E2,3E0,4E0,1.6E1],"tree_param":{"num_deleted":"0","num_feature":"22","num_nodes":"91","size_leaf_vector":"1"}},{"base_weights":[-7.98426E1,-4.457655E3,3.0591814E3,-6.489584E3,2.4773467E3,2.7286719E3,1.0721362E4,-5.571898E3,-2.2251117E4,9.359933E3,4.183142E2,2.8707664E3,-1.4995402E4,1.5291381E3,-1.47695E3,-5.4498334E2,-6.204353E3,-2.8001013E3,-1.4965318E4,2.1587466E3,6.7587793E3,-3.2045068E3,2.5083936E3,2.6373604E3,1.0659537E4,-2.0970332E3,-1.5227715E2,-2.364125E2,-9.7458336E1,-4.5232017E3,1.4681242E4,-2.4358596E3,-5.851637E3,-4.4823564E3,-2.7448484E3,1.1165369E3,1.556306E3,-1.7082506E3,-6.7531226E3,4.9151084E3,-5.0253E3,4.2871973E3,1.127138E3,2.2460955E3,4.9015635E3,2.6690626E1,-4.1309376E1,-1.0851108E3,5.534059E2,1.9280742E3,-1.8583789E2,1.8080959E2,-6.335622E2,4.423416E2,-7.8146533E2,3.9994116E2,-1.0973231E3,-3.2558206E2,9.20508E2,-1.2894921E3,-1.9939433E2,2.3633655E2,1.2176443E3,-7.199386E2,-1.0513672E2,2.3821695E2,6.6554224E2,-1.0873055E3,1.7413597E2,6.675051E2,-2.7926695E1],"categories":[],"categories_nodes":[],"categories_segments":[],"categories_sizes":[],"default_left":[0,0,0,0,0,0,0,0,0,0,0,0,0,0,0,0,0,0,0,0,0,0,0,0,0,0,0,0,0,0,0,0,0,0,0,0,0,0,0,0,0,0,0,0,0,0,0,0,0,0,0,0,0,0,0,0,0,0,0,0,0,0,0,0,0,0,0,0,0,0,0],"id":6,"left_children":[1,3,5,7,9,11,13,15,17,19,21,23,25,-1,27,29,31,-1,33,-1,35,37,39,41,43,-1,-1,-1,45,47,49,-1,51,53,-1,55,-1,57,59,61,63,65,67,-1,69,-1,-1,-1,-1,-1,-1,-1,-1,-1,-1,-1,-1,-1,-1,-1,-1,-1,-1,-1,-1,-1,-1,-1,-1,-1,-1],"loss_changes":[8.753586E9,3.7643976E9,9.102738E8,2.855632E9,8.6054406E8,9.4215066E8,8.587822E8,6.1976064E8,4.177459E7,2.9937472E8,3.7149338E8,6.172577E8,2.0956102E8,0E0,5.88885E6,1.4595909E9,9.716342E8,0E0,7.929897E8,0E0,6.284097E8,8.403746E7,5.867749E8,8.5726874E8,5.6942874E8,0E0,0E0,0E0,4.5527644E5,1.2692374E9,4.1620083E8,0E0,6.490916E8,1.8295086E8,0E0,3.57566E8,0E0,2.664181E8,1.2043782E8,4.1592E8,6.1548176E7,7.285486E8,1.3604161E9,0E0,7.536925E7,0E0,0E0,0E0,0E0,0E0,0E0,0E0,0E0,0E0,0E0,0E0,0E0,0E0,0E0,0E0,0E0,0E0,0E0,0E0,0E0,0E0,0E0,0E0,0E0,0E0,0E0],"parents":[2147483647,0,0,1,1,2,2,3,3,4,4,5,5,6,6,7,7,8,8,9,9,10,10,11,11,12,12,14,14,15,15,16,16,18,18,20,20,21,21,22,22,23,23,24,24,28,28,29,29,30,30,32,32,33,33,35,35,37,37,38,38,39,39,40,40,41,41,42,42,44,44],"right_children":[2,4,6,8,10,12,14,16,18,20,22,24,26,-1,28,30,32,-1,34,-1,36,38,40,42,44,-1,-1,-1,46,48,50,-1,52,54,-1,56,-1,58,60,62,64,66,68,-1,70,-1,-1,-1,-1,-1,-1,-1,-1,-1,-1,-1,-1,-1,-1,-1,-1,-1,-1,-1,-1,-1,-1,-1,-1,-1,-1],"split_conditions":[2E0,2E0,7.42E-2,7.03E-2,1.3108E-3,7.3E-2,2E0,1.03599E-3,7.13E-2,6.9445E-4,2E0,6.79E-2,3E0,1.5291381E3,7.88E-2,3E0,1.05777E-3,-2.8001013E3,7.79E-2,2.1587466E3,1.17325E-3,1.57586E-3,5.68E-2,1.52445E-3,7.13E-2,-2.0970332E3,-1.5227715E2,-2.364125E2,8.32E-2,9.7637E-4,9.8742E-4,-2.4358596E3,1.14262E-3,7.42E-2,-2.7448484E3,1.1688E-3,1.556306E3,1.54019E-3,1.62089E-3,4.99E-2,5.99E-2,1.26692E-3,1.57586E-3,2.2460955E3,3E0,2.6690626E1,-4.1309376E1,-1.0851108E3,5.534059E2,1.9280742E3,-1.8583789E2,1.8080959E2,-6.335622E2,4.423416E2,-7.8146533E2,3.9994116E2,-1.0973231E3,-3.2558206E2,9.20508E2,-1.2894921E3,-1.9939433E2,2.3633655E2,1.2176443E3,-7.199386E2,-1.0513672E2,2.3821695E2,6.6554224E2,-1.0873055E3,1.7413597E2,6.675051E2,-2.7926695E1],"split_indices":[2,4,15,15,15,15,4,15,15,15,1,15,2,0,15,3,15,0,15,0,15,15,15,15,15,0,0,0,15,15,15,0,15,15,0,15,0,15,15,15,15,15,15,0,2,0,0,0,0,0,0,0,0,0,0,0,0,0,0,0,0,0,0,0,0,0,0,0,0,0,0],"split_type":[0,0,0,0,0,0,0,0,0,0,0,0,0,0,0,0,0,0,0,0,0,0,0,0,0,0,0,0,0,0,0,0,0,0,0,0,0,0,0,0,0,0,0,0,0,0,0,0,0,0,0,0,0,0,0,0,0,0,0,0,0,0,0,0,0,0,0,0,0,0,0],"sum_hessian":[6.35E2,2.65E2,3.7E2,2.05E2,6E1,3.56E2,1.4E1,1.95E2,1E1,1.3E1,4.7E1,3.54E2,2E0,1E1,4E0,2.2E1,1.73E2,4E0,6E0,1E0,1.2E1,1.7E1,3E1,3.45E2,9E0,1E0,1E0,2E0,2E0,1.8E1,4E0,2E0,1.71E2,4E0,2E0,8E0,4E0,1.3E1,4E0,2.3E1,7E0,1.64E2,1.81E2,2E0,7E0,1E0,1E0,1.1E1,7E0,3E0,1E0,1E1,1.61E2,1E0,3E0,7E0,1E0,1.2E1,1E0,1E0,3E0,1.8E1,5E0,4E0,3E0,9.2E1,7.2E1,8E0,1.73E2,5E0,2E0],"tree_param":{"num_deleted":"0","num_feature":"22","num_nodes":"71","size_leaf_vector":"1"}},{"base_weights":[-3.6663202E2,-3.9464775E3,2.0648596E3,-5.883306E3,3.1449988E3,-2.4046897E3,2.1972043E3,-5.023445E3,-1.915081E4,1.1039819E3,4.5340713E3,4.473033E3,4.0255325E2,-5.9954536E3,4.1424985E3,-2.1265955E3,2.0578828E2,5.547892E3,-1.9322238E3,1.1023359E4,2.6837349E3,3.6903508E3,1.2158192E4,-1.172391E4,1.5820417E3,-4.7737656E3,-1.516376E4,1.467792E4,-3.226324E3,1.7894045E3,1.9687141E3,-1.2169222E3,5.7879297E2,8.870937E1,1.2564888E3,-2.5927176E2,5.4350464E3,8.354919E3,2.3379702E3,7.615353E3,1.97208E4,-2.2907708E3,-3.2910544E3,9.5877466E2,8.997329E3,-5.587592E2,1.3231064E3,-2.195075E3,-6.1816943E2,8.4632034E1,1.6532959E3,-2.1374553E3,2.5407774E2,-3.117797E2,4.7626382E2,1.4700143E2,-5.0579318E2,3.5712964E2,-4.600025E2,1.1094994E3,1.05785416E2,-4.0275204E2,1.1714349E3,8.002576E1,7.8666144E2,1.3658201E3,-2.3677031E2,5.7025507E2,2.1799727E3,4.530218E2,-1.1867362E3,1.2082409E2,-1.4245634E3,1.3373344E3,-2.4293704E2],"categories":[],"categories_nodes":[],"categories_segments":[],"categories_sizes":[],"default_left":[0,0,0,0,0,0,0,0,0,0,0,0,0,0,0,0,0,0,0,0,0,0,0,0,0,0,0,0,0,0,0,0,0,0,0,0,0,0,0,0,0,0,0,0,0,0,0,0,0,0,0,0,0,0,0,0,0,0,0,0,0,0,0,0,0,0,0,0,0,0,0,0,0,0,0],"id":7,"left_children":[1,3,5,7,9,-1,11,13,15,17,19,21,23,25,27,-1,-1,29,31,33,35,37,39,41,43,45,47,49,51,53,-1,-1,55,-1,-1,57,59,61,63,65,67,-1,69,71,73,-1,-1,-1,-1,-1,-1,-1,-1,-1,-1,-1,-1,-1,-1,-1,-1,-1,-1,-1,-1,-1,-1,-1,-1,-1,-1,-1,-1,-1,-1],"loss_changes":[5.552829E9,3.5621263E9,1.3660223E9,2.219664E9,1.5376128E8,0E0,1.5461562E9,1.7354358E9,5.820764E8,3.345428E8,3.6665933E8,9.596439E8,3.065092E9,1.8765522E9,1.522395E9,0E0,0E0,4.961937E8,3.926225E8,9.823117E7,2.2003162E8,9.45632E8,3.651548E8,1.7165248E9,8.9260595E8,2.345113E9,1.0835308E9,1.9127334E8,1.3102602E9,1.4616125E8,0E0,0E0,7.274163E7,0E0,0E0,2.4921378E8,3.3510858E8,1.4615094E9,1.01388064E9,6.959255E8,2.140032E7,0E0,8.586934E8,7.037425E8,7.825399E8,0E0,0E0,0E0,0E0,0E0,0E0,0E0,0E0,0E0,0E0,0E0,0E0,0E0,0E0,0E0,0E0,0E0,0E0,0E0,0E0,0E0,0E0,0E0,0E0,0E0,0E0,0E0,0E0,0E0,0E0],"parents":[2147483647,0,0,1,1,2,2,3,3,4,4,6,6,7,7,8,8,9,9,10,10,11,11,12,12,13,13,14,14,17,17,18,18,19,19,20,20,21,21,22,22,23,23,24,24,25,25,26,26,27,27,28,28,29,29,32,32,35,35,36,36,37,37,38,38,39,39,40,40,42,42,43,43,44,44],"right_children":[2,4,6,8,10,-1,12,14,16,18,20,22,24,26,28,-1,-1,30,32,34,36,38,40,42,44,46,48,50,52,54,-1,-1,56,-1,-1,58,60,62,64,66,68,-1,70,72,74,-1,-1,-1,-1,-1,-1,-1,-1,-1,-1,-1,-1,-1,-1,-1,-1,-1,-1,-1,-1,-1,-1,-1,-1,-1,-1,-1,-1,-1,-1],"split_conditions":[2E0,2E0,6.9445E-4,7.03E-2,8E0,-2.4046897E3,1.52445E-3,3.2020863E-2,8.32E-2,1.27002E-3,3.25E-2,1.45997E-3,8E0,5.13E-2,6.62E-2,-2.1265955E3,2.0578828E2,1.19815E-3,1.33169E-3,8.3611E-4,4.67E-2,1.04226E-3,2E0,1.61183E-3,7.42E-2,4.79E-2,5.54E-2,6.31E-2,6.73E-2,9.9351E-4,1.9687141E3,-1.2169222E3,1.92284E-3,8.870937E1,1.2564888E3,3.96E-2,5.54E-2,8.2317E-4,9E0,8E0,1.47243E-3,-2.2907708E3,1.72409E-3,7.3E-2,2E0,-5.587592E2,1.3231064E3,-2.195075E3,-6.1816943E2,8.4632034E1,1.6532959E3,-2.1374553E3,2.5407774E2,-3.117797E2,4.7626382E2,1.4700143E2,-5.0579318E2,3.5712964E2,-4.600025E2,1.1094994E3,1.05785416E2,-4.0275204E2,1.1714349E3,8.002576E1,7.8666144E2,1.3658201E3,-2.3677031E2,5.7025507E2,2.1799727E3,4.530218E2,-1.1867362E3,1.2082409E2,-1.4245634E3,1.3373344E3,-2.4293704E2],"split_indices":[2,4,15,15,0,0,15,16,15,15,15,15,0,15,15,0,0,15,15,15,15,15,4,15,15,15,15,15,15,15,0,0,15,0,0,15,15,15,0,0,15,0,15,15,4,0,0,0,0,0,0,0,0,0,0,0,0,0,0,0,0,0,0,0,0,0,0,0,0,0,0,0,0,0,0],"split_type":[0,0,0,0,0,0,0,0,0,0,0,0,0,0,0,0,0,0,0,0,0,0,0,0,0,0,0,0,0,0,0,0,0,0,0,0,0,0,0,0,0,0,0,0,0,0,0,0,0,0,0,0,0,0,0,0,0,0,0,0,0,0,0,0,0,0,0,0,0,0,0,0,0,0,0],"sum_hessian":[6.36E2,2.57E2,3.79E2,2.02E2,5.5E1,1E0,3.78E2,1.91E2,1.1E1,2.3E1,3.2E1,1.66E2,2.12E2,1.73E2,1.8E1,1E1,1E0,9E0,1.4E1,6E0,2.6E1,1.52E2,1.4E1,1.8E1,1.94E2,1.54E2,1.9E1,7E0,1.1E1,8E0,1E0,2E0,1.2E1,1E0,5E0,1.3E1,1.3E1,3.3E1,1.19E2,1E1,4E0,7E0,1.1E1,1.8E2,1.4E1,1.48E2,6E0,1E1,9E0,1E0,6E0,2E0,9E0,3E0,5E0,1.1E1,1E0,7E0,6E0,5E0,8E0,7E0,2.6E1,9.4E1,2.5E1,6E0,4E0,1E0,3E0,6E0,5E0,1.78E2,2E0,1E1,4E0],"tree_param":{"num_deleted":"0","num_feature":"22","num_nodes":"75","size_leaf_vector":"1"}},{"base_weights":[4.16639E2,-5.745995E3,5.2526265E3,-6.7500474E3,9.2993274E2,7.5916543E3,3.9960647E3,5.994514E3,-7.4877207E3,1.1823802E4,6.1752744E3,2.2073865E3,6.608776E3,-1.0602808E4,1.2993796E4,-9.778743E3,-4.623572E3,1.6245092E4,6.939855E3,3.5574968E3,9.685781E3,2.8879744E3,-5.349599E3,2.4594932E3,6.1557856E3,-1.8312344E3,-2.284455E3,1.9740195E4,4.0817644E3,-8.796018E3,-2.032512E4,-5.498671E3,2.5309336E3,1.0009744E4,1.9289797E3,8.618527E3,-3.2072345E2,6.788009E3,8.4555664E1,1.9449287E4,7.735301E3,-3.2211963E3,3.8355593E3,3.6754318E2,-8.766324E3,-4.2916523E3,6.5473677E3,9.185724E2,-1.7441055E3,7.2769244E2,2.4152598E3,-6.8668085E2,1.7319274E3,-1.0777009E3,5.7444775E2,-2.274863E3,1.9549883E2,-4.3066025E2,-2.0891213E3,7.9852563E2,-7.804605E1,2.0663982E3,4.7900412E2,4.143478E2,1.3894681E3,4.8013492E2,1.1402823E3,-5.074497E2,4.2710016E2,8.237132E2,2.2996082E3,3.776168E2,1.1705197E3,3.4276193E2,-1.4158995E3,5.273313E2,3.3979908E1,-1.4292566E3,1.7146182E2,7.645473E2,-1.0819185E3,1.008164E3,4.8988208E2],"categories":[],"categories_nodes":[],"categories_segments":[],"categories_sizes":[],"default_left":[0,0,0,0,0,0,0,0,0,0,0,0,0,0,0,0,0,0,0,0,0,0,0,0,0,0,0,0,0,0,0,0,0,0,0,0,0,0,0,0,0,0,0,0,0,0,0,0,0,0,0,0,0,0,0,0,0,0,0,0,0,0,0,0,0,0,0,0,0,0,0,0,0,0,0,0,0,0,0,0,0,0,0],"id":8,"left_children":[1,3,5,7,-1,9,11,13,15,17,19,21,23,25,27,29,31,33,35,37,39,41,43,-1,45,47,-1,49,51,53,55,57,59,61,-1,63,-1,65,67,69,71,73,75,-1,77,79,81,-1,-1,-1,-1,-1,-1,-1,-1,-1,-1,-1,-1,-1,-1,-1,-1,-1,-1,-1,-1,-1,-1,-1,-1,-1,-1,-1,-1,-1,-1,-1,-1,-1,-1,-1,-1],"loss_changes":[1.9044125E10,4.3076383E9,1.02187315E9,2.5268357E9,0E0,6.702817E8,1.0836375E9,1.8803107E9,1.5952435E9,5.350615E8,8.3856666E8,7.406398E8,6.226166E8,4.9506304E8,5.807905E8,1.2514796E9,7.213985E8,9.168563E7,3.0017984E8,6.2771136E8,6.11295E8,7.649197E8,4.022526E8,0E0,4.126556E8,8.4809965E8,0E0,1.5420109E8,9.885192E8,3.7488947E9,6.384302E8,1.7632748E9,2.4103053E8,2.903024E8,0E0,2.729824E8,0E0,2.1112486E8,6.2641984E8,4.9181696E7,5.059063E8,1.357553E9,5.661509E8,0E0,5.4578816E8,3.9439766E8,4.808156E8,0E0,0E0,0E0,0E0,0E0,0E0,0E0,0E0,0E0,0E0,0E0,0E0,0E0,0E0,0E0,0E0,0E0,0E0,0E0,0E0,0E0,0E0,0E0,0E0,0E0,0E0,0E0,0E0,0E0,0E0,0E0,0E0,0E0,0E0,0E0,0E0],"parents":[2147483647,0,0,1,1,2,2,3,3,5,5,6,6,7,7,8,8,9,9,10,10,11,11,12,12,13,13,14,14,15,15,16,16,17,17,18,18,19,19,20,20,21,21,22,22,24,24,25,25,27,27,28,28,29,29,30,30,31,31,32,32,33,33,35,35,37,37,38,38,39,39,40,40,41,41,42,42,44,44,45,45,46,46],"right_children":[2,4,6,8,-1,10,12,14,16,18,20,22,24,26,28,30,32,34,36,38,40,42,44,-1,46,48,-1,50,52,54,56,58,60,62,-1,64,-1,66,68,70,72,74,76,-1,78,80,82,-1,-1,-1,-1,-1,-1,-1,-1,-1,-1,-1,-1,-1,-1,-1,-1,-1,-1,-1,-1,-1,-1,-1,-1,-1,-1,-1,-1,-1,-1,-1,-1,-1,-1,-1,-1],"split_conditions":[1E0,3E0,8E0,9.5418E-4,9.2993274E2,1.13703E-3,4.76E-2,7.7076E-4,2E0,2E0,1.52078E-3,4.57E-2,4.79E-2,8E0,8.944E-4,6.85E-2,6.15E-2,9.9351E-4,1.08013E-3,1.32662E-3,1.58822E-3,1.06198E-3,2E0,2.4594932E3,4.89E-2,7.6619E-4,-2.284455E3,8.4081E-4,7E0,6.01E-2,8.22E-2,5.82E-2,6.69E-2,6.9445E-4,1.9289797E3,9.5418E-4,-3.2072345E2,1.29775E-3,1.38288E-3,2E0,2.71E-2,1.01944E-3,3.44E-2,3.6754318E2,4.74E-2,2E0,2.7710374E-2,9.185724E2,-1.7441055E3,7.2769244E2,2.4152598E3,-6.8668085E2,1.7319274E3,-1.0777009E3,5.7444775E2,-2.274863E3,1.9549883E2,-4.3066025E2,-2.0891213E3,7.9852563E2,-7.804605E1,2.0663982E3,4.7900412E2,4.143478E2,1.3894681E3,4.8013492E2,1.1402823E3,-5.074497E2,4.2710016E2,8.237132E2,2.2996082E3,3.776168E2,1.1705197E3,3.4276193E2,-1.4158995E3,5.273313E2,3.3979908E1,-1.4292566E3,1.7146182E2,7.645473E2,-1.0819185E3,1.008164E3,4.8988208E2],"split_indices":[7,2,0,15,0,15,15,15,2,2,15,15,15,0,15,15,15,15,15,15,15,15,2,0,15,15,0,16,0,15,15,15,15,15,0,15,0,15,15,2,15,15,15,0,15,2,16,0,0,0,0,0,0,0,0,0,0,0,0,0,0,0,0,0,0,0,0,0,0,0,0,0,0,0,0,0,0,0,0,0,0,0,0],"split_type":[0,0,0,0,0,0,0,0,0,0,0,0,0,0,0,0,0,0,0,0,0,0,0,0,0,0,0,0,0,0,0,0,0,0,0,0,0,0,0,0,0,0,0,0,0,0,0,0,0,0,0,0,0,0,0,0,0,0,0,0,0,0,0,0,0,0,0,0,0,0,0,0,0,0,0,0,0,0,0,0,0,0,0],"sum_hessian":[6.37E2,2.8E2,3.57E2,2.63E2,1.7E1,1.23E2,2.34E2,1.4E1,2.49E2,2.9E1,9.4E1,1.4E2,9.4E1,4E0,1E1,1.37E2,1.12E2,1.4E1,1.5E1,5.5E1,3.9E1,1.29E2,1.1E1,1E0,9.3E1,3E0,1E0,5E0,5E0,1.27E2,1E1,1E2,1.2E1,6E0,8E0,1.3E1,2E0,2.8E1,2.7E1,5E0,3.4E1,1.7E1,1.12E2,3E0,8E0,3E0,9E1,2E0,1E0,2E0,3E0,3E0,2E0,1.12E2,1.5E1,9E0,1E0,9.4E1,6E0,4E0,8E0,1E0,5E0,8E0,5E0,2.1E1,7E0,1.2E1,1.5E1,2E0,3E0,1.8E1,1.6E1,1.1E1,6E0,7.9E1,3.3E1,5E0,3E0,1E0,2E0,2.7E1,6.3E1],"tree_param":{"num_deleted":"0","num_feature":"22","num_nodes":"83","size_leaf_vector":"1"}},{"base_weights":[3.1970648E1,-6.000867E3,4.5937E3,-7.0788193E3,2.151292E3,1.0617627E4,4.1763706E3,-8.798271E3,-3.574557E3,7.8060186E3,-3.629981E3,-1.7666016E2,1.1260847E4,7.209202E3,3.935857E3,-5.4859478E3,-1.2908487E4,5.3088666E2,-9.386092E3,1.8805629E4,9.662855E1,-9.102269E3,-5.9133887E2,2.6455266E3,9.277528E3,3.350223E3,1.822777E3,-1.817191E3,4.108187E3,-7.9851377E3,1.184075E4,-2.153506E4,-7.8616924E3,8.727521E3,-4.509983E3,-5.1522646E3,-2.0574248E4,2.1693735E3,7.384942E1,8.4427405E2,-5.878684E3,-1.9033021E3,6.2136426E2,9.270833E3,-3.4908567E3,5.439445E3,1.2955477E3,1.143423E4,1.119832E3,4.1722266E3,-3.8360737E3,1.8892977E3,3.95135E3,-6.8638885E2,-2.785322E3,2.108692E3,2.223927E2,-1.050042E3,-2.8927102E3,1.1604463E3,-9.9423694E2,3.4653165E2,1.3116975E3,-1.4496149E3,1.7072154E2,-1.4255444E3,6.656065E2,-2.564783E3,-7.820314E2,-2.0021552E3,-1.8461458E1,6.402975E2,-3.4401642E2,2.573125E2,1.1333125E3,-1.3714506E3,7.793687E1,7.243813E2,-2.388263E2,2.1584505E2,1.9630785E3,3.4607968E2,-1.6537325E2,9.8167035E2,-3.5583633E2,-6.065868E2,5.886242E2,-1.4600223E3,4.1197653E2],"categories":[],"categories_nodes":[],"categories_segments":[],"categories_sizes":[],"default_left":[0,0,0,0,0,0,0,0,0,0,0,0,0,0,0,0,0,0,0,0,0,0,0,0,0,0,0,0,0,0,0,0,0,0,0,0,0,0,0,0,0,0,0,0,0,0,0,0,0,0,0,0,0,0,0,0,0,0,0,0,0,0,0,0,0,0,0,0,0,0,0,0,0,0,0,0,0,0,0,0,0,0,0,0,0,0,0,0,0],"id":9,"left_children":[1,3,5,7,9,11,13,15,17,19,21,-1,23,25,27,29,31,33,35,37,39,41,43,-1,45,47,-1,49,51,53,55,57,59,61,63,65,67,-1,-1,-1,69,-1,71,73,75,77,-1,79,81,83,85,-1,87,-1,-1,-1,-1,-1,-1,-1,-1,-1,-1,-1,-1,-1,-1,-1,-1,-1,-1,-1,-1,-1,-1,-1,-1,-1,-1,-1,-1,-1,-1,-1,-1,-1,-1,-1,-1],"loss_changes":[1.7640477E10,2.440617E9,8.732534E8,1.4387507E9,1.1071558E9,2.031063E8,2.2182298E8,2.1483264E9,1.9614149E9,1.4397874E9,2.7729894E8,0E0,4.175383E8,9.594232E8,3.2472115E8,4.0783997E9,2.965329E9,2.0639511E9,1.504532E9,3.4923827E8,5.982091E8,5.9120435E8,3.7550966E8,0E0,2.2597133E8,3.2977498E8,0E0,1.3692429E8,6.464932E8,1.6132623E9,1.0201294E9,1.8170348E9,2.0190062E9,3.934116E8,1.9494131E9,2.889712E9,3.8179917E8,0E0,0E0,0E0,5.60017E8,0E0,1.15955976E8,1.227632E7,4.472615E8,1.867889E8,0E0,2.6174563E8,1.096083E8,1.6583682E8,2.0913525E8,0E0,1.0255775E9,0E0,0E0,0E0,0E0,0E0,0E0,0E0,0E0,0E0,0E0,0E0,0E0,0E0,0E0,0E0,0E0,0E0,0E0,0E0,0E0,0E0,0E0,0E0,0E0,0E0,0E0,0E0,0E0,0E0,0E0,0E0,0E0,0E0,0E0,0E0,0E0],"parents":[2147483647,0,0,1,1,2,2,3,3,4,4,5,5,6,6,7,7,8,8,9,9,10,10,12,12,13,13,14,14,15,15,16,16,17,17,18,18,19,19,20,20,21,21,22,22,24,24,25,25,27,27,28,28,29,29,30,30,31,31,32,32,33,33,34,34,35,35,36,36,40,40,42,42,43,43,44,44,45,45,47,47,48,48,49,49,50,50,52,52],"right_children":[2,4,6,8,10,12,14,16,18,20,22,-1,24,26,28,30,32,34,36,38,40,42,44,-1,46,48,-1,50,52,54,56,58,60,62,64,66,68,-1,-1,-1,70,-1,72,74,76,78,-1,80,82,84,86,-1,88,-1,-1,-1,-1,-1,-1,-1,-1,-1,-1,-1,-1,-1,-1,-1,-1,-1,-1,-1,-1,-1,-1,-1,-1,-1,-1,-1,-1,-1,-1,-1,-1,-1,-1,-1,-1],"split_conditions":[1E0,6.31E-2,7E0,8E0,6.94E-2,7.9531E-4,1.00728E-3,1.4039E-3,3E0,8E0,8E0,-1.7666016E2,8.7055E-4,9.7926E-4,1.05285E-3,1.35283E-3,1.63293E-3,3.69E-2,2.3255715E-2,6.85E-2,6.51E-2,7.24E-2,7.24E-2,2.6455266E3,1.28644E-3,7.6619E-4,1.822777E3,8E0,1.05777E-3,1.34272E-3,1.38913E-3,1.47243E-3,1.72409E-3,2E0,4.95E-2,3.14E-2,9E0,2.1693735E3,7.384942E1,8.4427405E2,6.62E-2,-1.9033021E3,7.42E-2,7.15E-2,7.42E-2,1.28125E-3,1.2955477E3,2E0,2E0,1.04226E-3,3E0,1.8892977E3,1.06198E-3,-6.8638885E2,-2.785322E3,2.108692E3,2.223927E2,-1.050042E3,-2.8927102E3,1.1604463E3,-9.9423694E2,3.4653165E2,1.3116975E3,-1.4496149E3,1.7072154E2,-1.4255444E3,6.656065E2,-2.564783E3,-7.820314E2,-2.0021552E3,-1.8461458E1,6.402975E2,-3.4401642E2,2.573125E2,1.1333125E3,-1.3714506E3,7.793687E1,7.243813E2,-2.388263E2,2.1584505E2,1.9630785E3,3.4607968E2,-1.6537325E2,9.8167035E2,-3.5583633E2,-6.065868E2,5.886242E2,-1.4600223E3,4.1197653E2],"split_indices":[7,15,0,0,15,15,15,15,3,0,0,0,15,15,15,15,15,15,16,15,15,15,15,0,15,15,0,0,15,15,15,15,15,1,15,15,0,0,0,0,15,0,15,15,15,15,0,4,4,15,3,0,15,0,0,0,0,0,0,0,0,0,0,0,0,0,0,0,0,0,0,0,0,0,0,0,0,0,0,0,0,0,0,0,0,0,0,0,0],"split_type":[0,0,0,0,0,0,0,0,0,0,0,0,0,0,0,0,0,0,0,0,0,0,0,0,0,0,0,0,0,0,0,0,0,0,0,0,0,0,0,0,0,0,0,0,0,0,0,0,0,0,0,0,0,0,0,0,0,0,0,0,0,0,0,0,0,0,0,0,0,0,0,0,0,0,0,0,0,0,0,0,0,0,0,0,0,0,0,0,0],"sum_hessian":[6.39E2,2.75E2,3.64E2,2.43E2,3.2E1,2.2E1,3.42E2,1.62E2,8.1E1,1.6E1,1.6E1,1E0,2.1E1,2.3E1,3.19E2,9.1E1,7.1E1,4.8E1,3.3E1,6E0,1E1,5E0,1.1E1,1E0,2E1,1.8E1,5E0,9E0,3.1E2,8E1,1.1E1,2.5E1,4.6E1,1.8E1,3E1,2.5E1,8E0,5E0,1E0,4E0,6E0,2E0,3E0,2E0,9E0,1.1E1,9E0,3E0,1.5E1,2E0,7E0,2E0,3.08E2,7.7E1,3E0,5E0,6E0,1.1E1,1.4E1,4E0,4.2E1,9E0,9E0,1.1E1,1.9E1,1.4E1,1.1E1,5E0,3E0,1E0,5E0,1E0,2E0,1E0,1E0,2E0,7E0,9E0,2E0,2E0,1E0,8E0,7E0,1E0,1E0,6E0,1E0,2E0,3.06E2],"tree_param":{"num_deleted":"0","num_feature":"22","num_nodes":"89","size_leaf_vector":"1"}},{"base_weights":[-5.2279095E2,-6.1340874E3,4.0879243E3,-9.925711E3,-2.19854E3,4.772822E3,1.2439961E3,1.5023896E3,-1.0487774E4,-3.4303545E3,6.3453765E3,5.112327E3,-6.9808466E2,-1.0296819E4,1.895E3,-2.3455608E3,1.3730989E4,-1.573635E4,-8.2673125E3,-8.359903E2,-5.205229E3,9.977762E3,2.7965732E3,4.2574775E3,7.664551E3,3.498129E3,-3.686414E3,-1.2701953E1,-1.3644413E3,3.4493818E3,4.574432E2,1.7230623E4,4.487815E3,-1.8158682E4,-8.935864E3,9.140719E3,-9.426384E3,-4.5110083E3,3.006102E3,-2.890302E3,-3.510788E3,5.5207446E3,1.4168846E4,-4.02725E3,5.858913E3,4.800641E3,-8.3462295E3,9.243136E3,3.106984E3,-5.544826E2,7.4365845E3,-7.727964E3,5.318289E2,3.0838052E2,6.387478E3,3.5846948E3,-2.3799556E3,2.1689548E3,1.9269258E2,-6.6718713E2,1.3403594E3,-2.577276E3,-1.3063007E3,1.4057756E3,-1.202348E3,1.9479332E3,-1.1137208E3,-1.6274243E3,-7.9927435E2,-8.507959E1,-2.1177827E3,2.6617488E3,5.2491717E0,-6.191813E2,-7.3430758E0,1.0824913E3,-3.391728E2,1.6372308E3,3.7792307E2,-5.224221E2,-2.1816797E1,3.458022E2,1.1332577E3,4.325267E2,1.2618439E3,-3.5036768E2,-1.01835596E3,-6.1142175E2,1.00104047E3,1.3842154E2,1.1833679E3,1.8997461E2,8.164003E2,-1.0585502E3,-2.2240498E2,-4.0083173E2,2.441031E2,3.95644E2,1.1430682E3,1.2618019E2,1.139937E3,3.7983725E2,-3.277457E2],"categories":[],"categories_nodes":[],"categories_segments":[],"categories_sizes":[],"default_left":[0,0,0,0,0,0,0,0,0,0,0,0,0,0,0,0,0,0,0,0,0,0,0,0,0,0,0,0,0,0,0,0,0,0,0,0,0,0,0,0,0,0,0,0,0,0,0,0,0,0,0,0,0,0,0,0,0,0,0,0,0,0,0,0,0,0,0,0,0,0,0,0,0,0,0,0,0,0,0,0,0,0,0,0,0,0,0,0,0,0,0,0,0,0,0,0,0,0,0,0,0,0,0],"id":10,"left_children":[1,3,5,7,9,11,13,15,17,19,21,23,25,27,29,-1,31,33,35,37,39,41,43,45,47,49,51,-1,-1,53,55,57,59,61,63,65,67,69,71,-1,73,75,77,79,81,83,85,87,89,-1,91,93,-1,95,97,99,101,-1,-1,-1,-1,-1,-1,-1,-1,-1,-1,-1,-1,-1,-1,-1,-1,-1,-1,-1,-1,-1,-1,-1,-1,-1,-1,-1,-1,-1,-1,-1,-1,-1,-1,-1,-1,-1,-1,-1,-1,-1,-1,-1,-1,-1,-1],"loss_changes":[1.7152398E10,4.439891E9,7.03062E8,9.920993E8,1.5793958E9,5.4778726E8,5.6045677E8,2.7636795E9,1.5597691E9,5.942556E8,2.1701824E8,5.69536E8,2.386096E8,1.3444432E8,1.5260342E8,0E0,1.1675853E8,5.296046E8,2.1845857E9,7.7602746E8,2.9904246E9,8.989504E7,2.5346086E8,1.4708552E9,4.6050816E8,3.2615674E8,4.41422E8,0E0,0E0,3.0257286E8,3.3684205E8,2.3115789E8,3.879189E8,8.2729574E8,1.0919639E9,1.6844649E9,8.320266E8,1.6900964E9,1.8815512E9,0E0,6.722869E8,3.203547E8,2.9697792E7,1.7097684E7,6.5945056E7,6.9241344E8,4.439635E7,6.50367E8,2.6926707E8,0E0,8.656064E6,1.0227853E8,0E0,1.6628656E8,1.6319898E8,3.1236403E8,1.2335018E8,0E0,0E0,0E0,0E0,0E0,0E0,0E0,0E0,0E0,0E0,0E0,0E0,0E0,0E0,0E0,0E0,0E0,0E0,0E0,0E0,0E0,0E0,0E0,0E0,0E0,0E0,0E0,0E0,0E0,0E0,0E0,0E0,0E0,0E0,0E0,0E0,0E0,0E0,0E0,0E0,0E0,0E0,0E0,0E0,0E0,0E0],"parents":[2147483647,0,0,1,1,2,2,3,3,4,4,5,5,6,6,7,7,8,8,9,9,10,10,11,11,12,12,13,13,14,14,16,16,17,17,18,18,19,19,20,20,21,21,22,22,23,23,24,24,25,25,26,26,29,29,30,30,31,31,32,32,33,33,34,34,35,35,36,36,37,37,38,38,40,40,41,41,42,42,43,43,44,44,45,45,46,46,47,47,48,48,50,50,51,51,53,53,54,54,55,55,56,56],"right_children":[2,4,6,8,10,12,14,16,18,20,22,24,26,28,30,-1,32,34,36,38,40,42,44,46,48,50,52,-1,-1,54,56,58,60,62,64,66,68,70,72,-1,74,76,78,80,82,84,86,88,90,-1,92,94,-1,96,98,100,102,-1,-1,-1,-1,-1,-1,-1,-1,-1,-1,-1,-1,-1,-1,-1,-1,-1,-1,-1,-1,-1,-1,-1,-1,-1,-1,-1,-1,-1,-1,-1,-1,-1,-1,-1,-1,-1,-1,-1,-1,-1,-1,-1,-1,-1,-1],"split_conditions":[1E0,2.5E-1,2.7710374E-2,9.0002E-4,3.75E-1,1E1,2.8137704E-2,8.2317E-4,1.28125E-3,1.52445E-3,1.38913E-3,9E0,1.827389E-2,2.780768E-2,9E0,-2.3455608E3,8.944E-4,7E0,1.34272E-3,1.26692E-3,1.61183E-3,1.27643E-3,9E0,3.75E-1,4.4E-2,3.75E-1,5.08E-2,-1.2701953E1,-1.3644413E3,2.5E-1,6.36E-2,7E0,7E0,1.08503E-3,9.7637E-4,7E0,1.52445E-3,1.20941E-3,1.28125E-3,-2.890302E3,4.95E-2,1.24787E-3,1.35936E-3,1.40652E-3,5.67E-2,2.524291E-2,1.01944E-3,2.5E-1,5.35E-2,-5.544826E2,1.21994E-3,4.22E-2,5.318289E2,5.99E-2,7.24E-2,3.1595133E-2,2.5E-1,2.1689548E3,1.9269258E2,-6.6718713E2,1.3403594E3,-2.577276E3,-1.3063007E3,1.4057756E3,-1.202348E3,1.9479332E3,-1.1137208E3,-1.6274243E3,-7.9927435E2,-8.507959E1,-2.1177827E3,2.6617488E3,5.2491717E0,-6.191813E2,-7.3430758E0,1.0824913E3,-3.391728E2,1.6372308E3,3.7792307E2,-5.224221E2,-2.1816797E1,3.458022E2,1.1332577E3,4.325267E2,1.2618439E3,-3.5036768E2,-1.01835596E3,-6.1142175E2,1.00104047E3,1.3842154E2,1.1833679E3,1.8997461E2,8.164003E2,-1.0585502E3,-2.2240498E2,-4.0083173E2,2.441031E2,3.95644E2,1.1430682E3,1.2618019E2,1.139937E3,3.7983725E2,-3.277457E2],"split_indices":[7,21,16,15,21,0,16,15,15,15,15,0,16,16,0,0,15,0,15,15,15,15,0,21,15,21,15,0,0,21,15,0,0,15,15,0,15,15,15,0,15,15,15,15,15,16,15,21,15,0,15,15,0,15,15,16,21,0,0,0,0,0,0,0,0,0,0,0,0,0,0,0,0,0,0,0,0,0,0,0,0,0,0,0,0,0,0,0,0,0,0,0,0,0,0,0,0,0,0,0,0,0,0],"split_type":[0,0,0,0,0,0,0,0,0,0,0,0,0,0,0,0,0,0,0,0,0,0,0,0,0,0,0,0,0,0,0,0,0,0,0,0,0,0,0,0,0,0,0,0,0,0,0,0,0,0,0,0,0,0,0,0,0,0,0,0,0,0,0,0,0,0,0,0,0,0,0,0,0,0,0,0,0,0,0,0,0,0,0,0,0,0,0,0,0,0,0,0,0,0,0,0,0,0,0,0,0,0,0],"sum_hessian":[6.61E2,2.98E2,3.63E2,1.51E2,1.47E2,2.92E2,7.1E1,7E0,1.44E2,1.29E2,1.8E1,2.75E2,1.7E1,3E0,6.8E1,2E0,5E0,4.1E1,1.03E2,5.3E1,7.6E1,8E0,1E1,2.08E2,6.7E1,7E0,1E1,1E0,2E0,3.2E1,3.6E1,3E0,2E0,2.9E1,1.2E1,6E0,9.7E1,2.7E1,2.6E1,4E0,7.2E1,5E0,3E0,3E0,7E0,2E2,8E0,4.9E1,1.8E1,2E0,5E0,7E0,3E0,1.6E1,1.6E1,1.7E1,1.9E1,2E0,1E0,1E0,1E0,1E1,1.9E1,1E0,1.1E1,4E0,2E0,1.5E1,8.2E1,2.3E1,4E0,2E0,2.4E1,4E1,3.2E1,3E0,2E0,2E0,1E0,2E0,1E0,6E0,1E0,1.9E2,1E1,3E0,5E0,2E0,4.7E1,1.6E1,2E0,1E0,4E0,4E0,3E0,5E0,1.1E1,1.2E1,4E0,1.4E1,3E0,2E0,1.7E1],"tree_param":{"num_deleted":"0","num_feature":"22","num_nodes":"103","size_leaf_vector":"1"}},{"base_weights":[4.4852496E2,-4.6338013E3,4.2340996E3,-5.413314E3,5.784774E3,4.884128E3,1.8848341E3,2.6028264E3,-5.97737E3,-4.5777286E2,6.6147866E3,5.209396E3,-7.880486E2,-5.3552744E3,2.5532715E3,-1.28856875E4,1.47333545E4,-1.1014931E4,-4.6380176E3,3.741104E3,9.072791E3,4.729351E3,8.1183086E3,4.4025264E3,-4.342646E3,1.4355029E3,-1.0807233E4,1.1313253E3,5.0802E3,-1.46075E3,-2.3945437E3,1.843409E3,4.5737285E3,-8.010302E3,-1.9361293E3,1.29056E3,-5.0970234E3,-6.63965E2,5.63226E3,9.7260706E2,1.9232812E2,5.0609453E3,-5.063558E3,2.3145945E3,6.050768E3,-1.8730391E2,5.760627E3,-1.0275492E3,3.6452976E3,-4.5489474E2,4.9466353E3,-1.3546239E3,-1.2951094E2,2.1875735E3,-8.389925E2,1.0058724E4,-1.5663043E3,8.6475696E2,-2.0947014E3,-1.6165756E2,1.157232E3,-1.0589568E3,7.0808344E2,-2.34685E3,-4.5492584E2,9.839448E2,-2.086588E2,4.3267282E2,8.196716E2,-9.099269E2,-8.222781E1,1.5459016E2,7.6756805E2,3.400521E2,8.780578E2,-7.255918E1,4.919418E2,7.5406213E2,-1.2066797E1,5.1688965E1,8.627246E2,1.6802585E2,1.407993E3,3.0519492E2,-2.2635954E2],"categories":[],"categories_nodes":[],"categories_segments":[],"categories_sizes":[],"default_left":[0,0,0,0,0,0,0,0,0,0,0,0,0,0,0,0,0,0,0,0,0,0,0,0,0,0,0,0,0,0,0,0,0,0,0,0,0,0,0,0,0,0,0,0,0,0,0,0,0,0,0,0,0,0,0,0,0,0,0,0,0,0,0,0,0,0,0,0,0,0,0,0,0,0,0,0,0,0,0,0,0,0,0,0,0],"id":11,"left_children":[1,3,5,7,9,11,13,15,17,-1,19,21,23,25,27,29,31,33,35,37,39,41,43,45,47,49,51,53,55,57,-1,-1,59,61,-1,-1,63,-1,65,-1,-1,67,69,-1,71,-1,73,-1,75,-1,77,-1,-1,79,-1,81,83,-1,-1,-1,-1,-1,-1,-1,-1,-1,-1,-1,-1,-1,-1,-1,-1,-1,-1,-1,-1,-1,-1,-1,-1,-1,-1,-1,-1],"loss_changes":[1.1986606E10,2.1916104E9,5.3596467E8,1.1369032E9,1.9369984E8,5.1885363E8,3.9599856E8,3.3838748E9,1.5142328E9,0E0,9.320122E7,3.3025792E8,3.1432512E8,2.7467514E8,2.5655312E8,9.758774E8,2.9166822E8,1.048641E9,1.5555156E9,2.3371253E8,2.33296E7,7.6925184E8,9.7847834E8,7.044981E7,5.1136957E8,1.0655078E8,8.667114E7,5.0108022E8,8.7608934E8,1.1660077E9,0E0,0E0,1.9200118E8,1.5151729E9,0E0,0E0,1.7146844E9,0E0,3.1280275E8,0E0,0E0,4.7565312E8,1.294505E8,0E0,2.296946E8,0E0,1.2905888E7,0E0,3.1414692E7,0E0,4.034345E7,0E0,0E0,4.689216E8,0E0,4.8171507E8,4.5551584E7,0E0,0E0,0E0,0E0,0E0,0E0,0E0,0E0,0E0,0E0,0E0,0E0,0E0,0E0,0E0,0E0,0E0,0E0,0E0,0E0,0E0,0E0,0E0,0E0,0E0,0E0,0E0,0E0],"parents":[2147483647,0,0,1,1,2,2,3,3,4,4,5,5,6,6,7,7,8,8,10,10,11,11,12,12,13,13,14,14,15,15,16,16,17,17,18,18,19,19,20,20,21,21,22,22,23,23,24,24,25,25,26,26,27,27,28,28,29,29,32,32,33,33,36,36,38,38,41,41,42,42,44,44,46,46,48,48,50,50,53,53,55,55,56,56],"right_children":[2,4,6,8,10,12,14,16,18,-1,20,22,24,26,28,30,32,34,36,38,40,42,44,46,48,50,52,54,56,58,-1,-1,60,62,-1,-1,64,-1,66,-1,-1,68,70,-1,72,-1,74,-1,76,-1,78,-1,-1,80,-1,82,84,-1,-1,-1,-1,-1,-1,-1,-1,-1,-1,-1,-1,-1,-1,-1,-1,-1,-1,-1,-1,-1,-1,-1,-1,-1,-1,-1,-1],"split_conditions":[1E0,3.75E-1,2.7710374E-2,9.5418E-4,1.11717E-3,1E1,5.51E-2,8.2317E-4,1.28125E-3,-4.5777286E2,9E0,4.31E-2,1.827389E-2,9E0,6.94E-2,7.6619E-4,9.0002E-4,1.23198E-3,1.30678E-3,1.26032E-3,1E1,4.07E-2,4.4E-2,3.75E-1,4.74E-2,8E0,1E1,6.62E-2,9E0,8E0,-2.3945437E3,1.843409E3,7E0,1.20586E-3,-1.9361293E3,1.29056E3,1.32478E-3,-6.63965E2,1.38913E-3,9.7260706E2,1.9232812E2,9E0,9E0,2.3145945E3,4.74E-2,-1.8730391E2,3.25E-2,-1.0275492E3,4.76E-2,-4.5489474E2,2.5E-1,-1.3546239E3,-1.2951094E2,3.75E-1,-8.389925E2,2.5E-1,2.5E-1,8.6475696E2,-2.0947014E3,-1.6165756E2,1.157232E3,-1.0589568E3,7.0808344E2,-2.34685E3,-4.5492584E2,9.839448E2,-2.086588E2,4.3267282E2,8.196716E2,-9.099269E2,-8.222781E1,1.5459016E2,7.6756805E2,3.400521E2,8.780578E2,-7.255918E1,4.919418E2,7.5406213E2,-1.2066797E1,5.1688965E1,8.627246E2,1.6802585E2,1.407993E3,3.0519492E2,-2.2635954E2],"split_indices":[7,21,16,15,15,0,15,15,15,0,0,15,16,0,15,15,15,15,15,15,0,15,15,21,15,0,0,15,0,0,0,0,0,15,0,0,15,0,15,0,0,0,0,0,15,0,15,0,15,0,21,0,0,21,0,21,21,0,0,0,0,0,0,0,0,0,0,0,0,0,0,0,0,0,0,0,0,0,0,0,0,0,0,0,0],"split_type":[0,0,0,0,0,0,0,0,0,0,0,0,0,0,0,0,0,0,0,0,0,0,0,0,0,0,0,0,0,0,0,0,0,0,0,0,0,0,0,0,0,0,0,0,0,0,0,0,0,0,0,0,0,0,0,0,0,0,0,0,0,0,0,0,0,0,0,0,0,0,0,0,0,0,0,0,0,0,0,0,0,0,0,0,0],"sum_hessian":[6.21E2,2.65E2,3.56E2,2.47E2,1.8E1,2.78E2,7.8E1,1.6E1,2.31E2,1E0,1.7E1,2.63E2,1.5E1,6E0,7.2E1,7E0,9E0,4.7E1,1.84E2,9E0,8E0,2.28E2,3.5E1,6E0,9E0,3E0,3E0,4.7E1,2.5E1,4E0,3E0,6E0,3E0,3.6E1,1.1E1,4E0,1.8E2,1E0,8E0,7E0,1E0,2.21E2,7E0,3E0,3.2E1,1E0,5E0,5E0,4E0,1E0,2E0,2E0,1E0,4.3E1,4E0,1.4E1,1.1E1,3E0,1E0,2E0,1E0,3.1E1,5E0,4E0,1.76E2,5E0,3E0,1.81E2,4E1,3E0,4E0,9E0,2.3E1,4E0,1E0,1E0,3E0,1E0,1E0,3.5E1,8E0,5E0,9E0,1E0,1E1],"tree_param":{"num_deleted":"0","num_feature":"22","num_nodes":"85","size_leaf_vector":"1"}},{"base_weights":[1.3289955E2,-4.3694478E3,3.564059E3,-7.260735E3,-1.2563284E3,5.1987705E3,2.7488027E3,-6.326059E3,-1.4459596E4,-2.2506636E3,8.401228E3,8.0719624E3,4.216033E3,2.757125E2,3.4322446E3,-7.5810864E3,1.471E3,-6.234775E3,-1.6681639E4,-1.1238942E3,-1.858918E4,9.2963E3,2.3188855E2,3.5328784E3,1.0901748E3,2.0673472E3,7.560694E3,1.1566843E3,-8.765343E2,1.2610186E4,2.920354E3,-6.0419414E3,-2.4695437E3,1.4890765E4,-1.2095864E4,-1.6959062E3,1.8331185E3,-1.7815143E3,-2.106547E2,-2.0552742E3,5.941734E3,-2.040844E3,-2.927176E2,1.6872949E2,9.888471E2,1.0186641E4,5.180856E2,5.3696934E3,-1.923113E3,1.4384878E3,3.5492317E3,2.7340452E3,-2.811251E3,1.3305126E3,3.1778595E2,-9.248279E3,3.3773545E3,-6.890459E2,6.821657E2,1.6250034E3,1.3286699E2,-1.9985696E3,-3.505028E2,-8.710615E1,-2.1449607E3,1.1908535E3,2.3641597E2,1.8216649E3,1.4377553E2,-3.7631622E2,2.8905005E2,-2.1595369E2,7.969418E2,-5.37046E2,2.8336093E2,-1.8530031E2,6.366162E2,-2.7036963E2,4.0929745E2,-8.084375E2,1.6024289E2,-1.8313614E2,-1.4353127E3,3.9402325E2,-1.07206604E2],"categories":[],"categories_nodes":[],"categories_segments":[],"categories_sizes":[],"default_left":[0,0,0,0,0,0,0,0,0,0,0,0,0,0,0,0,0,0,0,0,0,0,0,0,0,0,0,0,0,0,0,0,0,0,0,0,0,0,0,0,0,0,0,0,0,0,0,0,0,0,0,0,0,0,0,0,0,0,0,0,0,0,0,0,0,0,0,0,0,0,0,0,0,0,0,0,0,0,0,0,0,0,0,0,0],"id":12,"left_children":[1,3,5,7,9,11,13,15,17,19,21,23,25,27,29,31,33,35,37,39,41,43,-1,45,-1,47,49,51,-1,53,55,57,-1,59,61,-1,-1,-1,-1,63,65,-1,-1,-1,-1,67,69,71,73,-1,75,77,79,-1,-1,81,83,-1,-1,-1,-1,-1,-1,-1,-1,-1,-1,-1,-1,-1,-1,-1,-1,-1,-1,-1,-1,-1,-1,-1,-1,-1,-1,-1,-1],"loss_changes":[1.0072399E10,2.5291377E9,4.7881165E8,8.9090355E8,1.3344986E9,3.104466E8,4.1991693E8,1.293055E9,1.8840806E8,2.280325E9,4.9216704E7,3.4682445E8,6.527256E8,4.482091E8,8.793037E8,2.8273777E9,3.639335E9,1.6281416E9,1.6072269E8,7.887444E8,1.682071E8,3.2879488E7,0E0,2.5549874E8,0E0,7.746436E8,9.344429E8,3.2688822E8,0E0,2.3267328E7,1.06559386E9,1.1930788E9,0E0,1.6275456E8,6.077522E8,0E0,0E0,0E0,0E0,2.3928525E9,2.706998E8,0E0,0E0,0E0,0E0,2.5482336E8,1.1244638E8,6.435756E8,4.579657E8,0E0,3.7702173E8,2.844779E8,3.6206288E8,0E0,0E0,2.3874989E8,4.550308E8,0E0,0E0,0E0,0E0,0E0,0E0,0E0,0E0,0E0,0E0,0E0,0E0,0E0,0E0,0E0,0E0,0E0,0E0,0E0,0E0,0E0,0E0,0E0,0E0,0E0,0E0,0E0,0E0],"parents":[2147483647,0,0,1,1,2,2,3,3,4,4,5,5,6,6,7,7,8,8,9,9,10,10,11,11,12,12,13,13,14,14,15,15,16,16,17,17,18,18,19,19,20,20,21,21,23,23,25,25,26,26,27,27,29,29,30,30,31,31,33,33,34,34,39,39,40,40,45,45,46,46,47,47,48,48,50,50,51,51,52,52,55,55,56,56],"right_children":[2,4,6,8,10,12,14,16,18,20,22,24,26,28,30,32,34,36,38,40,42,44,-1,46,-1,48,50,52,-1,54,56,58,-1,60,62,-1,-1,-1,-1,64,66,-1,-1,-1,-1,68,70,72,74,-1,76,78,80,-1,-1,82,84,-1,-1,-1,-1,-1,-1,-1,-1,-1,-1,-1,-1,-1,-1,-1,-1,-1,-1,-1,-1,-1,-1,-1,-1,-1,-1,-1,-1],"split_conditions":[1E0,2.5E-1,8E0,8E0,6.15E-2,1.08013E-3,1.26692E-3,6.31E-2,3.87E-2,5.71E-2,7.88E-2,9.5418E-4,1.52078E-3,1.24787E-3,1.37794E-3,5.31E-2,6.94E-2,3.71E-2,6.79E-2,4.95E-2,3.1295814E-2,6.31E-2,2.3188855E2,7.6619E-4,1.0901748E3,1.32662E-3,1.74057E-3,3.75E-1,-8.765343E2,1E1,1.4416E-3,4.79E-2,-2.4695437E3,6.85E-2,7.24E-2,-1.6959062E3,1.8331185E3,-1.7815143E3,-2.106547E2,4.67E-2,5.23E-2,-2.040844E3,-2.927176E2,1.6872949E2,9.888471E2,2.5E-1,2.5E-1,1.17325E-3,2.5E-1,1.4384878E3,2.71E-2,1.04226E-3,9E0,1.3305126E3,3.1778595E2,1.4039E-3,1E1,-6.890459E2,6.821657E2,1.6250034E3,1.3286699E2,-1.9985696E3,-3.505028E2,-8.710615E1,-2.1449607E3,1.1908535E3,2.3641597E2,1.8216649E3,1.4377553E2,-3.7631622E2,2.8905005E2,-2.1595369E2,7.969418E2,-5.37046E2,2.8336093E2,-1.8530031E2,6.366162E2,-2.7036963E2,4.0929745E2,-8.084375E2,1.6024289E2,-1.8313614E2,-1.4353127E3,3.9402325E2,-1.07206604E2],"split_indices":[7,21,0,0,15,15,15,15,15,15,15,15,15,15,15,15,15,15,15,15,16,15,0,15,0,15,15,21,0,0,15,15,0,15,15,0,0,0,0,15,15,0,0,0,0,21,21,15,21,0,15,15,0,0,0,15,0,0,0,0,0,0,0,0,0,0,0,0,0,0,0,0,0,0,0,0,0,0,0,0,0,0,0,0,0],"split_type":[0,0,0,0,0,0,0,0,0,0,0,0,0,0,0,0,0,0,0,0,0,0,0,0,0,0,0,0,0,0,0,0,0,0,0,0,0,0,0,0,0,0,0,0,0,0,0,0,0,0,0,0,0,0,0,0,0,0,0,0,0,0,0,0,0,0,0,0,0,0,0,0,0,0,0,0,0,0,0,0,0,0,0,0,0],"sum_hessian":[6.5E2,2.81E2,3.69E2,1.45E2,1.36E2,1.21E2,2.48E2,1.3E2,1.5E1,1.24E2,1.2E1,2.9E1,9.2E1,5.4E1,1.94E2,1.12E2,1.8E1,4E0,1.1E1,1.17E2,7E0,1E1,2E0,1.2E1,1.7E1,5.7E1,3.5E1,5E1,4E0,9E0,1.85E2,1.04E2,8E0,9E0,9E0,3E0,1E0,1E1,1E0,1.04E2,1.3E1,6E0,1E0,1E0,9E0,3E0,9E0,3.1E1,2.6E1,1.2E1,2.3E1,3.6E1,1.4E1,8E0,1E0,6E0,1.79E2,9.8E1,6E0,8E0,1E0,4E0,5E0,9.9E1,5E0,4E0,9E0,1E0,2E0,3E0,6E0,8E0,2.3E1,1.5E1,1.1E1,8E0,1.5E1,7E0,2.9E1,6E0,8E0,3E0,3E0,1.59E2,2E1],"tree_param":{"num_deleted":"0","num_feature":"22","num_nodes":"85","size_leaf_vector":"1"}},{"base_weights":[5.212307E2,-3.8625732E3,3.8720913E3,-1.9623184E4,-3.3740488E3,5.2794604E3,2.4430903E3,-6.625965E3,-2.6096323E3,1.0603518E4,-3.7927612E3,8.896318E3,4.2083623E3,1.7305817E3,2.2623682E3,4.4027866E2,-1.985611E3,1.2391099E4,3.4938489E3,-4.464232E3,6.028422E3,6.429325E3,1.5654363E4,2.560044E3,7.124135E3,2.6553982E3,-3.395831E3,1.52141045E4,4.496725E3,-6.915459E2,1.2156233E3,-9.432194E3,-2.92606E3,2.7531335E3,9.3689795E3,8.92425E3,-3.3995972E3,8.889078E3,2.8477007E3,3.1060645E3,-7.4527217E3,9.988641E2,8.444344E3,5.5902594E2,3.7366182E3,-6.976462E3,-1.427125E3,4.0807462E2,1.7564974E3,1.2533984E2,5.4916895E2,-6.4185046E2,-1.8230062E3,8.6177734E2,-4.9279434E2,1.1190201E3,5.7232594E1,1.0172928E3,1.87067E2,-1.437696E2,1.0966416E3,8.163564E1,-6.765651E2,-2.1795683E2,1.078168E3,2.5990994E2,1.6434717E3,2.3436563E2,-1.476486E3,3.363588E2,-2.0385774E2,1.0558604E3,1.7183075E2,5.509122E2,-1.4578944E2,-2.2961143E2,5.185871E2,-7.2084114E1,-1.2871663E3,1.5444609E2,-3.170328E2],"categories":[],"categories_nodes":[],"categories_segments":[],"categories_sizes":[],"default_left":[0,0,0,0,0,0,0,0,0,0,0,0,0,0,0,0,0,0,0,0,0,0,0,0,0,0,0,0,0,0,0,0,0,0,0,0,0,0,0,0,0,0,0,0,0,0,0,0,0,0,0,0,0,0,0,0,0,0,0,0,0,0,0,0,0,0,0,0,0,0,0,0,0,0,0,0,0,0,0,0,0],"id":13,"left_children":[1,3,5,7,9,11,13,15,-1,17,19,21,23,-1,25,-1,-1,27,29,31,33,35,37,39,41,43,45,47,49,-1,-1,51,53,55,57,59,61,63,-1,65,67,69,71,73,75,77,79,-1,-1,-1,-1,-1,-1,-1,-1,-1,-1,-1,-1,-1,-1,-1,-1,-1,-1,-1,-1,-1,-1,-1,-1,-1,-1,-1,-1,-1,-1,-1,-1,-1,-1],"loss_changes":[9.254662E9,2.0357381E9,7.050757E8,5.0014925E8,1.5970022E9,6.560092E8,4.4164614E8,6.7107014E8,0E0,5.8380224E7,1.7349233E9,5.662349E8,6.546189E8,0E0,4.0486125E8,0E0,0E0,6.530157E7,3.5457418E8,1.8293043E9,1.6020787E8,7.9053414E8,6.143542E8,5.2066157E8,3.9589734E8,3.7643994E8,7.463424E7,3.3014144E7,2.797708E6,0E0,0E0,1.3942912E9,4.3639265E9,1.7759178E8,2.9195776E7,5.4478694E8,1.0486108E8,1.9108774E8,0E0,5.4515744E8,3.92766E8,7.868403E7,5.649011E8,5.871008E8,9.736324E8,1.3823413E8,5.1517148E7,0E0,0E0,0E0,0E0,0E0,0E0,0E0,0E0,0E0,0E0,0E0,0E0,0E0,0E0,0E0,0E0,0E0,0E0,0E0,0E0,0E0,0E0,0E0,0E0,0E0,0E0,0E0,0E0,0E0,0E0,0E0,0E0,0E0,0E0],"parents":[2147483647,0,0,1,1,2,2,3,3,4,4,5,5,6,6,7,7,9,9,10,10,11,11,12,12,14,14,17,17,18,18,19,19,20,20,21,21,22,22,23,23,24,24,25,25,26,26,27,27,28,28,31,31,32,32,33,33,34,34,35,35,36,36,37,37,39,39,40,40,41,41,42,42,43,43,44,44,45,45,46,46],"right_children":[2,4,6,8,10,12,14,16,-1,18,20,22,24,-1,26,-1,-1,28,30,32,34,36,38,40,42,44,46,48,50,-1,-1,52,54,56,58,60,62,64,-1,66,68,70,72,74,76,78,80,-1,-1,-1,-1,-1,-1,-1,-1,-1,-1,-1,-1,-1,-1,-1,-1,-1,-1,-1,-1,-1,-1,-1,-1,-1,-1,-1,-1,-1,-1,-1,-1,-1,-1],"split_conditions":[1E0,8.2317E-4,2E0,7.6619E-4,9.0002E-4,1.20941E-3,6.9445E-4,8E0,-2.6096323E3,8.944E-4,3E0,1.09639E-3,4.74E-2,1.7305817E3,6.36E-2,4.4027866E2,-1.985611E3,3E0,7E0,1.27539E-3,9E0,1.04658E-3,8E0,4.57E-2,8E0,2E0,6.56E-2,8.4081E-4,8E0,-6.915459E2,1.2156233E3,1.21994E-3,1.4039E-3,1.00728E-3,1E1,8.3611E-4,1.08013E-3,7E0,2.8477007E3,4.34E-2,2E0,6.62E-2,9E0,1.3108E-3,1.14858E-3,6.46E-2,7.42E-2,4.0807462E2,1.7564974E3,1.2533984E2,5.4916895E2,-6.4185046E2,-1.8230062E3,8.6177734E2,-4.9279434E2,1.1190201E3,5.7232594E1,1.0172928E3,1.87067E2,-1.437696E2,1.0966416E3,8.163564E1,-6.765651E2,-2.1795683E2,1.078168E3,2.5990994E2,1.6434717E3,2.3436563E2,-1.476486E3,3.363588E2,-2.0385774E2,1.0558604E3,1.7183075E2,5.509122E2,-1.4578944E2,-2.2961143E2,5.185871E2,-7.2084114E1,-1.2871663E3,1.5444609E2,-3.170328E2],"split_indices":[7,15,4,15,15,15,15,0,0,15,2,15,15,0,15,0,0,3,0,15,0,15,0,15,0,2,15,16,0,0,0,15,15,15,0,15,15,0,0,15,2,15,0,15,15,15,15,0,0,0,0,0,0,0,0,0,0,0,0,0,0,0,0,0,0,0,0,0,0,0,0,0,0,0,0,0,0,0,0,0,0],"split_type":[0,0,0,0,0,0,0,0,0,0,0,0,0,0,0,0,0,0,0,0,0,0,0,0,0,0,0,0,0,0,0,0,0,0,0,0,0,0,0,0,0,0,0,0,0,0,0,0,0,0,0,0,0,0,0,0,0,0,0,0,0,0,0,0,0,0,0,0,0,0,0,0,0,0,0,0,0,0,0,0,0],"sum_hessian":[6.28E2,2.72E2,3.56E2,7E0,2.65E2,1.78E2,1.78E2,3E0,4E0,7E0,2.58E2,3.9E1,1.39E2,1E0,1.77E2,2E0,1E0,5E0,2E0,2.42E2,1.6E1,3E1,9E0,9E1,4.9E1,1.66E2,1.1E1,3E0,2E0,1E0,1E0,5.6E1,1.86E2,9E0,7E0,2.4E1,6E0,7E0,2E0,8.6E1,4E0,9E0,4E1,5.7E1,1.09E2,3E0,8E0,1E0,2E0,1E0,1E0,4.3E1,1.3E1,2.7E1,1.59E2,1E0,8E0,6E0,1E0,4E0,2E1,3E0,3E0,1E0,6E0,8.4E1,2E0,2E0,2E0,5E0,4E0,3E1,1E1,1.6E1,4.1E1,2.1E1,8.8E1,2E0,1E0,3E0,5E0],"tree_param":{"num_deleted":"0","num_feature":"22","num_nodes":"81","size_leaf_vector":"1"}},{"base_weights":[-6.0626483E2,-5.0328184E3,2.9114155E3,3.965764E3,-6.0565225E3,4.2863877E3,1.6039197E3,-1.257333E4,9.799718E3,-1.5791331E4,-4.8560923E3,8.676842E3,3.0421104E3,2.4820217E3,-2.7250269E3,-1.237636E3,-2.3599614E3,4.687494E3,1.6663209E3,-2.2745867E3,-1.0362434E4,1.2249723E3,-6.655857E3,5.941544E3,1.6526484E4,-7.9858167E2,3.2696987E3,1.6440527E3,2.2793616E3,-9.5328265E2,-1.0491875E3,7.8846075E2,-1.8863304E3,1.5108685E4,-2.780799E3,1.4414248E3,-1.2994791E4,-1.7584447E3,9.448422E3,-1.1635782E4,-4.359425E3,7.891804E3,-2.849754E3,2.8581577E3,8.999091E3,1.0963265E3,2.9436243E3,-4.438789E2,3.1120337E3,2.7314575E3,-2.5858176E3,1.945911E3,4.2718893E2,-6.765848E2,1.4549795E3,-1.4126045E3,1.1339263E3,-1.9621155E3,-7.1333496E2,1.7017783E2,-2.5628318E3,2.0566895E1,1.1950476E3,-1.2513192E3,-5.345297E1,2.5165923E2,-6.5783386E2,-1.4800807E2,1.0435989E3,-5.38525E2,4.9138632E2,-1.926707E2,1.1141176E3,1.3663963E2,4.8236166E2,3.5680453E2,-4.654028E2,4.2448462E2,-1.869621E2,-5.7732357E1,8.4385345E2,5.56798E1,-4.0790863E2],"categories":[],"categories_nodes":[],"categories_segments":[],"categories_sizes":[],"default_left":[0,0,0,0,0,0,0,0,0,0,0,0,0,0,0,0,0,0,0,0,0,0,0,0,0,0,0,0,0,0,0,0,0,0,0,0,0,0,0,0,0,0,0,0,0,0,0,0,0,0,0,0,0,0,0,0,0,0,0,0,0,0,0,0,0,0,0,0,0,0,0,0,0,0,0,0,0,0,0,0,0,0,0],"id":14,"left_children":[1,3,5,7,9,11,13,15,17,19,21,23,25,27,29,31,-1,33,-1,-1,35,37,39,41,43,-1,45,-1,47,-1,49,-1,-1,51,53,55,57,59,61,63,65,67,69,-1,71,-1,73,75,77,79,81,-1,-1,-1,-1,-1,-1,-1,-1,-1,-1,-1,-1,-1,-1,-1,-1,-1,-1,-1,-1,-1,-1,-1,-1,-1,-1,-1,-1,-1,-1,-1,-1],"loss_changes":[9.777794E9,2.5849242E9,6.223447E8,2.9213763E9,2.844805E9,9.02304E8,6.947912E8,9.7071706E8,6.938207E8,7.8369485E8,2.459717E9,6.9623834E8,3.624283E8,3.8968E8,3.436704E8,9.52658E8,0E0,1.1316134E9,0E0,0E0,5.469545E8,1.2923816E9,1.9277128E9,5.1970387E8,5.594824E8,0E0,2.9887334E8,0E0,3.415163E8,0E0,1.5810882E8,0E0,0E0,1.997408E8,7.200111E8,7.7651616E8,4.0379622E8,3.2648215E9,3.213042E8,5.1928986E8,1.8474294E9,5.876974E8,1.445701E8,0E0,1.8529363E8,0E0,3.7295168E8,6.2467456E8,6.5691354E8,1.5593949E8,9.143385E7,0E0,0E0,0E0,0E0,0E0,0E0,0E0,0E0,0E0,0E0,0E0,0E0,0E0,0E0,0E0,0E0,0E0,0E0,0E0,0E0,0E0,0E0,0E0,0E0,0E0,0E0,0E0,0E0,0E0,0E0,0E0,0E0],"parents":[2147483647,0,0,1,1,2,2,3,3,4,4,5,5,6,6,7,7,8,8,9,9,10,10,11,11,12,12,13,13,14,14,15,15,17,17,20,20,21,21,22,22,23,23,24,24,26,26,28,28,30,30,33,33,34,34,35,35,36,36,37,37,38,38,39,39,40,40,41,41,42,42,44,44,46,46,47,47,48,48,49,49,50,50],"right_children":[2,4,6,8,10,12,14,16,18,20,22,24,26,28,30,32,-1,34,-1,-1,36,38,40,42,44,-1,46,-1,48,-1,50,-1,-1,52,54,56,58,60,62,64,66,68,70,-1,72,-1,74,76,78,80,82,-1,-1,-1,-1,-1,-1,-1,-1,-1,-1,-1,-1,-1,-1,-1,-1,-1,-1,-1,-1,-1,-1,-1,-1,-1,-1,-1,-1,-1,-1,-1,-1],"split_conditions":[1E0,1.04226E-3,2E0,8.2317E-4,1.20586E-3,1.20941E-3,2.9648835E-2,7.6619E-4,9.7637E-4,7E0,1.4039E-3,1.09032E-3,1.23069E-3,6.9445E-4,3.0666925E-2,8E0,-2.3599614E3,8.944E-4,1.6663209E3,-2.2745867E3,1.09639E-3,1.35283E-3,1.631851E-2,1.04658E-3,1.1411E-3,-7.9858167E2,1.24296E-3,1.6440527E3,1.19815E-3,-9.5328265E2,3.2244567E-2,7.8846075E2,-1.8863304E3,3E0,3E0,1.05285E-3,1.12443E-3,1.34272E-3,7E0,3E0,2.280734E-2,8.3611E-4,3E0,2.8581577E3,2E0,1.0963265E3,2.1890635E-2,1.09032E-3,3E0,3.1595133E-2,2E0,1.945911E3,4.2718893E2,-6.765848E2,1.4549795E3,-1.4126045E3,1.1339263E3,-1.9621155E3,-7.1333496E2,1.7017783E2,-2.5628318E3,2.0566895E1,1.1950476E3,-1.2513192E3,-5.345297E1,2.5165923E2,-6.5783386E2,-1.4800807E2,1.0435989E3,-5.38525E2,4.9138632E2,-1.926707E2,1.1141176E3,1.3663963E2,4.8236166E2,3.5680453E2,-4.654028E2,4.2448462E2,-1.869621E2,-5.7732357E1,8.4385345E2,5.56798E1,-4.0790863E2],"split_indices":[7,16,4,16,16,16,16,16,16,0,16,16,16,16,16,0,0,16,0,0,16,16,16,16,16,0,16,0,16,0,16,0,0,3,3,16,16,16,0,2,16,16,3,0,2,0,16,16,3,16,2,0,0,0,0,0,0,0,0,0,0,0,0,0,0,0,0,0,0,0,0,0,0,0,0,0,0,0,0,0,0,0,0],"split_type":[0,0,0,0,0,0,0,0,0,0,0,0,0,0,0,0,0,0,0,0,0,0,0,0,0,0,0,0,0,0,0,0,0,0,0,0,0,0,0,0,0,0,0,0,0,0,0,0,0,0,0,0,0,0,0,0,0,0,0,0,0,0,0,0,0,0,0,0,0,0,0,0,0,0,0,0,0,0,0,0,0,0,0],"sum_hessian":[6.26E2,2.77E2,3.49E2,2.8E1,2.49E2,1.69E2,1.8E2,7E0,2.1E1,2.6E1,2.23E2,3.6E1,1.33E2,1.5E2,3E1,4E0,3E0,1.3E1,8E0,1E1,1.6E1,5.1E1,1.72E2,2.8E1,8E0,2E0,1.31E2,1E0,1.49E2,5E0,2.5E1,3E0,1E0,5E0,8E0,3E0,1.3E1,3.8E1,1.3E1,5.3E1,1.19E2,2.3E1,5E0,2E0,6E0,4E0,1.27E2,3.5E1,1.14E2,7E0,1.8E1,3E0,2E0,7E0,1E0,1E0,2E0,5E0,8E0,3.4E1,4E0,3E0,1E1,4.9E1,4E0,2.9E1,9E1,5E0,1.8E1,4E0,1E0,1E0,5E0,7E1,5.7E1,1.8E1,1.7E1,9.3E1,2.1E1,5E0,2E0,6E0,1.2E1],"tree_param":{"num_deleted":"0","num_feature":"22","num_nodes":"83","size_leaf_vector":"1"}},{"base_weights":[-6.829419E2,-5.0711016E3,2.7037458E3,-1.5620113E4,-4.7433975E3,3.2485063E3,-4.0597662E2,-3.589418E3,-2.212065E3,3.6507239E3,-5.493682E3,7.4258164E3,2.8866045E3,1.8826094E2,-5.2902935E3,7.1608687E3,-1.7920139E3,-3.6236511E3,8.58594E3,-9.673412E3,-4.67914E3,1.1872085E4,3.9665825E3,-1.904743E2,3.0939846E3,-1.0442893E3,4.178361E3,-9.2984375E2,-2.6289773E3,9.211082E2,1.5302208E2,1.2154299E3,-6.7272344E3,2.8072117E3,1.1484433E4,-6.9333525E3,-2.1600356E3,4.065574E2,-5.7921465E3,-1.7768242E2,1.3586056E4,-2.9883125E3,6.7673003E3,2.226533E3,-3.7921758E3,1.604622E3,2.8868037E3,-1.9642859E3,5.6045444E3,2.0973718E3,7.448086E2,-2.2242188E0,-3.2751007E2,-1.0532894E3,1.1859026E3,7.7500635E2,-1.0953524E3,1.6766595E3,6.048918E2,-9.9688934E2,8.893986E2,-4.422485E2,3.2877203E2,-2.09251E3,-5.404287E2,2.3817942E3,9.329827E2,2.3924219E2,-4.9316016E2,1.00583856E3,3.4497675E2,-1.0595371E2,2.621588E2,-5.299359E1,-6.921932E2,2.5213896E2,4.7147238E2,-8.472402E2,-5.971867E1,1.0912284E3,1.549539E2,-3.5055133E2,3.6743515E2],"categories":[],"categories_nodes":[],"categories_segments":[],"categories_sizes":[],"default_left":[0,0,0,0,0,0,0,0,0,0,0,0,0,0,0,0,0,0,0,0,0,0,0,0,0,0,0,0,0,0,0,0,0,0,0,0,0,0,0,0,0,0,0,0,0,0,0,0,0,0,0,0,0,0,0,0,0,0,0,0,0,0,0,0,0,0,0,0,0,0,0,0,0,0,0,0,0,0,0,0,0,0,0],"id":15,"left_children":[1,3,5,7,9,11,13,15,-1,17,19,21,23,25,27,29,-1,31,33,35,37,39,41,43,45,47,49,-1,51,-1,-1,-1,53,55,57,59,-1,61,63,-1,65,67,69,71,73,-1,75,77,79,-1,81,-1,-1,-1,-1,-1,-1,-1,-1,-1,-1,-1,-1,-1,-1,-1,-1,-1,-1,-1,-1,-1,-1,-1,-1,-1,-1,-1,-1,-1,-1,-1,-1],"loss_changes":[9.554683E9,8.938547E8,6.1626035E8,5.462473E8,1.7394038E9,4.4570368E8,1.6063042E8,7.4456115E8,0E0,8.568266E8,8.0928256E8,3.220448E8,1.83093E8,2.5026336E8,3.955624E7,2.0537104E7,0E0,5.714466E8,2.0225504E8,1.1574584E9,1.2023624E9,2.5807834E8,3.1240326E8,1.7384483E8,6.728438E8,2.495682E8,6.763915E8,0E0,8.348516E6,0E0,0E0,0E0,7.615068E8,4.929941E8,1.5698163E8,1.7221773E9,0E0,5.571569E8,9.0819994E8,0E0,1.6972582E8,6.408009E7,8.540205E7,1.8355828E7,7.801193E7,0E0,1.6511846E8,3.0634378E8,9.070555E7,0E0,1.4984698E8,0E0,0E0,0E0,0E0,0E0,0E0,0E0,0E0,0E0,0E0,0E0,0E0,0E0,0E0,0E0,0E0,0E0,0E0,0E0,0E0,0E0,0E0,0E0,0E0,0E0,0E0,0E0,0E0,0E0,0E0,0E0,0E0],"parents":[2147483647,0,0,1,1,2,2,3,3,4,4,5,5,6,6,7,7,9,9,10,10,11,11,12,12,13,13,14,14,15,15,17,17,18,18,19,19,20,20,21,21,22,22,23,23,24,24,25,25,26,26,28,28,32,32,33,33,34,34,35,35,37,37,38,38,40,40,41,41,42,42,43,43,44,44,46,46,47,47,48,48,50,50],"right_children":[2,4,6,8,10,12,14,16,-1,18,20,22,24,26,28,30,-1,32,34,36,38,40,42,44,46,48,50,-1,52,-1,-1,-1,54,56,58,60,-1,62,64,-1,66,68,70,72,74,-1,76,78,80,-1,82,-1,-1,-1,-1,-1,-1,-1,-1,-1,-1,-1,-1,-1,-1,-1,-1,-1,-1,-1,-1,-1,-1,-1,-1,-1,-1,-1,-1,-1,-1,-1,-1],"split_conditions":[1E0,8.2317E-4,3.0246206E-2,7.6619E-4,1.04226E-3,7E0,4.1657645E-2,8E0,-2.212065E3,7E0,1.24296E-3,1.23198E-3,9.7926E-4,3.5987034E-2,8E0,7E0,-1.7920139E3,8.944E-4,9.2081E-4,1.22339E-3,1.4039E-3,7.9531E-4,1.28125E-3,2E0,1.00315E-3,1E1,3.6299426E-2,-9.2984375E2,2E0,9.211082E2,1.5302208E2,1.2154299E3,1.02554E-3,8.944E-4,9.7926E-4,1.20586E-3,-2.1600356E3,1.32478E-3,1.42221E-3,-1.7768242E2,8.6533E-4,1.23862E-3,1.32662E-3,6.9445E-4,2E0,1.604622E3,2.524291E-2,3.0666925E-2,3.047423E-2,2.0973718E3,3.7051145E-2,-2.2242188E0,-3.2751007E2,-1.0532894E3,1.1859026E3,7.7500635E2,-1.0953524E3,1.6766595E3,6.048918E2,-9.9688934E2,8.893986E2,-4.422485E2,3.2877203E2,-2.09251E3,-5.404287E2,2.3817942E3,9.329827E2,2.3924219E2,-4.9316016E2,1.00583856E3,3.4497675E2,-1.0595371E2,2.621588E2,-5.299359E1,-6.921932E2,2.5213896E2,4.7147238E2,-8.472402E2,-5.971867E1,1.0912284E3,1.549539E2,-3.5055133E2,3.6743515E2],"split_indices":[7,16,16,16,16,0,16,0,0,0,16,16,16,16,0,0,0,16,16,16,16,16,16,4,16,0,16,0,4,0,0,0,16,16,16,16,0,16,16,0,16,16,16,16,2,0,16,16,16,0,16,0,0,0,0,0,0,0,0,0,0,0,0,0,0,0,0,0,0,0,0,0,0,0,0,0,0,0,0,0,0,0,0],"split_type":[0,0,0,0,0,0,0,0,0,0,0,0,0,0,0,0,0,0,0,0,0,0,0,0,0,0,0,0,0,0,0,0,0,0,0,0,0,0,0,0,0,0,0,0,0,0,0,0,0,0,0,0,0,0,0,0,0,0,0,0,0,0,0,0,0,0,0,0,0,0,0,0,0,0,0,0,0,0,0,0,0,0,0],"sum_hessian":[6.41E2,2.79E2,3.62E2,7E0,2.72E2,3.08E2,5.4E1,3E0,4E0,2.2E1,2.5E2,2.3E1,2.85E2,4.9E1,5E0,2E0,1E0,9E0,1.3E1,3.9E1,2.11E2,9E0,1.4E1,1.8E1,2.67E2,3.8E1,1.1E1,1E0,4E0,1E0,1E0,1E0,8E0,5E0,8E0,3.3E1,6E0,3.8E1,1.73E2,1E0,8E0,4E0,1E1,1.1E1,7E0,3E0,2.64E2,3.4E1,4E0,1E0,1E1,1E0,3E0,7E0,1E0,4E0,1E0,3E0,5E0,2.8E1,5E0,1.4E1,2.4E1,3E0,1.7E2,1E0,7E0,1E0,3E0,4E0,6E0,1E0,1E1,4E0,3E0,2.22E2,4.2E1,5E0,2.9E1,1E0,3E0,4E0,6E0],"tree_param":{"num_deleted":"0","num_feature":"22","num_nodes":"83","size_leaf_vector":"1"}},{"base_weights":[-2.2546452E2,-3.4497202E3,2.2829324E3,-2.7669863E3,-1.5008279E4,3.5398252E3,1.0828682E3,-3.1003235E3,1.4786603E4,-1.8368534E3,4.555582E2,4.275918E3,-7.2976666E2,1.5644996E3,9.150508E2,-5.5592563E3,-5.387232E2,1.9159612E3,5.4847253E2,3.766923E3,1.0180229E4,2.43529E3,-2.2717524E3,1.2643435E3,-3.3168723E3,-1.3963088E3,-8.316653E3,-1.6977455E3,2.4955538E-1,6.9708955E3,2.672729E3,1.7881965E3,6.4818467E3,-3.3477412E3,2.434977E3,-8.451717E2,9.7645645E1,-1.8929404E3,1.7817772E3,-1.1994264E3,-1.7267449E3,-3.0942404E2,2.017691E3,-1.9057002E3,-6.075121E2,3.1632697E2,-2.8708032E2,9.9185645E2,5.1298987E2,-1.7043187E2,4.3295508E2,-4.806604E2,1.0393777E3,5.985677E-1,-8.9392816E2,6.172008E2,-2.1200902E2,3.8278958E2,-4.9926022E2,-1.1680416E2,2.5682913E2,8.807715E0,-2.2799992E2],"categories":[],"categories_nodes":[],"categories_segments":[],"categories_sizes":[],"default_left":[0,0,0,0,0,0,0,0,0,0,0,0,0,0,0,0,0,0,0,0,0,0,0,0,0,0,0,0,0,0,0,0,0,0,0,0,0,0,0,0,0,0,0,0,0,0,0,0,0,0,0,0,0,0,0,0,0,0,0,0,0,0,0],"id":16,"left_children":[1,3,5,7,9,11,13,15,17,-1,-1,19,21,-1,23,25,27,-1,-1,29,31,33,35,37,39,41,43,-1,45,47,49,-1,51,53,-1,-1,55,57,59,-1,61,-1,-1,-1,-1,-1,-1,-1,-1,-1,-1,-1,-1,-1,-1,-1,-1,-1,-1,-1,-1,-1,-1],"loss_changes":[5.046521E9,2.1128302E9,5.2559846E8,1.5613201E9,1.06977306E9,5.4054195E8,4.280078E8,1.6032E9,9.83008E7,0E0,0E0,4.004206E8,1.3242464E8,0E0,2.70266E8,1.4806441E9,1.1163679E9,0E0,0E0,4.5815296E8,1.9741542E8,1.2221059E9,2.6439558E8,2.7619827E8,1.7246315E8,2.003814E9,1.7620644E9,0E0,1.1260685E9,1.3362483E8,7.5433376E8,0E0,4.4739546E8,1.5007347E8,0E0,0E0,2.0168384E8,4.446949E8,3.3709056E8,0E0,1.3253572E7,0E0,0E0,0E0,0E0,0E0,0E0,0E0,0E0,0E0,0E0,0E0,0E0,0E0,0E0,0E0,0E0,0E0,0E0,0E0,0E0,0E0,0E0],"parents":[2147483647,0,0,1,1,2,2,3,3,4,4,5,5,6,6,7,7,8,8,11,11,12,12,14,14,15,15,16,16,19,19,20,20,21,21,22,22,23,23,24,24,25,25,26,26,28,28,29,29,30,30,32,32,33,33,36,36,37,37,38,38,40,40],"right_children":[2,4,6,8,10,12,14,16,18,-1,-1,20,22,-1,24,26,28,-1,-1,30,32,34,36,38,40,42,44,-1,46,48,50,-1,52,54,-1,-1,56,58,60,-1,62,-1,-1,-1,-1,-1,-1,-1,-1,-1,-1,-1,-1,-1,-1,-1,-1,-1,-1,-1,-1,-1,-1],"split_conditions":[1E0,6.94E-2,2E0,6.79E-2,8.22E-2,3E0,6.9445E-4,2E0,6.85E-2,-1.8368534E3,4.555582E2,6.69E-2,1.1411E-3,1.5644996E3,6.46E-2,1.38913E-3,7.9531E-4,1.9159612E3,5.4847253E2,1.23514E-3,7.13E-2,1.08503E-3,9E0,8E0,6.56E-2,1.35283E-3,1.52445E-3,-1.6977455E3,1.52445E-3,2E0,1.41624E-3,1.7881965E3,7.24E-2,1.01944E-3,2.434977E3,-8.451717E2,3.44E-2,1.27002E-3,1.1934E-3,-1.1994264E3,2E0,-3.0942404E2,2.017691E3,-1.9057002E3,-6.075121E2,3.1632697E2,-2.8708032E2,9.9185645E2,5.1298987E2,-1.7043187E2,4.3295508E2,-4.806604E2,1.0393777E3,5.985677E-1,-8.9392816E2,6.172008E2,-2.1200902E2,3.8278958E2,-4.9926022E2,-1.1680416E2,2.5682913E2,8.807715E0,-2.2799992E2],"split_indices":[7,15,4,15,15,2,15,2,15,0,0,15,15,0,15,15,15,0,0,15,15,15,0,0,15,15,15,0,15,2,15,0,15,15,0,0,15,15,15,0,2,0,0,0,0,0,0,0,0,0,0,0,0,0,0,0,0,0,0,0,0,0,0],"split_type":[0,0,0,0,0,0,0,0,0,0,0,0,0,0,0,0,0,0,0,0,0,0,0,0,0,0,0,0,0,0,0,0,0,0,0,0,0,0,0,0,0,0,0,0,0,0,0,0,0,0,0,0,0,0,0,0,0,0,0,0,0,0,0],"sum_hessian":[6.22E2,2.72E2,3.5E2,2.58E2,1.4E1,1.7E2,1.8E2,2.54E2,4E0,1.2E1,2E0,1.45E2,2.5E1,1E0,1.79E2,1.29E2,1.25E2,2E0,2E0,1.35E2,1E1,8E0,1.7E1,1.66E2,1.3E1,5.2E1,7.7E1,3E0,1.22E2,3.3E1,1.02E2,2E0,8E0,7E0,1E0,4E0,1.3E1,2.3E1,1.43E2,1E0,1.2E1,4.9E1,3E0,1.2E1,6.5E1,5.8E1,6.4E1,1.1E1,2.2E1,2.8E1,7.4E1,2E0,6E0,5E0,2E0,3E0,1E1,8E0,1.5E1,3E1,1.13E2,3E0,9E0],"tree_param":{"num_deleted":"0","num_feature":"22","num_nodes":"63","size_leaf_vector":"1"}},{"base_weights":[-3.004694E2,-2.9594727E3,1.9485436E3,-5.6309595E3,-9.647665E1,6.6828135E3,1.4059934E3,3.067542E3,-6.620182E3,-8.8660223E2,1.0342829E4,1.2124419E3,8.258759E3,-1.497006E3,1.5614402E3,-6.678968E3,5.8305034E3,-1.6134872E4,-5.3859624E3,9.448594E2,-3.467828E3,1.1808052E3,2.9879584E2,1.1892895E4,-3.538101E3,1.3172938E4,6.5431304E3,-1.8472219E3,1.8310465E3,8.9052405E2,-1.4842118E3,1.6401729E3,2.417396E3,-2.3388103E3,9.658541E3,-2.1621116E3,-8.850454E3,1.5929063E1,1.8126088E4,-2.5288887E3,-1.7225958E3,1.4862747E3,2.9765958E2,8.853906E2,-5.484576E2,1.7562675E3,2.9289792E2,2.1376216E3,8.0615947E3,4.9728296E2,-6.305329E3,2.722706E3,3.2227924E2,-2.894375E2,1.2436589E3,1.4801816E3,3.010177E2,-3.9002026E2,2.4884304E3,-1.404975E3,-3.1666846E2,1.3483733E2,-5.886033E2,2.4009268E3,2.3827345E1,-4.430825E2,5.944798E2,1.3389258E1,1.19419334E2,5.0369376E2,-3.407112E2,5.827644E2,1.57995E3,-1.1601647E2,5.7596674E2,-7.155452E2,-1.7723438E1,2.317041E2,9.34674E2,-1.1023135E3,1.2266896E2],"categories":[],"categories_nodes":[],"categories_segments":[],"categories_sizes":[],"default_left":[0,0,0,0,0,0,0,0,0,0,0,0,0,0,0,0,0,0,0,0,0,0,0,0,0,0,0,0,0,0,0,0,0,0,0,0,0,0,0,0,0,0,0,0,0,0,0,0,0,0,0,0,0,0,0,0,0,0,0,0,0,0,0,0,0,0,0,0,0,0,0,0,0,0,0,0,0,0,0,0,0],"id":17,"left_children":[1,3,5,7,9,11,13,15,17,19,21,23,25,-1,27,29,31,33,35,37,39,-1,-1,41,43,45,47,49,51,-1,-1,-1,53,-1,55,57,59,61,63,-1,65,-1,-1,67,-1,-1,-1,69,71,73,75,77,79,-1,-1,-1,-1,-1,-1,-1,-1,-1,-1,-1,-1,-1,-1,-1,-1,-1,-1,-1,-1,-1,-1,-1,-1,-1,-1,-1,-1],"loss_changes":[3.7852106E9,2.2175089E9,8.716265E8,1.311021E9,1.172189E9,2.917221E8,8.099667E8,4.6980944E8,1.498432E9,6.272954E8,7.248333E7,4.9871978E8,1.414423E8,0E0,2.8551437E8,6.410375E8,4.2940003E8,3.032179E9,1.3323139E9,1.2446042E9,2.0509919E9,0E0,0E0,3.519987E7,6.512748E7,2.183689E8,1.2993869E8,2.4353277E8,3.8253498E8,0E0,0E0,0E0,6.2141235E8,0E0,9.222138E7,3.1056384E9,1.6695014E9,5.977392E8,4.1522816E8,0E0,1.1061233E9,0E0,0E0,5.3630025E5,0E0,0E0,0E0,1.2969294E8,1.8450368E8,1.4623618E8,4.040883E7,4.5934106E8,1.1114391E9,0E0,0E0,0E0,0E0,0E0,0E0,0E0,0E0,0E0,0E0,0E0,0E0,0E0,0E0,0E0,0E0,0E0,0E0,0E0,0E0,0E0,0E0,0E0,0E0,0E0,0E0,0E0,0E0],"parents":[2147483647,0,0,1,1,2,2,3,3,4,4,5,5,6,6,7,7,8,8,9,9,10,10,11,11,12,12,14,14,15,15,16,16,17,17,18,18,19,19,20,20,23,23,24,24,25,25,26,26,27,27,28,28,32,32,34,34,35,35,36,36,37,37,38,38,40,40,43,43,47,47,48,48,49,49,50,50,51,51,52,52],"right_children":[2,4,6,8,10,12,14,16,18,20,22,24,26,-1,28,30,32,34,36,38,40,-1,-1,42,44,46,48,50,52,-1,-1,-1,54,-1,56,58,60,62,64,-1,66,-1,-1,68,-1,-1,-1,70,72,74,76,78,80,-1,-1,-1,-1,-1,-1,-1,-1,-1,-1,-1,-1,-1,-1,-1,-1,-1,-1,-1,-1,-1,-1,-1,-1,-1,-1,-1,-1],"split_conditions":[1E0,2E0,1.05777E-3,1.03599E-3,6.76E-2,8.3611E-4,1.06198E-3,8.2317E-4,1.17861E-3,3.07E-2,8.13E-2,7.6619E-4,7E0,-1.497006E3,1.1688E-3,6.9445E-4,8.944E-4,7E0,2.0330725E-2,1.5245595E-2,1.827389E-2,1.1808052E3,2.9879584E2,2E0,7.7076E-4,1.02554E-3,9.5418E-4,1.1411E-3,4.57E-2,8.9052405E2,-1.4842118E3,1.6401729E3,7E0,-2.3388103E3,1.07383E-3,3.77E-2,5.77E-2,1.52445E-3,9E0,-2.5288887E3,9E0,1.4862747E3,2.9765958E2,2E0,-5.484576E2,1.7562675E3,2.9289792E2,9E0,9E0,1.13703E-3,1.15797E-3,4.31E-2,4.74E-2,-2.894375E2,1.2436589E3,1.4801816E3,3.010177E2,-3.9002026E2,2.4884304E3,-1.404975E3,-3.1666846E2,1.3483733E2,-5.886033E2,2.4009268E3,2.3827345E1,-4.430825E2,5.944798E2,1.3389258E1,1.19419334E2,5.0369376E2,-3.407112E2,5.827644E2,1.57995E3,-1.1601647E2,5.7596674E2,-7.155452E2,-1.7723438E1,2.317041E2,9.34674E2,-1.1023135E3,1.2266896E2],"split_indices":[7,2,15,15,15,15,15,15,15,15,15,15,0,0,15,15,15,0,16,16,16,0,0,2,15,15,15,15,15,0,0,0,0,0,15,15,15,15,0,0,0,0,0,2,0,0,0,0,0,15,15,15,15,0,0,0,0,0,0,0,0,0,0,0,0,0,0,0,0,0,0,0,0,0,0,0,0,0,0,0,0],"split_type":[0,0,0,0,0,0,0,0,0,0,0,0,0,0,0,0,0,0,0,0,0,0,0,0,0,0,0,0,0,0,0,0,0,0,0,0,0,0,0,0,0,0,0,0,0,0,0,0,0,0,0,0,0,0,0,0,0,0,0,0,0,0,0,0,0,0,0,0,0,0,0,0,0,0,0,0,0,0,0,0,0],"sum_hessian":[6.31E2,2.89E2,3.42E2,1.49E2,1.4E2,3.4E1,3.08E2,1.5E1,1.34E2,1.31E2,9E0,8E0,2.6E1,2E0,3.06E2,3E0,1.2E1,1.4E1,1.2E2,7.7E1,5.4E1,7E0,2E0,2E0,6E0,5E0,2.1E1,2.2E1,2.84E2,1E0,2E0,2E0,1E1,1.1E1,3E0,6.3E1,5.7E1,7.4E1,3E0,3E0,5.1E1,1E0,1E0,2E0,4E0,3E0,2E0,6E0,1.5E1,1.5E1,7E0,1.78E2,1.06E2,7E0,3E0,1E0,2E0,6E1,3E0,2.9E1,2.8E1,6.1E1,1.3E1,2E0,1E0,3.8E1,1.3E1,1E0,1E0,4E0,2E0,1.3E1,2E0,1.2E1,3E0,6E0,1E0,1.69E2,9E0,7E0,9.9E1],"tree_param":{"num_deleted":"0","num_feature":"22","num_nodes":"81","size_leaf_vector":"1"}},{"base_weights":[9.079262E1,-1.5219653E3,1.2370216E3,-9.407534E2,-1.1999612E4,4.0244662E2,3.4239111E3,-1.2352234E3,1.4029788E4,-1.4048885E4,1.9734766E2,8.21343E2,-2.2298447E3,9.228965E3,2.7768118E3,1.4276367E3,-3.1600723E3,1.8093417E3,5.289564E2,-1.0303277E4,-1.8964281E3,-2.0518008E2,2.3478223E2,-7.8856196E3,1.0830706E3,1.5595276E4,-4.2193213E3,4.635629E3,6.959931E2,1.2055793E2,1.3963537E4,-1.3195373E4,-1.8234553E3,-1.5639622E3,2.7705762E2,-2.680489E3,-1.5667341E3,2.375998E2,3.199216E3,1.7037727E3,3.470289E2,2.9048438E2,-7.562324E2,1.8242772E3,7.3740093E3,-2.1211016E3,4.8108696E3,9.4046906E1,-1.2471505E3,7.340254E2,1.911877E3,-9.38834E2,-1.6304744E3,1.4800474E3,-3.0348645E2,4.2203125E1,-7.893164E0,3.2804837E2,-1.6242676E3,1.12342125E2,-4.68843E2,4.8557013E2,-2.73795E2,4.187501E2,-1.7689603E3,9.578045E2,3.698141E2,-7.153295E2,1.5558061E2,7.218568E2,-1.6089037E2],"categories":[],"categories_nodes":[],"categories_segments":[],"categories_sizes":[],"default_left":[0,0,0,0,0,0,0,0,0,0,0,0,0,0,0,0,0,0,0,0,0,0,0,0,0,0,0,0,0,0,0,0,0,0,0,0,0,0,0,0,0,0,0,0,0,0,0,0,0,0,0,0,0,0,0,0,0,0,0,0,0,0,0,0,0,0,0,0,0,0,0],"id":18,"left_children":[1,3,5,7,9,11,13,15,17,19,21,23,-1,25,27,29,31,-1,-1,33,-1,-1,-1,35,37,39,41,43,45,47,49,51,53,-1,55,57,-1,59,61,-1,-1,-1,-1,63,65,67,69,-1,-1,-1,-1,-1,-1,-1,-1,-1,-1,-1,-1,-1,-1,-1,-1,-1,-1,-1,-1,-1,-1,-1,-1],"loss_changes":[1.1923745E9,1.6207597E9,6.866936E8,1.1414653E9,3.5270106E8,2.6238692E9,3.6504346E8,1.2910378E9,8.187878E7,2.5539584E7,1.9327474E7,6.2383085E8,0E0,9.2196134E8,3.642204E8,1.7351698E9,1.9342884E9,0E0,0E0,5.1247578E8,0E0,0E0,0E0,2.820429E8,4.6978346E8,6.330176E7,1.1723179E8,3.714752E8,5.434362E8,1.0131932E9,2.01109E8,4.816256E7,2.6629066E9,0E0,2.3974788E5,5.3834675E8,0E0,8.299841E8,7.509067E8,0E0,0E0,0E0,0E0,1.2730825E9,1.6712269E8,5.292107E8,3.0529456E8,0E0,0E0,0E0,0E0,0E0,0E0,0E0,0E0,0E0,0E0,0E0,0E0,0E0,0E0,0E0,0E0,0E0,0E0,0E0,0E0,0E0,0E0,0E0,0E0],"parents":[2147483647,0,0,1,1,2,2,3,3,4,4,5,5,6,6,7,7,8,8,9,9,10,10,11,11,13,13,14,14,15,15,16,16,19,19,23,23,24,24,25,25,26,26,27,27,28,28,29,29,30,30,31,31,32,32,34,34,35,35,37,37,38,38,43,43,44,44,45,45,46,46],"right_children":[2,4,6,8,10,12,14,16,18,20,22,24,-1,26,28,30,32,-1,-1,34,-1,-1,-1,36,38,40,42,44,46,48,50,52,54,-1,56,58,-1,60,62,-1,-1,-1,-1,64,66,68,70,-1,-1,-1,-1,-1,-1,-1,-1,-1,-1,-1,-1,-1,-1,-1,-1,-1,-1,-1,-1,-1,-1,-1,-1],"split_conditions":[2E0,7.03E-2,4.95E-2,6.79E-2,2E0,4.82E-2,5.08E-2,1.40652E-3,6.85E-2,7.79E-2,9E0,8.2317E-4,-2.2298447E3,3E0,9E0,1.38288E-3,1.52445E-3,1.8093417E3,5.289564E2,7.24E-2,-1.8964281E3,-2.0518008E2,2.3478223E2,7.6619E-4,9E0,3E0,4.99E-2,6.15E-2,3E0,1.34456E-3,3E0,1.45765E-3,1.58822E-3,-1.5639622E3,8E0,8E0,-1.5667341E3,3.07E-2,1E1,1.7037727E3,3.470289E2,2.9048438E2,-7.562324E2,6.04E-2,7.24E-2,6.01E-2,6.57E-2,9.4046906E1,-1.2471505E3,7.340254E2,1.911877E3,-9.38834E2,-1.6304744E3,1.4800474E3,-3.0348645E2,4.2203125E1,-7.893164E0,3.2804837E2,-1.6242676E3,1.12342125E2,-4.68843E2,4.8557013E2,-2.73795E2,4.187501E2,-1.7689603E3,9.578045E2,3.698141E2,-7.153295E2,1.5558061E2,7.218568E2,-1.6089037E2],"split_indices":[2,15,15,15,4,15,15,15,15,15,0,15,0,2,0,15,15,0,0,15,0,0,0,15,0,3,15,15,2,15,3,15,15,0,0,0,0,15,0,0,0,0,0,15,15,15,15,0,0,0,0,0,0,0,0,0,0,0,0,0,0,0,0,0,0,0,0,0,0,0,0],"split_type":[0,0,0,0,0,0,0,0,0,0,0,0,0,0,0,0,0,0,0,0,0,0,0,0,0,0,0,0,0,0,0,0,0,0,0,0,0,0,0,0,0,0,0,0,0,0,0,0,0,0,0,0,0,0,0,0,0,0,0,0,0,0,0,0,0,0,0,0,0,0,0],"sum_hessian":[6.43E2,2.67E2,3.76E2,2.54E2,1.3E1,2.73E2,1.03E2,2.5E2,4E0,1.1E1,2E0,2.69E2,4E0,9E0,9.4E1,1.05E2,1.45E2,2E0,2E0,8E0,3E0,1E0,1E0,7E0,2.62E2,6E0,3E0,4.9E1,4.5E1,9.6E1,9E0,1.6E1,1.29E2,5E0,3E0,5E0,2E0,1.88E2,7.4E1,5E0,1E0,1E0,2E0,2.5E1,2.4E1,2.7E1,1.8E1,9.1E1,5E0,5E0,4E0,9E0,7E0,8E0,1.21E2,2E0,1E0,4E0,1E0,1.6E2,2.8E1,5.8E1,1.6E1,2.3E1,2E0,1.4E1,1E1,1.1E1,1.6E1,1.3E1,5E0],"tree_param":{"num_deleted":"0","num_feature":"22","num_nodes":"71","size_leaf_vector":"1"}},{"base_weights":[2.714133E2,-7.319197E2,1.0529061E3,2.6978827E2,-3.9877683E3,3.1770215E3,-1.0608225E2,-1.9463267E3,2.085833E3,3.4500615E3,-5.0922017E3,7.72481E3,2.5338337E3,1.941507E3,-5.7384955E2,5.3536584E2,-7.9924146E3,2.9924211E3,1.3414769E3,-1.5430543E3,7.738955E3,-2.2319102E3,-2.627878E3,3.313718E3,9.027597E3,4.357428E3,8.527435E2,5.0310144E2,8.1716436E3,-5.094495E3,-1.2370526E2,-3.0503162E3,6.582852E3,-1.0866711E4,-4.341925E3,2.4134734E3,-4.980236E3,1.0164938E4,3.073353E2,-6.1238934E2,-1.0830142E4,1.4072587E3,-2.8941455E3,2.1205957E3,5.6891646E3,8.019603E2,6.3207197E3,-3.822579E3,1.555625E3,3.675332E3,-2.8733142E3,1.397044E3,-1.1197617E3,-8.943703E3,3.453004E3,1.2137194E3,-1.1951427E3,3.650885E1,-1.46992E3,1.5592134E3,-2.2531136E2,-1.661957E3,5.3250587E1,2.4781956E2,-2.2011775E3,1.7011625E1,1.1850233E3,-7.9789026E2,6.7601556E2,4.8366553E2,1.8403177E3,-1.35537E3,1.4014703E3,-2.1649939E2,3.15222E3,-1.4065878E3,-2.4600679E2,-4.0687775E2,3.1487501E1,2.3375024E2,1.2730542E3,5.58757E2,-3.7123966E1,8.408431E2,4.693711E1,2.5325606E2,-8.1421747E2,1.7399338E3,5.7388977E1,2.0180737E2,9.385532E2,-5.278166E2,1.6597612E2,-2.4339845E0,-1.4767891E2,-3.7605008E2,-1.2108777E3,6.55128E2,-6.0191876E2,6.485429E1,1.493856E3,-4.4216568E2,4.1168186E1],"categories":[],"categories_nodes":[],"categories_segments":[],"categories_sizes":[],"default_left":[0,0,0,0,0,0,0,0,0,0,0,0,0,0,0,0,0,0,0,0,0,0,0,0,0,0,0,0,0,0,0,0,0,0,0,0,0,0,0,0,0,0,0,0,0,0,0,0,0,0,0,0,0,0,0,0,0,0,0,0,0,0,0,0,0,0,0,0,0,0,0,0,0,0,0,0,0,0,0,0,0,0,0,0,0,0,0,0,0,0,0,0,0,0,0,0,0,0,0,0,0,0,0],"id":19,"left_children":[1,3,5,7,9,11,13,15,17,19,21,23,25,27,29,31,33,-1,35,-1,37,-1,39,41,43,45,47,49,51,53,55,57,59,61,63,65,67,69,71,73,75,-1,77,-1,79,81,83,85,87,89,91,-1,93,95,97,99,101,-1,-1,-1,-1,-1,-1,-1,-1,-1,-1,-1,-1,-1,-1,-1,-1,-1,-1,-1,-1,-1,-1,-1,-1,-1,-1,-1,-1,-1,-1,-1,-1,-1,-1,-1,-1,-1,-1,-1,-1,-1,-1,-1,-1,-1,-1],"loss_changes":[4.9396803E8,9.012248E8,8.7182304E8,8.5726726E8,5.515165E8,3.4606208E8,2.2140707E8,1.4447139E9,2.3842926E9,8.482083E8,2.3611494E9,5.6285696E7,3.3656877E8,3.8123174E8,3.8193904E8,1.5163008E9,2.4660992E8,0E0,7.9135776E8,0E0,1.4110794E8,0E0,8.364777E8,3.7467603E8,3.265787E8,3.6489344E8,1.9983216E8,3.961481E8,4.4667526E8,5.9020134E8,2.4792088E8,1.7559354E9,2.104879E9,9.9252134E8,1.7416965E9,2.0938163E9,6.524325E8,1.7436422E8,7.59946E8,2.1637222E9,2.3623066E8,0E0,1.6358828E7,0E0,2.0624547E8,1.1436388E8,4.113947E8,2.4023363E8,7.988398E8,1.6086155E8,2.0498518E8,0E0,1.528438E6,1.5132749E8,2.1551814E8,5.875975E8,4.995268E8,0E0,0E0,0E0,0E0,0E0,0E0,0E0,0E0,0E0,0E0,0E0,0E0,0E0,0E0,0E0,0E0,0E0,0E0,0E0,0E0,0E0,0E0,0E0,0E0,0E0,0E0,0E0,0E0,0E0,0E0,0E0,0E0,0E0,0E0,0E0,0E0,0E0,0E0,0E0,0E0,0E0,0E0,0E0,0E0,0E0,0E0],"parents":[2147483647,0,0,1,1,2,2,3,3,4,4,5,5,6,6,7,7,8,8,9,9,10,10,11,11,12,12,13,13,14,14,15,15,16,16,18,18,20,20,22,22,23,23,24,24,25,25,26,26,27,27,28,28,29,29,30,30,31,31,32,32,33,33,34,34,35,35,36,36,37,37,38,38,39,39,40,40,42,42,44,44,45,45,46,46,47,47,48,48,49,49,50,50,52,52,53,53,54,54,55,55,56,56],"right_children":[2,4,6,8,10,12,14,16,18,20,22,24,26,28,30,32,34,-1,36,-1,38,-1,40,42,44,46,48,50,52,54,56,58,60,62,64,66,68,70,72,74,76,-1,78,-1,80,82,84,86,88,90,92,-1,94,96,98,100,102,-1,-1,-1,-1,-1,-1,-1,-1,-1,-1,-1,-1,-1,-1,-1,-1,-1,-1,-1,-1,-1,-1,-1,-1,-1,-1,-1,-1,-1,-1,-1,-1,-1,-1,-1,-1,-1,-1,-1,-1,-1,-1,-1,-1,-1,-1],"split_conditions":[1E0,3E0,2.5E-1,1.628E-3,1.07383E-3,1.08013E-3,8E0,1.4039E-3,7E0,6.9445E-4,1.25208E-3,8.3611E-4,2E0,1.52078E-3,1.08503E-3,1.27539E-3,7E0,2.9924211E3,6.94E-2,-1.5430543E3,1.01944E-3,-2.2319102E3,5.71E-2,6.9445E-4,8.7055E-4,1.52078E-3,1.26692E-3,1.20941E-3,1.58822E-3,9E0,3.44E-2,1.21994E-3,1.34056E-3,1.52445E-3,1.52445E-3,6.15E-2,7.88E-2,9.9351E-4,1.05285E-3,5.29E-2,6.79E-2,1.4072587E3,8E0,2.1205957E3,1.03599E-3,1.13703E-3,5.23E-2,1.1688E-3,1.3108E-3,1.11717E-3,1.38288E-3,1.397044E3,1.61183E-3,1.01944E-3,1.05777E-3,3E-2,4.89E-2,3.650885E1,-1.46992E3,1.5592134E3,-2.2531136E2,-1.661957E3,5.3250587E1,2.4781956E2,-2.2011775E3,1.7011625E1,1.1850233E3,-7.9789026E2,6.7601556E2,4.8366553E2,1.8403177E3,-1.35537E3,1.4014703E3,-2.1649939E2,3.15222E3,-1.4065878E3,-2.4600679E2,-4.0687775E2,3.1487501E1,2.3375024E2,1.2730542E3,5.58757E2,-3.7123966E1,8.408431E2,4.693711E1,2.5325606E2,-8.1421747E2,1.7399338E3,5.7388977E1,2.0180737E2,9.385532E2,-5.278166E2,1.6597612E2,-2.4339845E0,-1.4767891E2,-3.7605008E2,-1.2108777E3,6.55128E2,-6.0191876E2,6.485429E1,1.493856E3,-4.4216568E2,4.1168186E1],"split_indices":[7,3,21,15,15,15,0,15,0,15,15,15,4,15,15,15,0,0,15,0,15,0,15,15,15,15,15,15,15,0,15,15,15,15,15,15,15,15,15,15,15,0,0,0,15,15,15,15,15,15,15,0,15,15,15,15,15,0,0,0,0,0,0,0,0,0,0,0,0,0,0,0,0,0,0,0,0,0,0,0,0,0,0,0,0,0,0,0,0,0,0,0,0,0,0,0,0,0,0,0,0,0,0],"split_type":[0,0,0,0,0,0,0,0,0,0,0,0,0,0,0,0,0,0,0,0,0,0,0,0,0,0,0,0,0,0,0,0,0,0,0,0,0,0,0,0,0,0,0,0,0,0,0,0,0,0,0,0,0,0,0,0,0,0,0,0,0,0,0,0,0,0,0,0,0,0,0,0,0,0,0,0,0,0,0,0,0,0,0,0,0,0,0,0,0,0,0,0,0,0,0,0,0,0,0,0,0,0,0],"sum_hessian":[6.28E2,2.75E2,3.53E2,2.11E2,6.4E1,1.24E2,2.29E2,9.5E1,1.16E2,8E0,5.6E1,1.4E1,1.1E2,4.2E1,1.87E2,6.8E1,2.7E1,2E0,1.14E2,1E0,7E0,6E0,5E1,4E0,1E1,5.2E1,5.8E1,3.5E1,7E0,1.6E1,1.71E2,4.3E1,2.5E1,1.4E1,1.3E1,9.8E1,1.6E1,5E0,2E0,4.1E1,9E0,1E0,3E0,1E0,9E0,1.9E1,3.3E1,7E0,5.1E1,1.8E1,1.7E1,4E0,3E0,1.1E1,5E0,7.6E1,9.5E1,3.4E1,9E0,1.2E1,1.3E1,9E0,5E0,1E1,3E0,8E1,1.8E1,1.3E1,3E0,4E0,1E0,1E0,1E0,4E1,1E0,6E0,3E0,2E0,1E0,7E0,2E0,3E0,1.6E1,2.4E1,9E0,3E0,4E0,2E0,4.9E1,1.5E1,3E0,1.1E1,6E0,1E0,2E0,5E0,6E0,4E0,1E0,7.4E1,2E0,3.1E1,6.4E1],"tree_param":{"num_deleted":"0","num_feature":"22","num_nodes":"103","size_leaf_vector":"1"}},{"base_weights":[4.34368E2,-7.146687E2,1.2041989E3,9.024147E3,-1.3451825E3,-1.5054442E3,2.0606255E3,1.3810935E3,1.4815289E4,-3.1102336E3,-8.724153E0,-5.2147217E2,-5.3620986E3,9.13347E3,1.4312888E3,1.4509105E3,-5.4130947E3,1.7377457E4,7.268216E3,-1.4895485E3,-1.1507377E3,1.3131352E4,-1.00411835E3,-2.260221E3,5.645963E3,-7.864166E3,1.0603649E4,7.390776E3,1.5999242E4,-2.9759963E3,1.771298E3,-6.615366E2,2.9913086E1,2.1488765E3,6.103229E3,-3.6459766E1,9.93402E2,-2.8815996E3,8.769874E3,1.8873945E4,-2.0102441E2,-1.8983529E3,-5.814849E2,-3.0599942E2,-8.1024854E3,1.3769075E3,-1.4171227E3,-8.797599E3,-5.756133E1,2.3871935E2,1.3518281E3,4.99838E3,1.2538703E4,1.8073828E3,4.8877423E2,1.0345319E4,1.5381302E3,-5.470594E2,1.4625438E3,-2.0813408E2,-1.0929822E3,1.5355233E3,2.8132065E2,2.9190698E3,8.909106E2,4.6770688E2,-7.4176526E2,1.5006918E3,-1.1954574E2,-1.4659016E3,3.3871243E1,-1.0405945E3,8.335146E1,8.5599854E2,-4.981398E2,-1.0592004E3,-3.0903867E2,8.984668E2,1.7081403E2,1.576328E3,4.0596994E2,1.5429464E3,2.6748447E2,1.27381584E2,6.1859235E2],"categories":[],"categories_nodes":[],"categories_segments":[],"categories_sizes":[],"default_left":[0,0,0,0,0,0,0,0,0,0,0,0,0,0,0,0,0,0,0,0,0,0,0,0,0,0,0,0,0,0,0,0,0,0,0,0,0,0,0,0,0,0,0,0,0,0,0,0,0,0,0,0,0,0,0,0,0,0,0,0,0,0,0,0,0,0,0,0,0,0,0,0,0,0,0,0,0,0,0,0,0,0,0,0,0],"id":20,"left_children":[1,3,5,7,9,11,13,15,17,19,21,23,25,27,29,-1,31,33,35,37,-1,39,41,43,45,47,49,51,53,-1,55,-1,-1,-1,57,-1,-1,59,61,63,65,-1,67,69,71,-1,73,75,-1,-1,-1,77,79,-1,-1,81,83,-1,-1,-1,-1,-1,-1,-1,-1,-1,-1,-1,-1,-1,-1,-1,-1,-1,-1,-1,-1,-1,-1,-1,-1,-1,-1,-1,-1],"loss_changes":[5.7494266E8,1.6147985E9,9.058196E8,6.8773094E8,5.802665E8,3.5391872E8,1.3044824E9,7.9209274E8,4.772864E7,1.4254264E9,1.8574029E9,8.277562E8,8.423892E8,1.6891136E8,2.947963E9,0E0,4.318472E7,1.4696013E8,8.501226E7,1.3106189E9,0E0,7.6941824E8,9.919898E8,6.8254534E8,9.948743E8,1.1059334E8,3.9573056E7,1.9596032E8,3.866816E6,0E0,5.2586675E8,0E0,0E0,0E0,3.759134E8,0E0,0E0,4.9250413E8,3.882972E8,4.5957018E8,1.7550642E8,0E0,1.2621505E9,4.3062893E8,3.174292E8,0E0,3.9825232E8,1.2088243E8,0E0,0E0,0E0,1.945064E8,1.0005306E8,0E0,0E0,2.3171322E8,3.1766714E8,0E0,0E0,0E0,0E0,0E0,0E0,0E0,0E0,0E0,0E0,0E0,0E0,0E0,0E0,0E0,0E0,0E0,0E0,0E0,0E0,0E0,0E0,0E0,0E0,0E0,0E0,0E0,0E0],"parents":[2147483647,0,0,1,1,2,2,3,3,4,4,5,5,6,6,7,7,8,8,9,9,10,10,11,11,12,12,13,13,14,14,16,16,17,17,18,18,19,19,21,21,22,22,23,23,24,24,25,25,26,26,27,27,28,28,30,30,34,34,37,37,38,38,39,39,40,40,42,42,43,43,44,44,46,46,47,47,51,51,52,52,55,55,56,56],"right_children":[2,4,6,8,10,12,14,16,18,20,22,24,26,28,30,-1,32,34,36,38,-1,40,42,44,46,48,50,52,54,-1,56,-1,-1,-1,58,-1,-1,60,62,64,66,-1,68,70,72,-1,74,76,-1,-1,-1,78,80,-1,-1,82,84,-1,-1,-1,-1,-1,-1,-1,-1,-1,-1,-1,-1,-1,-1,-1,-1,-1,-1,-1,-1,-1,-1,-1,-1,-1,-1,-1,-1],"split_conditions":[2E0,9.4403E-4,1.26692E-3,8.3611E-4,1.52445E-3,1.21994E-3,1.34056E-3,6.9445E-4,7E0,1.4039E-3,1.628E-3,1.14858E-3,9E0,1.32662E-3,1.34456E-3,1.4509105E3,8E0,8.944E-4,8.944E-4,1.37178E-3,-1.1507377E3,2E0,1.63293E-3,1.09639E-3,2E0,1.26032E-3,3E0,2E0,3E0,-2.9759963E3,1.3669E-3,-6.615366E2,2.9913086E1,2.1488765E3,9.0002E-4,-3.6459766E1,9.93402E2,1.34056E-3,1.38913E-3,1.54019E-3,8E0,-1.8983529E3,7E0,6.9445E-4,1.1411E-3,1.3769075E3,1.15335E-3,2E0,-5.756133E1,2.3871935E2,1.3518281E3,1.28125E-3,1.30678E-3,1.8073828E3,4.8877423E2,3E0,7.42E-2,-5.470594E2,1.4625438E3,-2.0813408E2,-1.0929822E3,1.5355233E3,2.8132065E2,2.9190698E3,8.909106E2,4.6770688E2,-7.4176526E2,1.5006918E3,-1.1954574E2,-1.4659016E3,3.3871243E1,-1.0405945E3,8.335146E1,8.5599854E2,-4.981398E2,-1.0592004E3,-3.0903867E2,8.984668E2,1.7081403E2,1.576328E3,4.0596994E2,1.5429464E3,2.6748447E2,1.27381584E2,6.1859235E2],"split_indices":[2,15,15,15,15,15,15,15,0,15,15,15,0,15,15,0,0,15,15,15,0,4,15,15,4,15,2,4,2,0,15,0,0,0,15,0,0,15,15,15,0,0,0,15,15,0,15,4,0,0,0,15,15,0,0,3,15,0,0,0,0,0,0,0,0,0,0,0,0,0,0,0,0,0,0,0,0,0,0,0,0,0,0,0,0],"split_type":[0,0,0,0,0,0,0,0,0,0,0,0,0,0,0,0,0,0,0,0,0,0,0,0,0,0,0,0,0,0,0,0,0,0,0,0,0,0,0,0,0,0,0,0,0,0,0,0,0,0,0,0,0,0,0,0,0,0,0,0,0,0,0,0,0,0,0,0,0,0,0,0,0,0,0,0,0,0,0,0,0,0,0,0,0],"sum_hessian":[6.48E2,2.6E2,3.88E2,1.5E1,2.45E2,9.3E1,2.95E2,7E0,8E0,1.05E2,1.4E2,7.5E1,1.8E1,2.3E1,2.72E2,2E0,5E0,5E0,3E0,8.9E1,1.6E1,9E0,1.31E2,5.9E1,1.6E1,1.6E1,2E0,2E1,3E0,2E0,2.7E2,4E0,1E0,3E0,2E0,1E0,2E0,7.9E1,1E1,6E0,3E0,2E0,1.29E2,4.5E1,1.4E1,7E0,9E0,1.4E1,2E0,1E0,1E0,1.5E1,5E0,2E0,1E0,6E0,2.64E2,1E0,1E0,7.3E1,6E0,4E0,6E0,2E0,4E0,2E0,1E0,4E0,1.25E2,1E0,4.4E1,1.1E1,3E0,2E0,7E0,1E1,4E0,6E0,9E0,3E0,2E0,3E0,3E0,2.51E2,1.3E1],"tree_param":{"num_deleted":"0","num_feature":"22","num_nodes":"85","size_leaf_vector":"1"}},{"base_weights":[4.4327316E2,-8.1785706E2,1.4329435E3,3.3396298E2,-3.2117844E3,1.7941691E3,-6.9160686E0,-6.160124E2,1.1711403E4,-1.7618201E4,-1.6486134E3,1.4314945E3,5.5957666E3,-9.595453E3,6.7807825E2,-1.4953065E2,-1.4119062E4,2.5132158E3,7.713429E3,-2.301948E3,8.575208E2,1.3092704E4,-2.538218E3,1.7720087E3,-3.1063738E3,1.570852E3,4.0334172E3,-1.1246987E4,-1.4946582E2,-1.8773303E2,4.4887686E3,-9.1372174E2,6.1729707E3,-2.0386252E3,-1.0564545E3,-9.052672E3,1.3648527E4,-4.5468594E2,5.833141E2,1.4617401E3,3.496959E2,-2.3985913E3,-1.1125466E3,1.4161102E3,1.3873623E4,-1.1833851E4,9.876822E0,5.155662E3,-2.586162E3,-1.887957E2,-1.3737345E3,-1.7207285E3,2.8109949E3,9.431442E2,2.2066699E2,-3.123499E1,-2.3838105E3,1.1696514E3,-1.1632253E3,-3.533961E2,1.9492793E2,1.8066877E3,-2.4114814E3,2.172198E3,7.085336E2,2.0971996E2,-3.4416373E2,1.7060266E2,-3.8444125E2,1.7643158E3,2.9665247E2,-1.3480807E3,-2.6230136E2,2.75285E2,-8.221512E2,1.1038011E3,3.468306E2,-6.641315E2,9.7932686E1,-7.5765204E0,-5.415583E2,1.1257167E3,-4.1208497E-1,-1.4342253E2,3.4568958E2],"categories":[],"categories_nodes":[],"categories_segments":[],"categories_sizes":[],"default_left":[0,0,0,0,0,0,0,0,0,0,0,0,0,0,0,0,0,0,0,0,0,0,0,0,0,0,0,0,0,0,0,0,0,0,0,0,0,0,0,0,0,0,0,0,0,0,0,0,0,0,0,0,0,0,0,0,0,0,0,0,0,0,0,0,0,0,0,0,0,0,0,0,0,0,0,0,0,0,0,0,0,0,0,0,0],"id":21,"left_children":[1,3,5,7,9,11,13,15,17,19,21,23,25,27,29,31,33,-1,35,-1,37,39,41,43,45,-1,47,49,-1,51,53,55,57,-1,59,61,63,-1,-1,-1,-1,-1,65,67,69,71,73,75,77,-1,-1,79,81,-1,83,-1,-1,-1,-1,-1,-1,-1,-1,-1,-1,-1,-1,-1,-1,-1,-1,-1,-1,-1,-1,-1,-1,-1,-1,-1,-1,-1,-1,-1,-1],"loss_changes":[8.1119085E8,7.896814E8,1.8933389E8,2.1040223E9,2.0652856E9,3.9320384E8,4.9254538E8,1.1316956E9,6.109823E8,9.1787264E8,1.1479174E9,4.1807507E8,3.3163232E8,5.0083264E7,2.3179638E8,8.511702E8,4.69658E8,0E0,1.4171653E9,0E0,1.0719289E8,2.2036608E7,2.4500813E9,1.0527828E9,5.1686E8,0E0,1.8419558E8,6.729382E7,0E0,2.714651E8,2.7216464E8,2.1569684E9,2.0046675E9,0E0,2.9228852E7,2.0695935E9,3.759685E8,0E0,0E0,0E0,0E0,0E0,5.828536E8,3.771609E8,2.354638E8,4.048883E7,3.6130976E8,1.6022918E8,6.4338416E7,0E0,0E0,2.3662774E8,4.755854E8,0E0,4.780285E7,0E0,0E0,0E0,0E0,0E0,0E0,0E0,0E0,0E0,0E0,0E0,0E0,0E0,0E0,0E0,0E0,0E0,0E0,0E0,0E0,0E0,0E0,0E0,0E0,0E0,0E0,0E0,0E0,0E0,0E0],"parents":[2147483647,0,0,1,1,2,2,3,3,4,4,5,5,6,6,7,7,8,8,9,9,10,10,11,11,12,12,13,13,14,14,15,15,16,16,18,18,20,20,21,21,22,22,23,23,24,24,26,26,27,27,29,29,30,30,31,31,32,32,34,34,35,35,36,36,42,42,43,43,44,44,45,45,46,46,47,47,48,48,51,51,52,52,54,54],"right_children":[2,4,6,8,10,12,14,16,18,20,22,24,26,28,30,32,34,-1,36,-1,38,40,42,44,46,-1,48,50,-1,52,54,56,58,-1,60,62,64,-1,-1,-1,-1,-1,66,68,70,72,74,76,78,-1,-1,80,82,-1,84,-1,-1,-1,-1,-1,-1,-1,-1,-1,-1,-1,-1,-1,-1,-1,-1,-1,-1,-1,-1,-1,-1,-1,-1,-1,-1,-1,-1,-1,-1],"split_conditions":[1E0,4.45E-2,2.7710374E-2,3.82E-2,2.3824414E-2,2.524291E-2,5.51E-2,3.69E-2,2.0330725E-2,9E0,4.67E-2,4.57E-2,4.99E-2,1E1,3E0,2.71E-2,3E0,2.5132158E3,4.07E-2,-2.301948E3,4.54E-2,9E0,4.79E-2,