{"learner":{"attributes":{},"feature_names":["entity_count_total","entity_count_money","entity_count_peril","entity_count_coverage","entity_count_claim_status","entity_count_property_type","entity_count_vehicle","has_open_claim","has_denied_claim","has_fire_peril","has_flood_peril","has_earthquake_peril","has_wind_peril","has_cyber_coverage","has_umbrella_coverage","max_monetary_value","mean_monetary_value","num_monetary_values","prior_claims_indicator","property_risk_score","coverage_breadth","peril_diversity"],"feature_types":[],"gradient_booster":{"model":{"cats":{"enc":[],"feature_segments":[],"sorted_idx":[]},"gbtree_model_param":{"num_parallel_tree":"1","num_trees":"100"},"iteration_indptr":[0,1,2,3,4,5,6,7,8,9,10,11,12,13,14,15,16,17,18,19,20,21,22,23,24,25,26,27,28,29,30,31,32,33,34,35,36,37,38,39,40,41,42,43,44,45,46,47,48,49,50,51,52,53,54,55,56,57,58,59,60,61,62,63,64,65,66,67,68,69,70,71,72,73,74,75,76,77,78,79,80,81,82,83,84,85,86,87,88,89,90,91,92,93,94,95,96,97,98,99,100],"tree_info":[0,0,0,0,0,0,0,0,0,0,0,0,0,0,0,0,0,0,0,0,0,0,0,0,0,0,0,0,0,0,0,0,0,0,0,0,0,0,0,0,0,0,0,0,0,0,0,0,0,0,0,0,0,0,0,0,0,0,0,0,0,0,0,0,0,0,0,0,0,0,0,0,0,0,0,0,0,0,0,0,0,0,0,0,0,0,0,0,0,0,0,0,0,0,0,0,0,0,0,0],"trees":[{"base_weights":[9.376741E-3,-4.741309E-2,5.6810075E-1,-1.4555289E-1,1.14353314E-1,2.7791753E-1,9.790703E-1,-8.7238066E-2,-3.6293396E-1,4.922758E-2,4.9069542E-1,3.861599E-1,-9.958072E-2,1.1492827E0,-4.283296E-2,-1.2302268E-1,4.2506933E-1,5.39269E-1,-4.112536E-1,-6.3407704E-2,3.107519E-1,3.1187786E-2,8.1653756E-1,2.6976427E-1,8.597677E-1,1.34E0,4.7566727E-1,5.0894845E-1,-7.280392E-2,-5.9285726E-2,-3.2643923E-1,-6.038114E-1,6.204836E-1,9.931896E-2,-1.3470063E-2,-4.960007E-1,9.937819E-2,4.7081584E-1,-1.1138116E-1,1.68676E-1,1.0860078E0,1.089774E-1,-2.1509337E-1,1.0083145E0,-4.283296E-2,6.629784E-1,2.141919E-2,1.2748973E0,-3.5908483E-2,8.5154015E-1,1.6558539E0,-2.2242272E-2,6.9646645E-1,-5.5700885E-3,8.4451586E-2,-1.771471E-2,6.886775E-3,-4.386741E-2,8.87563E-3,-8.115884E-2,-5.5700885E-3,8.524646E-2,-5.3330965E-2,-7.219725E-2,-2.1203019E-2,-6.665197E-2,4.2669754E-2,7.254879E-2,-2.1410516E-2,-2.2471605E-2,1.4074956E-2,-3.7168827E-2,3.6915343E-2,-2.2242272E-2,1.322197E-1,5.3118467E-3,-7.732107E-2,1.2002987E-1,-2.4669033E-3,4.839716E-2,-9.559176E-2,8.2418494E-2,-5.0580926E-2,-3.328594E-2,2.5005588E-2,1.6352946E-1,-5.5700885E-3,5.2375533E-2,1.4856872E-1,1.8738824E-1,1.8308824E-2,1.3996212E-1,1.145129E-2],"categories":[],"categories_nodes":[],"categories_segments":[],"categories_sizes":[],"default_left":[0,0,0,0,0,0,0,0,0,0,0,0,0,0,0,0,0,0,0,0,0,0,0,0,0,0,0,0,0,0,0,0,0,0,0,0,0,0,0,0,0,0,0,0,0,0,0,0,0,0,0,0,0,0,0,0,0,0,0,0,0,0,0,0,0,0,0,0,0,0,0,0,0,0,0,0,0,0,0,0,0,0,0,0,0,0,0,0,0,0,0,0,0],"id":0,"left_children":[1,3,5,7,9,11,13,15,17,19,21,23,-1,25,27,29,31,33,35,37,39,41,43,45,47,49,51,53,-1,55,57,59,61,-1,-1,63,65,67,69,71,73,-1,75,77,79,81,83,85,-1,87,89,-1,91,-1,-1,-1,-1,-1,-1,-1,-1,-1,-1,-1,-1,-1,-1,-1,-1,-1,-1,-1,-1,-1,-1,-1,-1,-1,-1,-1,-1,-1,-1,-1,-1,-1,-1,-1,-1,-1,-1,-1,-1],"loss_changes":[2.4712534E1,1.1242928E1,8.297415E0,5.553154E0,6.5339193E0,6.383958E0,5.1531925E0,6.444771E0,4.270401E0,6.7715464E0,5.867934E0,2.01869E0,0E0,2.5986938E0,2.31908E0,4.216385E0,4.9970527E0,1.7104591E0,3.8884878E0,4.179688E0,7.4355755E0,4.763092E0,3.8321724E0,3.3284438E0,4.3017964E0,1.5338211E0,1.2505879E0,6.9948375E-1,0E0,3.7879822E0,3.6607323E0,4.3042088E-1,5.758E0,0E0,0E0,4.7402134E0,3.6590364E0,2.503373E0,4.2773275E0,6.5981684E0,3.547987E0,0E0,2.2755845E0,3.7652245E0,2.9416726E0,2.9071527E0,1.8663118E0,2.9140425E0,0E0,1.2073393E0,3.03788E0,0E0,2.148619E0,0E0,0E0,0E0,0E0,0E0,0E0,0E0,0E0,0E0,0E0,0E0,0E0,0E0,0E0,0E0,0E0,0E0,0E0,0E0,0E0,0E0,0E0,0E0,0E0,0E0,0E0,0E0,0E0,0E0,0E0,0E0,0E0,0E0,0E0,0E0,0E0,0E0,0E0,0E0,0E0],"parents":[2147483647,0,0,1,1,2,2,3,3,4,4,5,5,6,6,7,7,8,8,9,9,10,10,11,11,13,13,14,14,15,15,16,16,17,17,18,18,19,19,20,20,21,21,22,22,23,23,24,24,25,25,26,26,27,27,29,29,30,30,31,31,32,32,35,35,36,36,37,37,38,38,39,39,40,40,42,42,43,43,44,44,45,45,46,46,47,47,49,49,50,50,52,52],"right_children":[2,4,6,8,10,12,14,16,18,20,22,24,-1,26,28,30,32,34,36,38,40,42,44,46,48,50,52,54,-1,56,58,60,62,-1,-1,64,66,68,70,72,74,-1,76,78,80,82,84,86,-1,88,90,-1,92,-1,-1,-1,-1,-1,-1,-1,-1,-1,-1,-1,-1,-1,-1,-1,-1,-1,-1,-1,-1,-1,-1,-1,-1,-1,-1,-1,-1,-1,-1,-1,-1,-1,-1,-1,-1,-1,-1,-1,-1],"split_conditions":[1.8176031E0,1E0,1E0,4.1389522E-1,1E0,1.6E1,5.304793E0,3.8111892E-1,6E0,5.6206053E-1,2E0,4.7484856E0,-9.958072E-2,3E0,1E0,1E0,6.6202104E-2,2.578731E-1,1E0,4.8045866E-2,1.6E1,8E0,8.527371E-1,2.330356E0,7.7679625E0,2.5141566E0,1.1E1,1.1E1,-7.280392E-2,2.1185422E-1,2.984358E-1,1.1E1,7.6451147E-1,9.931896E-2,-1.3470063E-2,1.2E1,1.3869329E-1,3E0,3E0,1.5750164E-1,6.3829553E-1,1.089774E-1,3.3107308E-1,4E0,1.9447353E-1,3E0,2.2097468E-1,1E0,-3.5908483E-2,4.6242097E-1,1E0,-2.2242272E-2,2E0,-5.5700885E-3,8.4451586E-2,-1.771471E-2,6.886775E-3,-4.386741E-2,8.87563E-3,-8.115884E-2,-5.5700885E-3,8.524646E-2,-5.3330965E-2,-7.219725E-2,-2.1203019E-2,-6.665197E-2,4.2669754E-2,7.254879E-2,-2.1410516E-2,-2.2471605E-2,1.4074956E-2,-3.7168827E-2,3.6915343E-2,-2.2242272E-2,1.322197E-1,5.3118467E-3,-7.732107E-2,1.2002987E-1,-2.4669033E-3,4.839716E-2,-9.559176E-2,8.2418494E-2,-5.0580926E-2,-3.328594E-2,2.5005588E-2,1.6352946E-1,-5.5700885E-3,5.2375533E-2,1.4856872E-1,1.8738824E-1,1.8308824E-2,1.3996212E-1,1.145129E-2],"split_indices":[16,4,4,19,7,0,16,19,0,16,3,16,0,3,6,14,16,16,7,16,0,0,16,16,16,16,0,0,0,19,19,0,16,0,0,0,16,1,1,19,16,0,19,1,19,2,19,12,0,19,7,0,1,0,0,0,0,0,0,0,0,0,0,0,0,0,0,0,0,0,0,0,0,0,0,0,0,0,0,0,0,0,0,0,0,0,0,0,0,0,0,0,0],"split_type":[0,0,0,0,0,0,0,0,0,0,0,0,0,0,0,0,0,0,0,0,0,0,0,0,0,0,0,0,0,0,0,0,0,0,0,0,0,0,0,0,0,0,0,0,0,0,0,0,0,0,0,0,0,0,0,0,0,0,0,0,0,0,0,0,0,0,0,0,0,0,0,0,0,0,0,0,0,0,0,0,0,0,0,0,0,0,0,0,0,0,0,0,0],"sum_hessian":[7.769931E2,7.0613525E2,7.0857864E1,4.3956308E2,2.6657217E2,4.2514717E1,2.8343145E1,3.476922E2,9.187088E1,2.2821118E2,3.836098E1,3.9827003E1,2.687712E0,2.4189407E1,4.1537366E0,3.257018E2,2.1990372E1,4.1537366E0,8.771715E1,1.6004103E2,6.817015E1,1.637061E1,2.1990372E1,3.3229893E1,6.597111E0,1.808097E1,6.1084366E0,2.4433746E0,1.7103622E0,2.4897987E2,7.672196E1,3.1763868E0,1.8813984E1,2.199037E0,1.9546996E0,7.5255936E1,1.246121E1,1.246121E1,1.4757982E2,5.8640987E1,9.5291605E0,2.4433746E0,1.3927235E1,1.7836634E1,4.1537366E0,1.2216873E1,2.1013021E1,4.8867493E0,1.7103622E0,8.551811E0,9.5291605E0,1.4660248E0,4.6424117E0,1.2216873E0,1.2216873E0,1.2949886E2,1.1948102E2,6.0351353E1,1.637061E1,1.9546996E0,1.2216873E0,1.5881934E1,2.9320495E0,4.104869E1,3.4207245E1,3.4207244E0,9.040485E0,9.040485E0,3.4207244E0,1.0188872E2,4.5691105E1,1.5637597E1,4.300339E1,1.4660248E0,8.063136E0,1.0017836E1,3.9093993E0,1.4904585E1,2.9320495E0,2.9320495E0,1.2216873E0,1.0995186E1,1.2216873E0,8.063136E0,1.2949885E1,3.6650617E0,1.2216873E0,6.841449E0,1.7103622E0,8.063136E0,1.4660248E0,1.4660248E0,3.1763868E0],"tree_param":{"num_deleted":"0","num_feature":"22","num_nodes":"93","size_leaf_vector":"1"}},{"base_weights":[-3.1949908E-3,-1.2198036E-1,1.8528141E-1,-1.6237406E-1,2.482105E-1,-1.8968123E-1,3.489848E-1,-7.617431E-1,-1.4308213E-1,5.3774947E-1,2.8247513E-2,-2.839889E-1,3.5527882E-1,2.8149942E-1,8.602636E-1,6.2986016E-3,-9.3212855E-1,-1.2714802E-1,-8.1264806E-1,-3.9466676E-1,9.003955E-1,1.783614E-1,-1.1901104E-1,-4.1008264E-1,2.0400475E-1,7.0430434E-1,-4.9694008E-1,5.4228646E-3,3.715889E-1,1.105857E0,2.1929592E-1,-1.1082487E0,1.5836557E-3,-1.4268923E-1,7.7513695E-1,3.9422214E-2,-1.1257584E0,3.4562226E-2,-7.4125534E-1,1.1162788E0,-2.450185E-2,-8.0615915E-2,8.65521E-1,2.9083487E-1,-4.842642E-1,6.3745946E-1,-5.6471175E-1,1.0504067E-1,1.1810719E0,-1.0847546E-1,2.0980492E-2,-5.017031E-1,2.574506E-1,-3.2276034E-1,4.6579948E-1,1.4129806E-1,5.720093E-1,-7.725828E-2,6.2294596E-1,-5.4159034E-3,-1.2611918E-1,-8.902853E-3,-3.315626E-2,-3.3965122E-2,1.1902168E-1,-1.3154884E-1,-5.4071266E-3,-2.6669784E-2,-1.0560482E-1,1.2464949E-1,-6.2190453E-3,-9.6258186E-2,3.0467086E-3,1.5616436E-1,2.3352025E-2,-4.1120645E-2,8.021817E-2,-5.5276122E-2,4.61109E-2,1.0347396E-1,-3.518556E-3,3.7666626E-2,-1.1174785E-1,-6.5191805E-2,5.2499887E-2,1.5202135E-1,-3.5350162E-3,-8.2484074E-2,3.3100534E-2,1.0037432E-1,1.0239251E-2,8.809336E-2,-6.036941E-2,4.0269457E-2,1.0910852E-1,-2.6194364E-2,8.045992E-2,1.1213855E-1,-5.8917083E-2],"categories":[],"categories_nodes":[],"categories_segments":[],"categories_sizes":[],"default_left":[0,0,0,0,0,0,0,0,0,0,0,0,0,0,0,0,0,0,0,0,0,0,0,0,0,0,0,0,0,0,0,0,0,0,0,0,0,0,0,0,0,0,0,0,0,0,0,0,0,0,0,0,0,0,0,0,0,0,0,0,0,0,0,0,0,0,0,0,0,0,0,0,0,0,0,0,0,0,0,0,0,0,0,0,0,0,0,0,0,0,0,0,0,0,0,0,0,0,0],"id":1,"left_children":[1,3,5,7,9,11,13,15,17,19,21,23,25,27,29,-1,31,33,35,37,39,41,-1,43,45,47,49,51,53,55,57,59,-1,61,63,-1,65,-1,67,69,-1,71,73,75,77,79,81,83,85,-1,-1,87,89,91,93,-1,95,-1,97,-1,-1,-1,-1,-1,-1,-1,-1,-1,-1,-1,-1,-1,-1,-1,-1,-1,-1,-1,-1,-1,-1,-1,-1,-1,-1,-1,-1,-1,-1,-1,-1,-1,-1,-1,-1,-1,-1,-1,-1],"loss_changes":[1.739166E1,7.165456E0,1.8500679E1,4.865616E0,2.9955337E0,4.8248644E0,6.983076E0,1.9114041E0,4.3566465E0,7.2375894E0,5.3185782E0,4.939387E0,4.515503E0,4.635871E0,3.5245914E0,0E0,1.8524303E0,5.8528876E0,4.045594E0,1.8969065E0,3.9724398E0,4.648076E0,0E0,3.418684E0,5.981572E0,2.8327327E0,2.1615567E0,6.1226315E0,9.346357E0,1.9878979E0,3.634837E0,1.4281597E0,0E0,4.0591E0,3.6847148E0,0E0,1.5204258E0,0E0,4.1651416E-1,2.0366096E0,0E0,1.9495285E0,2.7709155E0,2.720068E0,3.9707413E0,3.0448532E0,3.862273E0,2.1488397E0,2.3911543E0,0E0,0E0,4.5533056E0,3.5986629E0,6.411024E0,4.461132E0,0E0,1.7447331E0,0E0,4.3774786E0,0E0,0E0,0E0,0E0,0E0,0E0,0E0,0E0,0E0,0E0,0E0,0E0,0E0,0E0,0E0,0E0,0E0,0E0,0E0,0E0,0E0,0E0,0E0,0E0,0E0,0E0,0E0,0E0,0E0,0E0,0E0,0E0,0E0,0E0,0E0,0E0,0E0,0E0,0E0,0E0],"parents":[2147483647,0,0,1,1,2,2,3,3,4,4,5,5,6,6,7,7,8,8,9,9,10,10,11,11,12,12,13,13,14,14,16,16,17,17,18,18,19,19,20,20,21,21,23,23,24,24,25,25,26,26,27,27,28,28,29,29,30,30,31,31,33,33,34,34,36,36,38,38,39,39,41,41,42,42,43,43,44,44,45,45,46,46,47,47,48,48,51,51,52,52,53,53,54,54,56,56,58,58],"right_children":[2,4,6,8,10,12,14,16,18,20,22,24,26,28,30,-1,32,34,36,38,40,42,-1,44,46,48,50,52,54,56,58,60,-1,62,64,-1,66,-1,68,70,-1,72,74,76,78,80,82,84,86,-1,-1,88,90,92,94,-1,96,-1,98,-1,-1,-1,-1,-1,-1,-1,-1,-1,-1,-1,-1,-1,-1,-1,-1,-1,-1,-1,-1,-1,-1,-1,-1,-1,-1,-1,-1,-1,-1,-1,-1,-1,-1,-1,-1,-1,-1,-1,-1],"split_conditions":[1E0,1.7256154E0,1.9013213E-1,2.977099E-2,2E0,1E0,2.0191855E0,8E0,2.8937051E0,8E0,9.751515E0,1E0,4E0,1.5750164E-1,3.9997144E0,6.2986016E-3,1.6E1,2.5354233E0,1.2655715E0,2.0980463E0,3E0,5.364556E0,-1.1901104E-1,6.418121E-2,2E0,2.299276E-1,2E0,5.993448E-1,1E0,2.7184618E-1,4.7484856E0,1.4195199E-2,1.5836557E-3,4.1389522E-1,2.135204E-1,3.9422214E-2,4.295604E-1,3.4562226E-2,1E0,5.6074E-1,-2.450185E-2,7.9924844E-2,1E0,2.0715425E-2,1E0,2.0218544E-1,1.2E1,6.926955E-2,1E0,-1.0847546E-1,2.0980492E-2,1E0,1E0,8E0,1E0,1.4129806E-1,3.3323596E0,-7.725828E-2,1E0,-5.4159034E-3,-1.2611918E-1,-8.902853E-3,-3.315626E-2,-3.3965122E-2,1.1902168E-1,-1.3154884E-1,-5.4071266E-3,-2.6669784E-2,-1.0560482E-1,1.2464949E-1,-6.2190453E-3,-9.6258186E-2,3.0467086E-3,1.5616436E-1,2.3352025E-2,-4.1120645E-2,8.021817E-2,-5.5276122E-2,4.61109E-2,1.0347396E-1,-3.518556E-3,3.7666626E-2,-1.1174785E-1,-6.5191805E-2,5.2499887E-2,1.5202135E-1,-3.5350162E-3,-8.2484074E-2,3.3100534E-2,1.0037432E-1,1.0239251E-2,8.809336E-2,-6.036941E-2,4.0269457E-2,1.0910852E-1,-2.6194364E-2,8.045992E-2,1.1213855E-1,-5.8917083E-2],"split_indices":[18,16,16,16,1,7,16,0,15,0,15,12,1,19,16,0,0,15,16,16,2,15,0,15,2,19,2,15,3,19,16,16,0,19,19,0,19,0,5,19,0,19,5,16,11,15,0,16,12,0,0,12,3,0,8,0,15,0,6,0,0,0,0,0,0,0,0,0,0,0,0,0,0,0,0,0,0,0,0,0,0,0,0,0,0,0,0,0,0,0,0,0,0,0,0,0,0,0,0],"split_type":[0,0,0,0,0,0,0,0,0,0,0,0,0,0,0,0,0,0,0,0,0,0,0,0,0,0,0,0,0,0,0,0,0,0,0,0,0,0,0,0,0,0,0,0,0,0,0,0,0,0,0,0,0,0,0,0,0,0,0,0,0,0,0,0,0,0,0,0,0,0,0,0,0,0,0,0,0,0,0,0,0,0,0,0,0,0,0,0,0,0,0,0,0,0,0,0,0,0,0],"sum_hessian":[7.748118E2,4.754911E2,2.993207E2,4.29218E2,4.627312E1,9.0916885E1,2.0840382E2,1.2184374E1,4.170336E2,1.9353386E1,2.6919735E1,7.791265E1,1.3004237E1,1.8547318E2,2.2930647E1,2.1941586E0,9.990215E0,4.085021E2,8.531498E0,5.3946505E0,1.3958735E1,2.4726757E1,2.192979E0,6.2041317E1,1.5871333E1,9.3489485E0,3.6552892E0,4.5893646E1,1.3957953E2,1.605407E1,6.8765764E0,8.2823715E0,1.7078437E0,4.024127E2,6.089412E0,1.7040929E0,6.827405E0,1.7211602E0,3.67349E0,1.1766473E1,2.192263E0,1.8599604E1,6.127153E0,5.658203E0,5.6383114E1,1.0257951E1,5.613383E0,4.6830273E0,4.6659207E0,1.7035508E0,1.9517384E0,1.4907122E1,3.0986523E1,1.6385975E1,1.2319356E2,9.145728E0,6.908342E0,1.7246492E0,5.1519275E0,1.2210389E0,7.0613327E0,3.1452466E2,8.788804E1,1.7014678E0,4.387944E0,5.6072183E0,1.2201868E0,2.2016575E0,1.4718326E0,1.054371E1,1.2227622E0,1.2231028E0,1.7376501E1,2.2156997E0,3.9114532E0,2.4670134E0,3.1911898E0,5.2961113E1,3.4219987E0,6.110581E0,4.14737E0,2.1945612E0,3.4188216E0,1.4739492E0,3.2090778E0,3.4533706E0,1.2125504E0,1.0746374E1,4.1607475E0,4.3889985E0,2.6597525E1,2.69655E0,1.36894245E1,1.13393684E2,9.799871E0,1.4790375E0,5.4293046E0,3.7037477E0,1.4481796E0],"tree_param":{"num_deleted":"0","num_feature":"22","num_nodes":"99","size_leaf_vector":"1"}},{"base_weights":[1.1734986E-2,-3.5573643E-2,6.300946E-1,-1.3674214E-1,1.2973712E-1,6.8220377E-1,-9.3572095E-2,-3.814723E-1,-8.701981E-2,7.50519E-2,4.2995134E-1,4.2622465E-1,1.0795598E0,1.3867863E-1,-5.1776534E-1,5.6148195E-1,-1.1244076E-1,-5.6491684E-2,2.5272223E-1,-8.412178E-2,5.1250744E-1,1.2420846E0,2.4216181E-1,-2.4389625E-2,1.1926796E0,3.1682143E-1,-1.0130336E-1,-6.1782247E-1,2.9142308E-1,7.718016E-1,-9.406761E-2,-6.7823833E-1,-8.432404E-2,-3.066475E-1,8.51821E-2,1.5455629E-1,7.305657E-1,8.588645E-1,2.6697114E-1,1.5894176E-1,5.0446755E-1,-4.2173332E-1,5.5692685E-1,1.4371793E0,5.7661104E-1,3.1284862E-3,9.106725E-2,-9.060643E-3,-7.173272E-2,1.0122404E-1,-1.127015E-1,3.597076E-2,1.2605813E-1,-3.773408E-2,-1.2246328E-1,-2.1129487E-2,2.2128444E-4,-9.409908E-3,-9.681235E-2,-4.7902786E-3,5.7897504E-2,2.4388291E-2,-6.573015E-2,-4.113781E-2,9.5539846E-2,1.2923501E-1,2.964513E-2,-4.8795607E-4,1.0217457E-1,8.592897E-2,-7.6509663E-3,-6.7735404E-2,7.801811E-2,1.4482497E-1,2.9017929E-2,1.5118928E-1,3.8710255E-2,-2.3855109E-2,8.295498E-2],"categories":[],"categories_nodes":[],"categories_segments":[],"categories_sizes":[],"default_left":[0,0,0,0,0,0,0,0,0,0,0,0,0,0,0,0,0,0,0,0,0,0,0,0,0,0,0,0,0,0,0,0,0,0,0,0,0,0,0,0,0,0,0,0,0,0,0,0,0,0,0,0,0,0,0,0,0,0,0,0,0,0,0,0,0,0,0,0,0,0,0,0,0,0,0,0,0,0,0],"id":2,"left_children":[1,3,5,7,9,11,-1,13,15,17,19,21,23,25,27,29,31,33,35,-1,37,39,41,-1,43,45,-1,47,49,51,-1,53,55,57,59,61,63,65,67,-1,69,71,73,75,77,-1,-1,-1,-1,-1,-1,-1,-1,-1,-1,-1,-1,-1,-1,-1,-1,-1,-1,-1,-1,-1,-1,-1,-1,-1,-1,-1,-1,-1,-1,-1,-1,-1,-1],"loss_changes":[2.2882687E1,1.2173878E1,5.174162E0,5.459613E0,4.5065103E0,5.0709515E0,0E0,5.4545965E0,6.269363E0,5.5083246E0,4.8794284E0,4.9138656E0,3.3828735E0,3.7171712E0,5.0683327E0,5.26517E0,5.719103E0,4.8420906E0,4.5866504E0,0E0,3.208517E0,7.7379036E-1,6.4152303E0,0E0,2.0628853E0,2.5315528E0,0E0,2.770588E0,8.62854E0,2.1957169E0,0E0,2.3406658E0,3.8137374E0,6.847394E0,5.7804213E0,6.2796555E0,4.707899E0,3.595234E0,5.1563888E0,0E0,7.7359676E-1,3.6257768E0,4.4523387E0,4.403553E-1,1.6667805E0,0E0,0E0,0E0,0E0,0E0,0E0,0E0,0E0,0E0,0E0,0E0,0E0,0E0,0E0,0E0,0E0,0E0,0E0,0E0,0E0,0E0,0E0,0E0,0E0,0E0,0E0,0E0,0E0,0E0,0E0,0E0,0E0,0E0,0E0],"parents":[2147483647,0,0,1,1,2,2,3,3,4,4,5,5,7,7,8,8,9,9,10,10,11,11,12,12,13,13,14,14,15,15,16,16,17,17,18,18,20,20,21,21,22,22,24,24,25,25,27,27,28,28,29,29,31,31,32,32,33,33,34,34,35,35,36,36,37,37,38,38,40,40,41,41,42,42,43,43,44,44],"right_children":[2,4,6,8,10,12,-1,14,16,18,20,22,24,26,28,30,32,34,36,-1,38,40,42,-1,44,46,-1,48,50,52,-1,54,56,58,60,62,64,66,68,-1,70,72,74,76,78,-1,-1,-1,-1,-1,-1,-1,-1,-1,-1,-1,-1,-1,-1,-1,-1,-1,-1,-1,-1,-1,-1,-1,-1,-1,-1,-1,-1,-1,-1,-1,-1,-1,-1],"split_conditions":[3.5679615E0,1E0,1.9E1,1.842576E-1,1E0,2E0,-9.3572095E-2,9E0,2.0554286E-1,1.3E1,7.22071E-2,1.0868583E-1,8.6541414E-2,2E0,1.6E1,1.6E1,2.4336566E-1,2.1142608E-1,1.5606449E0,-8.412178E-2,2E0,3E0,2.532235E-1,-2.4389625E-2,3.6580557E-1,3.949399E-1,-1.0130336E-1,1.2737976E-1,9.102459E-2,3E0,-9.406761E-2,1.6305546E-1,2E0,2.8442186E-1,1E0,1.2883927E0,1E0,2.862523E-1,3.949399E-1,1.5894176E-1,1E0,4E0,3.012552E-1,8.406258E0,3.8666493E-1,3.1284862E-3,9.106725E-2,-9.060643E-3,-7.173272E-2,1.0122404E-1,-1.127015E-1,3.597076E-2,1.2605813E-1,-3.773408E-2,-1.2246328E-1,-2.1129487E-2,2.2128444E-4,-9.409908E-3,-9.681235E-2,-4.7902786E-3,5.7897504E-2,2.4388291E-2,-6.573015E-2,-4.113781E-2,9.5539846E-2,1.2923501E-1,2.964513E-2,-4.8795607E-4,1.0217457E-1,8.592897E-2,-7.6509663E-3,-6.7735404E-2,7.801811E-2,1.4482497E-1,2.9017929E-2,1.5118928E-1,3.8710255E-2,-2.3855109E-2,8.295498E-2],"split_indices":[15,18,0,15,7,2,0,0,15,0,19,19,19,5,0,0,15,16,15,0,1,1,19,0,19,19,0,19,16,3,0,16,1,15,9,15,2,19,19,0,2,1,19,15,19,0,0,0,0,0,0,0,0,0,0,0,0,0,0,0,0,0,0,0,0,0,0,0,0,0,0,0,0,0,0,0,0,0,0],"split_type":[0,0,0,0,0,0,0,0,0,0,0,0,0,0,0,0,0,0,0,0,0,0,0,0,0,0,0,0,0,0,0,0,0,0,0,0,0,0,0,0,0,0,0,0,0,0,0,0,0,0,0,0,0,0,0,0,0,0,0,0,0,0,0,0,0,0,0,0,0,0,0,0,0,0,0,0,0,0,0],"sum_hessian":[7.804477E2,7.258573E2,5.4590443E1,4.503937E2,2.7546356E2,5.3378365E1,1.2120774E0,7.492848E1,3.7546524E2,2.3407573E2,4.1387833E1,3.37251E1,1.9653261E1,1.5553262E1,5.937522E1,1.3367443E1,3.6209778E2,1.348888E2,9.9186935E1,1.9635875E0,3.9424244E1,5.1499133E0,2.857519E1,1.4565177E0,1.8196743E1,1.4097607E1,1.4556558E0,5.3051792E1,6.3234296E0,1.2152198E1,1.2152445E0,1.604757E1,3.4605023E2,4.835069E1,8.65381E1,8.338098E1,1.5805957E1,1.5318226E1,2.4106018E1,2.7161283E0,2.433785E0,9.081295E0,1.9493895E1,1.207264E1,6.124103E0,1.0230999E1,3.8666072E0,8.7263975E0,4.4325394E1,4.3826423E0,1.9407876E0,7.535168E0,4.6170297E0,1.1438841E1,4.608729E0,1.3967342E2,2.063768E2,3.745707E1,1.0893618E1,6.8877525E1,1.7660576E1,7.57464E1,7.634582E0,2.4635713E0,1.3342385E1,7.9177065E0,7.4005194E0,1.8453184E1,5.6528344E0,1.2135736E0,1.2202115E0,7.8485246E0,1.2327708E0,3.4699504E0,1.6023943E1,1.0860144E1,1.2124966E0,1.4637291E0,4.660374E0],"tree_param":{"num_deleted":"0","num_feature":"22","num_nodes":"79","size_leaf_vector":"1"}},{"base_weights":[-8.92176E-3,-8.193202E-2,1.0880117E-1,-4.6022333E-2,-2.9143095E-1,4.7078326E-2,3.7604886E-1,-1.7441012E-1,3.843466E-2,-7.9847646E-1,-1.02240846E-1,-3.9416786E-2,2.1000677E-1,5.8548546E-1,6.355854E-2,-2.8428242E-1,2.6695594E-1,1.4575791E-1,-1.7572473E-1,-1.8011216E-2,-9.3933535E-1,-2.7474549E-2,-1.02306746E-1,6.231611E-2,-3.507781E-1,9.2214406E-1,1.257349E-1,3.2961982E-1,1.1436E0,-5.5791516E-2,1.22968994E-1,-1.4371763E-1,-5.385797E-1,1.3885805E-1,9.236043E-2,7.437052E-2,6.5041167E-1,-3.3939314E-1,1.4547487E-1,-4.881796E-2,3.7281692E-2,-1.0137318E0,-1.1015264E-3,8.110728E-2,-3.7884477E-1,8.074588E-2,-9.6563734E-2,5.991683E-1,-4.860835E-1,1.0986028E0,-9.351319E-3,6.0224358E-2,1.2481807E0,1.227902E-1,9.892383E-1,1.6174028E-2,1.2923099E0,-5.2520317E-1,3.053506E-1,9.713548E-3,-2.945277E-2,-4.0162113E-2,-1.3095048E-1,2.3352625E-2,-1.165475E-1,1.9191789E-2,-2.3390327E-2,-2.2694508E-2,8.3856575E-2,3.931301E-2,-4.252155E-2,2.7200181E-2,-6.281043E-2,-1.1458241E-1,-6.37408E-2,1.8210398E-2,-3.423445E-2,-6.1983973E-2,5.6417238E-2,5.0128098E-3,7.1977906E-2,1.7272076E-2,7.911887E-2,-6.7572795E-2,5.4346016E-3,5.469465E-2,1.598868E-1,9.777655E-3,-1.0624688E-1,3.570969E-2,1.4974657E-1,-6.7151986E-2,2.7458215E-2,1.4682905E-1,-2.281256E-2,5.5539764E-2,1.6222437E-1,-7.360958E-2,3.1484175E-2,2.7427278E-3,8.5140154E-2],"categories":[],"categories_nodes":[],"categories_segments":[],"categories_sizes":[],"default_left":[0,0,0,0,0,0,0,0,0,0,0,0,0,0,0,0,0,0,0,0,0,0,0,0,0,0,0,0,0,0,0,0,0,0,0,0,0,0,0,0,0,0,0,0,0,0,0,0,0,0,0,0,0,0,0,0,0,0,0,0,0,0,0,0,0,0,0,0,0,0,0,0,0,0,0,0,0,0,0,0,0,0,0,0,0,0,0,0,0,0,0,0,0,0,0,0,0,0,0,0,0],"id":3,"left_children":[1,3,5,7,9,11,13,15,17,19,21,23,25,27,29,31,33,35,37,39,41,43,-1,45,47,49,51,53,55,57,-1,59,61,-1,63,65,67,69,71,-1,-1,73,-1,75,77,79,-1,81,83,85,-1,87,89,91,93,-1,95,97,99,-1,-1,-1,-1,-1,-1,-1,-1,-1,-1,-1,-1,-1,-1,-1,-1,-1,-1,-1,-1,-1,-1,-1,-1,-1,-1,-1,-1,-1,-1,-1,-1,-1,-1,-1,-1,-1,-1,-1,-1,-1,-1],"loss_changes":[6.7267632E0,3.6201012E0,4.9245596E0,4.4903736E0,6.6799173E0,3.454524E0,3.6325412E0,8.041367E0,5.7772365E0,2.0725641E0,3.5849223E0,5.108445E0,4.9828405E0,4.399791E0,3.3562937E0,4.641038E0,6.384159E0,5.9768887E0,4.464938E0,9.0331286E-1,1.0994501E0,1.9217834E0,0E0,2.387086E0,5.3937144E0,1.6856675E0,5.5962725E0,3.1992505E0,1.2671204E0,3.9552758E0,0E0,3.1660242E0,4.3971443E0,0E0,5.5719404E0,5.395264E0,3.5905113E0,3.6840281E0,3.0144377E0,0E0,0E0,9.1667175E-3,0E0,1.7169373E0,3.0489936E0,2.3247569E0,0E0,3.0531025E-1,3.6546516E0,1.223836E0,0E0,3.220585E0,3.9880323E-1,2.5562115E0,3.6407518E0,0E0,1.1989069E0,2.0213058E0,1.9926668E0,0E0,0E0,0E0,0E0,0E0,0E0,0E0,0E0,0E0,0E0,0E0,0E0,0E0,0E0,0E0,0E0,0E0,0E0,0E0,0E0,0E0,0E0,0E0,0E0,0E0,0E0,0E0,0E0,0E0,0E0,0E0,0E0,0E0,0E0,0E0,0E0,0E0,0E0,0E0,0E0,0E0,0E0],"parents":[2147483647,0,0,1,1,2,2,3,3,4,4,5,5,6,6,7,7,8,8,9,9,10,10,11,11,12,12,13,13,14,14,15,15,16,16,17,17,18,18,19,19,20,20,21,21,23,23,24,24,25,25,26,26,27,27,28,28,29,29,31,31,32,32,34,34,35,35,36,36,37,37,38,38,41,41,43,43,44,44,45,45,47,47,48,48,49,49,51,51,52,52,53,53,54,54,56,56,57,57,58,58],"right_children":[2,4,6,8,10,12,14,16,18,20,22,24,26,28,30,32,34,36,38,40,42,44,-1,46,48,50,52,54,56,58,-1,60,62,-1,64,66,68,70,72,-1,-1,74,-1,76,78,80,-1,82,84,86,-1,88,90,92,94,-1,96,98,100,-1,-1,-1,-1,-1,-1,-1,-1,-1,-1,-1,-1,-1,-1,-1,-1,-1,-1,-1,-1,-1,-1,-1,-1,-1,-1,-1,-1,-1,-1,-1,-1,-1,-1,-1,-1,-1,-1,-1,-1,-1,-1],"split_conditions":[1E0,4E0,1E0,2.1841152E-1,1.2E1,3.333367E-1,2.9481876E-1,1E0,4.1389522E-1,1.3417679E-1,2E0,2E0,3.5414287E-1,3E0,1E0,1.2E1,5.0492343E-2,3.8111892E-1,1.2E1,1.0336582E-1,5.324207E-1,4.39168E-1,-1.02306746E-1,2.1E1,9E0,1E0,1.9E1,1E0,1E0,2E0,1.22968994E-1,1.1258506E-1,3E0,1.3885805E-1,4E0,3.3107308E-1,8E0,6E0,5E0,-4.881796E-2,3.7281692E-2,1.1E1,-1.1015264E-3,1E0,3E0,1.8E1,-9.6563734E-2,1E0,1.6E1,1.3E1,-9.351319E-3,1E0,3E0,1E0,2E0,1.6174028E-2,1.5466791E-1,5.7686967E-1,1E0,9.713548E-3,-2.945277E-2,-4.0162113E-2,-1.3095048E-1,2.3352625E-2,-1.165475E-1,1.9191789E-2,-2.3390327E-2,-2.2694508E-2,8.3856575E-2,3.931301E-2,-4.252155E-2,2.7200181E-2,-6.281043E-2,-1.1458241E-1,-6.37408E-2,1.8210398E-2,-3.423445E-2,-6.1983973E-2,5.6417238E-2,5.0128098E-3,7.1977906E-2,1.7272076E-2,7.911887E-2,-6.7572795E-2,5.4346016E-3,5.469465E-2,1.598868E-1,9.777655E-3,-1.0624688E-1,3.570969E-2,1.4974657E-1,-6.7151986E-2,2.7458215E-2,1.4682905E-1,-2.281256E-2,5.5539764E-2,1.6222437E-1,-7.360958E-2,3.1484175E-2,2.7427278E-3,8.5140154E-2],"split_indices":[4,1,12,19,0,19,19,9,19,19,6,4,19,3,11,0,19,19,0,19,19,19,0,0,0,13,0,9,2,1,0,19,5,0,2,19,0,0,3,0,0,0,0,14,5,0,0,2,0,0,0,11,3,1,5,0,19,19,6,0,0,0,0,0,0,0,0,0,0,0,0,0,0,0,0,0,0,0,0,0,0,0,0,0,0,0,0,0,0,0,0,0,0,0,0,0,0,0,0,0,0],"split_type":[0,0,0,0,0,0,0,0,0,0,0,0,0,0,0,0,0,0,0,0,0,0,0,0,0,0,0,0,0,0,0,0,0,0,0,0,0,0,0,0,0,0,0,0,0,0,0,0,0,0,0,0,0,0,0,0,0,0,0,0,0,0,0,0,0,0,0,0,0,0,0,0,0,0,0,0,0,0,0,0,0,0,0,0,0,0,0,0,0,0,0,0,0,0,0,0,0,0,0,0,0],"sum_hessian":[7.8060126E2,4.819846E2,2.9861667E2,4.1249887E2,6.9485725E1,2.4354445E2,5.507224E1,1.6325728E2,2.492416E2,1.8006441E1,5.1479282E1,1.5958328E2,8.396116E1,3.245004E1,2.2622202E1,1.3100197E2,3.2255314E1,1.6624794E2,8.299365E1,2.9253957E0,1.5081046E1,4.856583E1,2.9134543E0,1.2088551E2,3.869777E1,7.832272E0,7.612889E1,2.334034E1,9.109698E0,2.1385605E1,1.2365959E0,8.5375275E1,4.5626686E1,3.4081001E0,2.8847212E1,1.4665042E2,1.9597528E1,5.4941414E1,2.8052237E1,1.2148428E0,1.7105528E0,1.3876928E1,1.2041178E0,3.7688385E1,1.0877446E1,1.196616E2,1.2239157E0,4.3972783E0,3.430049E1,6.6033497E0,1.2289226E0,7.292627E1,3.2026207E0,1.867178E1,4.66856E0,1.4728438E0,7.636855E0,9.101376E0,1.2284229E1,3.3010826E1,5.2364452E1,4.00352E1,5.591485E0,2.6668564E1,2.1786478E0,1.0644102E2,4.02094E1,3.424238E0,1.617329E1,5.386349E0,4.9555065E1,2.4666206E1,3.38603E0,8.758022E0,5.1189055E0,3.0890663E1,6.7977214E0,8.936391E0,1.9410548E0,1.1521957E2,4.4420323E0,1.9550052E0,2.4422731E0,2.5205254E1,9.095236E0,4.1358957E0,2.467454E0,7.144932E1,1.4769498E0,1.2318355E0,1.9707851E0,2.4463513E0,1.6225428E1,3.202286E0,1.4662739E0,3.1916394E0,4.4452157E0,7.373905E0,1.7274708E0,8.836797E0,3.447433E0],"tree_param":{"num_deleted":"0","num_feature":"22","num_nodes":"101","size_leaf_vector":"1"}},{"base_weights":[-3.9720368E-3,-4.583049E-2,5.270925E-1,-1.3500369E-1,6.6289455E-2,6.6682744E-1,1.492487E-2,-1.9330709E-1,1.7983682E-1,-3.2371156E-2,2.2375387E-1,7.327654E-1,-9.399678E-2,4.2427954E-1,-7.059182E-1,2.876096E-1,-2.41098E-1,3.037042E-1,-3.5840642E-1,4.384994E-2,-4.0769807E-1,1.3771391E-1,6.75839E-1,-2.4628204E-1,8.703072E-1,6.3518715E-1,-5.195266E-2,-1.19436085E-1,-3.5735567E-3,-2.0562713E-1,7.0149875E-1,-2.6743227E-1,3.591935E-1,-4.5177096E-1,4.3627194E-1,-1.4064127E-2,-1.04129806E-1,-2.1442235E-2,6.393553E-1,-7.489413E-1,5.314708E-2,8.238861E-2,7.280279E-1,-8.626445E-3,9.9010855E-1,-8.0601275E-1,1.0920888E-1,7.444117E-1,1.2949643E0,-2.1918146E-2,8.624254E-1,5.203727E-2,-6.302937E-2,1.097188E-1,2.61363E-2,-6.9713998E-3,-3.3648536E-2,1.1082424E-1,-4.1999727E-2,-8.721756E-2,7.3605925E-2,5.283271E-2,-7.407422E-2,-4.6479862E-2,3.587458E-2,1.781924E-3,-6.401343E-2,8.9076765E-2,-8.200225E-3,-9.3769886E-2,6.469869E-2,2.33983E-2,-9.911347E-2,1.8739184E-2,-2.323286E-2,4.9744896E-3,1.2004659E-1,8.309151E-2,-7.086422E-2,1.18813634E-1,8.389288E-3,-7.870114E-3,-1.0263162E-1,9.348377E-2,2.5516326E-2,1.545089E-1,2.9566307E-2,1.1639241E-1,4.275077E-2],"categories":[],"categories_nodes":[],"categories_segments":[],"categories_sizes":[],"default_left":[0,0,0,0,0,0,0,0,0,0,0,0,0,0,0,0,0,0,0,0,0,0,0,0,0,0,0,0,0,0,0,0,0,0,0,0,0,0,0,0,0,0,0,0,0,0,0,0,0,0,0,0,0,0,0,0,0,0,0,0,0,0,0,0,0,0,0,0,0,0,0,0,0,0,0,0,0,0,0,0,0,0,0,0,0,0,0,0,0],"id":4,"left_children":[1,3,5,7,9,11,13,15,17,19,21,23,-1,25,27,29,31,33,35,37,39,41,43,45,47,49,-1,-1,-1,51,53,55,57,59,61,63,-1,65,67,69,71,73,75,77,79,81,-1,83,85,-1,87,-1,-1,-1,-1,-1,-1,-1,-1,-1,-1,-1,-1,-1,-1,-1,-1,-1,-1,-1,-1,-1,-1,-1,-1,-1,-1,-1,-1,-1,-1,-1,-1,-1,-1,-1,-1,-1,-1],"loss_changes":[1.7392635E1,7.2591643E0,4.0811768E0,7.455141E0,5.0084066E0,5.4446487E0,4.217014E0,7.9196053E0,4.354479E0,5.7047424E0,4.7352843E0,6.0964127E0,0E0,2.1398344E0,1.6542659E0,6.54021E0,5.016075E0,5.435876E0,2.8946152E0,6.4733334E0,5.3319693E0,3.3868642E0,4.222724E0,5.494908E0,1.0954285E0,1.7191556E0,0E0,0E0,0E0,4.973656E0,2.7195597E0,4.055048E0,8.348512E0,4.786701E0,5.2680454E0,1.7191566E0,0E0,3.6717045E0,3.0560083E0,5.718791E0,3.1119397E0,3.269629E0,2.7974334E0,4.794381E0,2.311326E0,7.0737624E-1,0E0,2.7487564E0,1.4069233E0,0E0,3.4532213E-1,0E0,0E0,0E0,0E0,0E0,0E0,0E0,0E0,0E0,0E0,0E0,0E0,0E0,0E0,0E0,0E0,0E0,0E0,0E0,0E0,0E0,0E0,0E0,0E0,0E0,0E0,0E0,0E0,0E0,0E0,0E0,0E0,0E0,0E0,0E0,0E0,0E0,0E0],"parents":[2147483647,0,0,1,1,2,2,3,3,4,4,5,5,6,6,7,7,8,8,9,9,10,10,11,11,13,13,14,14,15,15,16,16,17,17,18,18,19,19,20,20,21,21,22,22,23,23,24,24,25,25,29,29,30,30,31,31,32,32,33,33,34,34,35,35,37,37,38,38,39,39,40,40,41,41,42,42,43,43,44,44,45,45,47,47,48,48,50,50],"right_children":[2,4,6,8,10,12,14,16,18,20,22,24,-1,26,28,30,32,34,36,38,40,42,44,46,48,50,-1,-1,-1,52,54,56,58,60,62,64,-1,66,68,70,72,74,76,78,80,82,-1,84,86,-1,88,-1,-1,-1,-1,-1,-1,-1,-1,-1,-1,-1,-1,-1,-1,-1,-1,-1,-1,-1,-1,-1,-1,-1,-1,-1,-1,-1,-1,-1,-1,-1,-1,-1,-1,-1,-1,-1,-1],"split_conditions":[3.5679615E0,3.6519212E-1,1E0,1E0,1E0,1.8E1,3.0957565E-1,7.9924844E-2,4E0,4.3276435E-1,1.6E1,8E0,-9.399678E-2,1E0,4.720514E0,2E0,1.8E1,1.2737976E-1,1E0,3.7786746E-1,1.1E1,5.828639E-1,5.4737186E-1,1E0,1.4E1,8.6541414E-2,-5.195266E-2,-1.19436085E-1,-3.5735567E-3,1E0,1.2E1,9.102459E-2,4E-1,3.926138E-1,3E0,2E0,-1.04129806E-1,1.7E1,1E0,4E-1,6.109634E-1,3E0,2E0,4.3097615E-1,3E0,4.448313E0,1.0920888E-1,1.2E1,3E0,-2.1918146E-2,1.6500801E-1,5.203727E-2,-6.302937E-2,1.097188E-1,2.61363E-2,-6.9713998E-3,-3.3648536E-2,1.1082424E-1,-4.1999727E-2,-8.721756E-2,7.3605925E-2,5.283271E-2,-7.407422E-2,-4.6479862E-2,3.587458E-2,1.781924E-3,-6.401343E-2,8.9076765E-2,-8.200225E-3,-9.3769886E-2,6.469869E-2,2.33983E-2,-9.911347E-2,1.8739184E-2,-2.323286E-2,4.9744896E-3,1.2004659E-1,8.309151E-2,-7.086422E-2,1.18813634E-1,8.389288E-3,-7.870114E-3,-1.0263162E-1,9.348377E-2,2.5516326E-2,1.545089E-1,2.9566307E-2,1.1639241E-1,4.275077E-2],"split_indices":[15,16,14,7,4,0,19,19,17,19,0,0,0,6,15,17,0,19,6,19,0,19,16,4,0,19,0,0,0,5,0,16,20,15,5,2,0,0,6,20,19,17,17,16,5,15,0,0,5,0,19,0,0,0,0,0,0,0,0,0,0,0,0,0,0,0,0,0,0,0,0,0,0,0,0,0,0,0,0,0,0,0,0,0,0,0,0,0,0],"split_type":[0,0,0,0,0,0,0,0,0,0,0,0,0,0,0,0,0,0,0,0,0,0,0,0,0,0,0,0,0,0,0,0,0,0,0,0,0,0,0,0,0,0,0,0,0,0,0,0,0,0,0,0,0,0,0,0,0,0,0,0,0,0,0,0,0,0,0,0,0,0,0,0,0,0,0,0,0,0,0,0,0,0,0,0,0,0,0,0,0],"sum_hessian":[7.803242E2,7.241597E2,5.616449E1,4.0324207E2,3.2091763E2,4.3888428E1,1.2276065E1,3.4056155E2,6.2680515E1,1.97787E2,1.2313063E2,4.2680893E1,1.2075346E0,8.092106E0,4.183959E0,3.0330433E1,3.1023114E2,5.13085E1,1.1372015E1,1.6513474E2,3.2652267E1,1.045395E2,1.8591133E1,5.1600614E0,3.752083E1,6.881357E0,1.2107486E0,1.9677099E0,2.216249E0,1.4068277E1,1.6262156E1,2.977247E2,1.2506427E1,7.299926E0,4.400857E1,8.238444E0,3.1335704E0,1.4968683E2,1.5447914E1,1.8401392E1,1.4250875E1,9.662335E1,7.916148E0,6.1560574E0,1.2435077E1,3.918881E0,1.2411807E0,3.1064342E1,6.456487E0,1.4531752E0,5.428182E0,5.108884E0,8.9593935E0,7.7773504E0,8.484805E0,7.758545E1,2.2013925E2,6.1612334E0,6.3451934E0,5.5879445E0,1.7119812E0,4.132745E1,2.6811228E0,3.6177588E0,4.6206856E0,1.4166794E2,8.018884E0,1.1281249E1,4.1666656E0,1.6498697E1,1.9026941E0,1.2808751E1,1.4421237E0,7.2754036E1,2.3869308E1,3.703828E0,4.2123203E0,2.7140515E0,3.4420059E0,9.949745E0,2.4853313E0,1.2266026E0,2.6922781E0,2.170538E1,9.358963E0,4.7271214E0,1.7293658E0,2.2158747E0,3.2123075E0],"tree_param":{"num_deleted":"0","num_feature":"22","num_nodes":"89","size_leaf_vector":"1"}},{"base_weights":[1.7389845E-2,-2.1123294E-2,5.0603336E-1,-7.877178E-2,2.4247223E-1,2.865468E-1,8.076938E-1,-1.2408164E-1,1.6264309E-1,-6.2369075E-2,3.1557956E-1,-2.7762702E-2,5.3243315E-1,9.498146E-1,3.3002976E-2,-2.31258E-1,-6.67571E-2,1.9632673E-1,-1.0654693E-1,-5.407678E-1,2.4550591E-1,1.6711439E-1,5.1317716E-1,6.600162E-1,-4.6079957E-1,1.2081461E0,2.1769221E-1,1.116544E0,1.7701085E-1,6.496226E-2,-5.4426618E-2,-3.9904428E-1,-1.0963994E-1,5.267694E-1,-9.3048505E-2,-3.4413868E-1,2.6705393E-1,-8.4112585E-1,1.1962379E-1,4.952462E-1,-1.09410726E-1,3.750423E-2,6.231862E-1,3.222413E-1,9.258582E-1,2.6189536E-1,1.065583E-1,-1.3758686E-1,-1.1640479E-1,1.479923E-1,5.901826E-2,-2.563605E-1,5.7064134E-1,1.2183555E-1,4.515904E-2,7.114526E-2,-4.7087677E-2,3.8203117E-2,-4.689024E-2,3.7473865E-2,-1.9396812E-2,-3.976163E-2,8.548802E-2,-9.726923E-2,-7.8342175E-3,6.674852E-2,-6.633937E-2,6.8086736E-2,1.2177076E-2,-1.5901329E-2,-1.0589391E-1,-2.2691986E-2,3.9128754E-2,6.637567E-2,-6.1248805E-2,4.266057E-2,-1.1943682E-2,8.7949656E-2,-7.298646E-2,-5.896926E-2,4.765191E-2,1.1033547E-1,-3.1179205E-2,6.994993E-2,-5.4018557E-2,3.9733645E-2,-4.2989437E-2,-7.376673E-2,5.176061E-2,-7.513354E-3,7.43163E-2],"categories":[],"categories_nodes":[],"categories_segments":[],"categories_sizes":[],"default_left":[0,0,0,0,0,0,0,0,0,0,0,0,0,0,0,0,0,0,0,0,0,0,0,0,0,0,0,0,0,0,0,0,0,0,0,0,0,0,0,0,0,0,0,0,0,0,0,0,0,0,0,0,0,0,0,0,0,0,0,0,0,0,0,0,0,0,0,0,0,0,0,0,0,0,0,0,0,0,0,0,0,0,0,0,0,0,0,0,0,0,0],"id":5,"left_children":[1,3,5,7,9,11,13,15,17,19,21,23,25,27,29,31,33,35,-1,37,39,41,43,45,47,49,51,53,55,-1,-1,57,59,61,63,65,67,69,71,73,-1,75,77,79,81,83,-1,85,-1,-1,-1,87,89,-1,-1,-1,-1,-1,-1,-1,-1,-1,-1,-1,-1,-1,-1,-1,-1,-1,-1,-1,-1,-1,-1,-1,-1,-1,-1,-1,-1,-1,-1,-1,-1,-1,-1,-1,-1,-1,-1],"loss_changes":[1.4729577E1,1.1050408E1,3.5545015E0,6.544132E0,2.9284267E0,2.6925433E0,2.559555E0,3.0733118E0,4.1259527E0,3.9742045E0,3.007369E0,5.1166873E0,3.8819408E0,2.3598118E0,2.0208244E0,3.5229187E0,5.182211E0,3.646873E0,0E0,2.1882362E0,6.080965E0,3.6229806E0,3.2278118E0,7.953327E-1,2.2274816E0,1.298151E-1,2.5750732E0,5.4232407E-1,1.9661247E0,0E0,0E0,4.166312E0,4.268217E0,4.6175594E0,4.0097275E0,4.059656E0,4.895084E0,9.2494774E-1,4.8097485E-1,3.139959E0,0E0,3.0492337E0,5.353876E0,4.8012743E0,3.3364124E0,2.0218265E0,0E0,1.4734362E0,0E0,0E0,0E0,2.9466698E0,1.0174046E0,0E0,0E0,0E0,0E0,0E0,0E0,0E0,0E0,0E0,0E0,0E0,0E0,0E0,0E0,0E0,0E0,0E0,0E0,0E0,0E0,0E0,0E0,0E0,0E0,0E0,0E0,0E0,0E0,0E0,0E0,0E0,0E0,0E0,0E0,0E0,0E0,0E0,0E0],"parents":[2147483647,0,0,1,1,2,2,3,3,4,4,5,5,6,6,7,7,8,8,9,9,10,10,11,11,12,12,13,13,14,14,15,15,16,16,17,17,19,19,20,20,21,21,22,22,23,23,24,24,25,25,26,26,27,27,28,28,31,31,32,32,33,33,34,34,35,35,36,36,37,37,38,38,39,39,41,41,42,42,43,43,44,44,45,45,47,47,51,51,52,52],"right_children":[2,4,6,8,10,12,14,16,18,20,22,24,26,28,30,32,34,36,-1,38,40,42,44,46,48,50,52,54,56,-1,-1,58,60,62,64,66,68,70,72,74,-1,76,78,80,82,84,-1,86,-1,-1,-1,88,90,-1,-1,-1,-1,-1,-1,-1,-1,-1,-1,-1,-1,-1,-1,-1,-1,-1,-1,-1,-1,-1,-1,-1,-1,-1,-1,-1,-1,-1,-1,-1,-1,-1,-1,-1,-1,-1,-1],"split_conditions":[3.5679615E0,1E0,1E0,1E0,1.3257146E-1,2.3293778E-1,8.406258E0,2.0487635E-1,4E0,2E0,1E0,1E0,3.0655104E-1,1E0,2E0,2E0,3.20333E-1,1.4336628E-1,-1.0654693E-1,1.0725998E-1,1.21251315E-1,1E0,9.198076E-1,4.264814E0,2.0193323E-1,2.7661428E-1,1E0,1E0,3E0,6.496226E-2,-5.4426618E-2,4.698814E-2,1.1433227E-1,2.759121E-1,3.3774602E-1,3.6439985E-2,1.8218574E-1,2.7633008E-1,1E0,2.3811445E0,-1.09410726E-1,1E0,1E0,1E0,5E0,4.9502826E0,1.065583E-1,2E0,-1.1640479E-1,1.479923E-1,5.901826E-2,3E0,3.7353754E-1,1.2183555E-1,4.515904E-2,7.114526E-2,-4.7087677E-2,3.8203117E-2,-4.689024E-2,3.7473865E-2,-1.9396812E-2,-3.976163E-2,8.548802E-2,-9.726923E-2,-7.8342175E-3,6.674852E-2,-6.633937E-2,6.8086736E-2,1.2177076E-2,-1.5901329E-2,-1.0589391E-1,-2.2691986E-2,3.9128754E-2,6.637567E-2,-6.1248805E-2,4.266057E-2,-1.1943682E-2,8.7949656E-2,-7.298646E-2,-5.896926E-2,4.765191E-2,1.1033547E-1,-3.1179205E-2,6.994993E-2,-5.4018557E-2,3.9733645E-2,-4.2989437E-2,-7.376673E-2,5.176061E-2,-7.513354E-3,7.43163E-2],"split_indices":[15,12,4,7,19,19,15,16,5,3,4,5,19,14,3,17,15,15,0,19,19,9,15,16,19,19,5,7,17,0,0,15,19,15,15,16,16,16,3,15,0,2,8,17,17,15,0,17,0,0,0,3,19,0,0,0,0,0,0,0,0,0,0,0,0,0,0,0,0,0,0,0,0,0,0,0,0,0,0,0,0,0,0,0,0,0,0,0,0,0,0],"split_type":[0,0,0,0,0,0,0,0,0,0,0,0,0,0,0,0,0,0,0,0,0,0,0,0,0,0,0,0,0,0,0,0,0,0,0,0,0,0,0,0,0,0,0,0,0,0,0,0,0,0,0,0,0,0,0,0,0,0,0,0,0,0,0,0,0,0,0,0,0,0,0,0,0,0,0,0,0,0,0,0,0,0,0,0,0,0,0,0,0,0,0],"sum_hessian":[7.8112103E2,7.2494055E2,5.6180458E1,5.954225E2,1.2951807E2,3.364814E1,2.2532316E1,5.0173972E2,9.368281E1,2.5081347E1,1.0443672E2,1.5158525E1,1.8489614E1,1.8848425E1,3.6838923E0,1.7378667E2,3.2795303E2,9.199966E1,1.6831509E0,9.524707E0,1.5556639E1,6.068597E1,4.375075E1,5.6541147E0,9.504411E0,4.973511E0,1.3516103E1,1.5137725E1,3.7106998E0,1.7206326E0,1.9632596E0,7.207277E1,1.0171389E2,1.3103636E1,3.148494E2,1.019886E1,8.18008E1,6.35889E0,3.1658165E0,1.3643438E1,1.913201E0,4.8099033E1,1.2586939E1,3.1129063E1,1.2621688E1,3.6837492E0,1.9703658E0,7.3308144E0,2.173596E0,2.4855447E0,2.4879665E0,5.8852167E0,7.630886E0,1.24059925E1,2.7317321E0,1.9796103E0,1.7310895E0,5.5500183E0,6.652275E1,1.4571546E1,8.714235E1,3.3772063E0,9.72643E0,4.106101E0,3.1074332E2,2.1848774E0,8.013983E0,2.0298277E1,6.150252E1,1.9578023E0,4.4010878E0,1.4635565E0,1.7022599E0,1.2189888E1,1.4535501E0,1.3330551E1,3.4768482E1,1.0876565E1,1.7103735E0,4.095911E0,2.7033152E1,1.1133495E1,1.4881921E0,2.4661481E0,1.217601E0,2.4634273E0,4.8673873E0,3.6575782E0,2.2276385E0,1.7278347E0,5.9030514E0],"tree_param":{"num_deleted":"0","num_feature":"22","num_nodes":"91","size_leaf_vector":"1"}},{"base_weights":[-4.0889783E-3,-1.7404446E-1,1.07348755E-1,-8.384841E-2,-4.3894503E-1,3.0446663E-2,3.934398E-1,-2.4909426E-1,2.4880538E-2,-4.8706868E-1,3.3544266E-1,1.3217144E-1,1.8228209E-2,5.529275E-1,3.861705E-2,-3.2550693E-1,5.609132E-1,-1.910643E-1,1.5565369E-1,-5.481479E-1,1.9920388E-1,7.3857653E-1,-5.244551E-2,-2.9205984E-2,3.4868902E-1,8.771124E-1,3.6872554E-1,4.9559623E-1,-1.514774E-1,-1.8835145E-1,-9.035056E-1,1.0428376E0,-2.4444316E-1,-3.006021E-1,4.5966813E-1,2.8261796E-1,-3.090221E-1,-6.337858E-1,-1.9899651E-1,-4.264651E-1,1.0379435E-1,2.0042213E-2,9.741946E-2,-1.920583E-1,6.765659E-2,4.6953037E-1,-1.9927885E-1,-2.6456171E-3,9.4748485E-1,4.1573352E-1,-6.2309492E-2,9.580817E-2,1.455591E-1,-7.171885E-1,1.6674298E-1,-2.637863E-2,7.2183125E-2,-3.347607E-2,-1.3647644E-1,2.2054236E-2,1.2917905E-1,4.403789E-2,-7.107375E-2,-1.5223331E-2,-8.639843E-2,6.970517E-2,-4.850257E-2,1.9086964E-2,1.2044894E-1,-5.239125E-2,-7.1509625E-4,-4.8210833E-2,-1.0158197E-1,4.0910266E-2,-4.944501E-2,-1.02371596E-1,2.6170183E-2,-4.9888995E-2,-5.230578E-3,2.9564396E-2,-6.6562034E-3,2.115627E-2,8.4040076E-2,4.1090245E-3,-9.5935695E-2,1.454238E-1,6.99883E-2,-4.3418165E-2,4.6530753E-2,-6.08639E-2,4.75329E-2,-9.563666E-4,-1.08185135E-1,8.008226E-2,-2.1876095E-2],"categories":[],"categories_nodes":[],"categories_segments":[],"categories_sizes":[],"default_left":[0,0,0,0,0,0,0,0,0,0,0,0,0,0,0,0,0,0,0,0,0,0,0,0,0,0,0,0,0,0,0,0,0,0,0,0,0,0,0,0,0,0,0,0,0,0,0,0,0,0,0,0,0,0,0,0,0,0,0,0,0,0,0,0,0,0,0,0,0,0,0,0,0,0,0,0,0,0,0,0,0,0,0,0,0,0,0,0,0,0,0,0,0,0,0],"id":6,"left_children":[1,3,5,7,9,11,13,15,17,19,21,-1,23,25,27,29,31,33,35,37,39,41,-1,43,45,47,49,51,53,55,57,59,61,63,65,67,69,71,73,75,-1,-1,-1,77,79,81,83,-1,85,87,-1,-1,89,91,93,-1,-1,-1,-1,-1,-1,-1,-1,-1,-1,-1,-1,-1,-1,-1,-1,-1,-1,-1,-1,-1,-1,-1,-1,-1,-1,-1,-1,-1,-1,-1,-1,-1,-1,-1,-1,-1,-1,-1,-1],"loss_changes":[1.4670421E1,7.292305E0,1.0281452E1,4.139837E0,3.058197E0,5.8107724E0,5.5830364E0,5.8394675E0,3.97408E0,3.1918488E0,2.1681218E0,0E0,5.768824E0,3.7521305E0,2.8362896E0,6.500819E0,3.4552863E0,3.9252782E0,5.2521353E0,1.901083E0,3.9816427E0,3.0086708E-1,0E0,5.0952067E0,3.152196E0,1.5513439E0,2.3685713E0,1.41013E0,4.29857E0,4.9467387E0,3.707799E0,8.1004906E-1,1.5574578E0,3.72021E0,2.143392E0,5.629719E0,1.245906E0,2.6385708E0,2.8633873E0,2.1467593E0,0E0,0E0,0E0,5.137621E0,6.2242293E0,3.4714422E0,1.6924593E0,0E0,1.7797565E0,2.0474195E0,0E0,0E0,1.9376448E0,2.1948438E0,4.0051084E0,0E0,0E0,0E0,0E0,0E0,0E0,0E0,0E0,0E0,0E0,0E0,0E0,0E0,0E0,0E0,0E0,0E0,0E0,0E0,0E0,0E0,0E0,0E0,0E0,0E0,0E0,0E0,0E0,0E0,0E0,0E0,0E0,0E0,0E0,0E0,0E0,0E0,0E0,0E0,0E0],"parents":[2147483647,0,0,1,1,2,2,3,3,4,4,5,5,6,6,7,7,8,8,9,9,10,10,12,12,13,13,14,14,15,15,16,16,17,17,18,18,19,19,20,20,21,21,23,23,24,24,25,25,26,26,27,27,28,28,29,29,30,30,31,31,32,32,33,33,34,34,35,35,36,36,37,37,38,38,39,39,43,43,44,44,45,45,46,46,48,48,49,49,52,52,53,53,54,54],"right_children":[2,4,6,8,10,12,14,16,18,20,22,-1,24,26,28,30,32,34,36,38,40,42,-1,44,46,48,50,52,54,56,58,60,62,64,66,68,70,72,74,76,-1,-1,-1,78,80,82,84,-1,86,88,-1,-1,90,92,94,-1,-1,-1,-1,-1,-1,-1,-1,-1,-1,-1,-1,-1,-1,-1,-1,-1,-1,-1,-1,-1,-1,-1,-1,-1,-1,-1,-1,-1,-1,-1,-1,-1,-1,-1,-1,-1,-1,-1,-1],"split_conditions":[2.578731E-1,1E0,1E0,2E0,5E0,3.20333E-1,3E0,4.799706E-1,1.8076062E-1,3E0,2.6406035E-1,1.3217144E-1,3.5679615E0,1E0,1E0,3.2317802E-1,1E0,1E0,1E0,1E0,1E0,1.1804236E-1,-5.244551E-2,1E0,8.406258E0,4.5107248E-1,4E0,4.1733605E-1,9.198076E-1,3.0274597E-1,1.8218574E-1,2E0,2.251165E-1,9.723652E-2,1E0,3E0,3E0,3.466006E-1,8.921688E-2,2E0,1.0379435E-1,2.0042213E-2,9.741946E-2,7.60907E-1,8.132754E-1,2E0,2E0,-2.6456171E-3,8.490636E-1,2.833969E-1,-6.2309492E-2,9.580817E-2,7.047496E-1,5.5272573E-1,7.886091E-1,-2.637863E-2,7.2183125E-2,-3.347607E-2,-1.3647644E-1,2.2054236E-2,1.2917905E-1,4.403789E-2,-7.107375E-2,-1.5223331E-2,-8.639843E-2,6.970517E-2,-4.850257E-2,1.9086964E-2,1.2044894E-1,-5.239125E-2,-7.1509625E-4,-4.8210833E-2,-1.0158197E-1,4.0910266E-2,-4.944501E-2,-1.02371596E-1,2.6170183E-2,-4.9888995E-2,-5.230578E-3,2.9564396E-2,-6.6562034E-3,2.115627E-2,8.4040076E-2,4.1090245E-3,-9.5935695E-2,1.454238E-1,6.99883E-2,-4.3418165E-2,4.6530753E-2,-6.08639E-2,4.75329E-2,-9.563666E-4,-1.08185135E-1,8.008226E-2,-2.1876095E-2],"split_indices":[16,14,9,1,3,15,1,15,15,5,15,0,15,5,2,15,4,12,12,12,4,15,0,5,15,15,2,16,15,15,16,3,16,16,6,5,3,15,16,2,0,0,0,15,15,2,4,0,15,16,0,0,16,15,16,0,0,0,0,0,0,0,0,0,0,0,0,0,0,0,0,0,0,0,0,0,0,0,0,0,0,0,0,0,0,0,0,0,0,0,0,0,0,0,0],"split_type":[0,0,0,0,0,0,0,0,0,0,0,0,0,0,0,0,0,0,0,0,0,0,0,0,0,0,0,0,0,0,0,0,0,0,0,0,0,0,0,0,0,0,0,0,0,0,0,0,0,0,0,0,0,0,0,0,0,0,0,0,0,0,0,0,0,0,0,0,0,0,0,0,0,0,0,0,0,0,0,0,0,0,0,0,0,0,0,0,0,0,0,0,0,0,0],"sum_hessian":[7.7260925E2,3.057473E2,4.6686197E2,2.2906831E2,7.667899E1,3.6882672E2,9.8035255E1,9.039515E1,1.3867317E2,7.254196E1,4.13703E0,2.4526505E0,3.6637405E2,6.724934E1,3.0785923E1,8.314934E1,7.245812E0,5.2130077E1,8.654309E1,6.679811E1,5.7438564E0,2.9126303E0,1.2243999E0,3.211832E2,4.519087E1,2.3003248E1,4.4246086E1,8.572025E0,2.22139E1,6.827418E1,1.4875164E1,4.3486853E0,2.8971267E0,4.507984E1,7.050235E0,6.827891E1,1.8264185E1,5.2986626E1,1.3811483E1,3.5713217E0,2.1725345E0,1.4504374E0,1.4621928E0,1.1942109E2,2.017621E2,3.7143E1,8.047869E0,1.7071996E0,2.129605E1,4.2798462E1,1.4476238E0,2.9445121E0,5.627513E0,7.545774E0,1.4668125E1,6.3704597E1,4.569577E0,7.4342647E0,7.4408994E0,1.448882E0,2.8998034E0,1.1960815E0,1.701045E0,3.6688107E1,8.391737E0,5.843911E0,1.2063236E0,6.3196396E1,5.082511E0,1.0239517E1,8.024667E0,3.9547268E1,1.3439355E1,4.39045E0,9.421033E0,1.6509159E0,1.920406E0,3.6567043E1,8.285405E1,7.431905E1,1.2744305E2,2.2832067E1,1.4310934E1,6.8329406E0,1.2149276E0,5.3904376E0,1.5905611E1,1.9311892E0,4.086727E1,1.4547619E0,4.172751E0,2.91516E0,4.6306143E0,5.1386676E0,9.529457E0],"tree_param":{"num_deleted":"0","num_feature":"22","num_nodes":"95","size_leaf_vector":"1"}},{"base_weights":[1.9355945E-2,-6.820307E-2,1.5620144E-1,-1.02497466E-1,2.2465682E-1,-3.7545707E-2,2.352998E-1,-8.3816946E-2,-5.286898E-1,3.5230997E-1,-6.891067E-1,-7.941879E-2,1.0289383E0,1.9833513E-1,7.750299E-1,-7.1140066E-2,-6.8207157E-1,-8.831966E-1,4.5595133E-1,7.8563315E-1,2.423833E-1,3.836956E-2,-1.0086875E0,3.617343E-1,-1.6686572E-1,1.2759206E-1,3.2414697E-2,6.362141E-1,1.6050029E-1,-3.179353E-2,1.0163058E0,-1.7430584E-1,6.5025524E-4,-1.4745596E-1,-1.1002143E-1,-1.1420225E0,-5.070482E-1,1.0106988E-1,-8.600419E-3,-2.0230649E-2,1.3202171E-1,5.6969363E-2,5.312251E-1,-1.2288324E-1,-3.3215117E-2,7.8955996E-1,-5.256107E-1,-1.0908135E0,-6.0587306E-2,9.2831624E-1,9.1676146E-2,-8.850484E-2,2.3857258E-1,1.4369653E-1,4.704564E-1,-3.828272E-2,-8.4627897E-4,-7.717433E-3,1.640088E-2,5.6362536E-2,-6.189641E-2,-4.649338E-2,-1.3343637E-1,1.028726E-1,-1.06636085E-1,8.738621E-2,-7.266316E-2,5.3391416E-2,-4.784716E-2,-3.562204E-2,2.814712E-2,7.3785804E-2,-1.0160888E-2,9.899663E-2,3.4408488E-3,-1.1311392E-1,1.4051139E-2,-1.284243E-1,-4.0433086E-3,-1.0923561E-2,9.39573E-2,-6.3969395E-3,1.1624439E-1,-4.2272292E-2,4.921485E-2,-3.286986E-2,6.803026E-2,5.711595E-2,1.5119343E-2,8.9364134E-2,-4.3003704E-2],"categories":[],"categories_nodes":[],"categories_segments":[],"categories_sizes":[],"default_left":[0,0,0,0,0,0,0,0,0,0,0,0,0,0,0,0,0,0,0,0,0,0,0,0,0,0,0,0,0,0,0,0,0,0,0,0,0,0,0,0,0,0,0,0,0,0,0,0,0,0,0,0,0,0,0,0,0,0,0,0,0,0,0,0,0,0,0,0,0,0,0,0,0,0,0,0,0,0,0,0,0,0,0,0,0,0,0,0,0,0,0],"id":7,"left_children":[1,3,5,7,9,11,13,15,17,19,21,23,25,27,29,31,33,35,37,39,41,-1,43,45,47,-1,-1,49,51,-1,53,55,57,59,-1,61,63,-1,65,67,-1,69,71,-1,-1,73,75,77,79,81,83,85,87,-1,89,-1,-1,-1,-1,-1,-1,-1,-1,-1,-1,-1,-1,-1,-1,-1,-1,-1,-1,-1,-1,-1,-1,-1,-1,-1,-1,-1,-1,-1,-1,-1,-1,-1,-1,-1,-1],"loss_changes":[9.399115E0,4.8289547E0,4.6987667E0,3.3714805E0,6.130323E0,4.082132E0,4.184594E0,3.0776935E0,6.62551E0,1.9506602E0,2.6241865E0,3.4214234E0,1.8799853E-1,3.2917356E0,3.9079437E0,2.9980009E0,1.7238181E0,7.302351E-1,1.3948706E0,3.7528176E0,1.9673302E0,0E0,3.8166857E-1,6.006505E0,7.1410937E0,0E0,0E0,2.4527564E0,3.7128406E0,0E0,1.9356394E0,5.7406754E0,3.0597658E0,1.9775085E0,0E0,3.1312275E-1,7.3506284E0,0E0,3.1181746E0,1.3814753E0,0E0,2.3114474E0,1.966147E0,0E0,0E0,1.5303402E0,2.3336933E0,1.4744749E0,3.3569183E0,2.4614944E0,1.5841732E0,8.728778E0,4.122916E0,0E0,2.837337E0,0E0,0E0,0E0,0E0,0E0,0E0,0E0,0E0,0E0,0E0,0E0,0E0,0E0,0E0,0E0,0E0,0E0,0E0,0E0,0E0,0E0,0E0,0E0,0E0,0E0,0E0,0E0,0E0,0E0,0E0,0E0,0E0,0E0,0E0,0E0,0E0],"parents":[2147483647,0,0,1,1,2,2,3,3,4,4,5,5,6,6,7,7,8,8,9,9,10,10,11,11,12,12,13,13,14,14,15,15,16,16,17,17,18,18,19,19,20,20,22,22,23,23,24,24,27,27,28,28,30,30,31,31,32,32,33,33,35,35,36,36,38,38,39,39,41,41,42,42,45,45,46,46,47,47,48,48,49,49,50,50,51,51,52,52,54,54],"right_children":[2,4,6,8,10,12,14,16,18,20,22,24,26,28,30,32,34,36,38,40,42,-1,44,46,48,-1,-1,50,52,-1,54,56,58,60,-1,62,64,-1,66,68,-1,70,72,-1,-1,74,76,78,80,82,84,86,88,-1,90,-1,-1,-1,-1,-1,-1,-1,-1,-1,-1,-1,-1,-1,-1,-1,-1,-1,-1,-1,-1,-1,-1,-1,-1,-1,-1,-1,-1,-1,-1,-1,-1,-1,-1,-1,-1],"split_conditions":[1E0,1.7256154E0,1.8683761E-1,2E0,1.5E1,4E0,4E0,2.8937051E0,7.5462836E-1,1.9451631E0,1E0,4.8045866E-2,1.7213747E-1,8E0,1.2E1,2E0,2E0,2.0487635E-1,1E0,2.8937051E0,3.6726341E0,3.836956E-2,4.1199007E0,3E0,1.09315716E-1,1.2759206E-1,3.2414697E-2,2.9481876E-1,1.5567152E-1,-3.179353E-2,3E0,4.5107248E-1,3.4640285E-1,1.5190346E0,-1.1002143E-1,8.340229E-2,4.799706E-1,1.0106988E-1,2.27421E-1,2.080095E-1,1.3202171E-1,2E0,2E0,-1.2288324E-1,-3.3215117E-2,8.847757E-2,1.4E1,4E0,1.9E1,2.4605016E-1,4.4194245E-1,2.0917747E0,4.7644132E-1,1.4369653E-1,8.490636E-1,-3.828272E-2,-8.4627897E-4,-7.717433E-3,1.640088E-2,5.6362536E-2,-6.189641E-2,-4.649338E-2,-1.3343637E-1,1.028726E-1,-1.06636085E-1,8.738621E-2,-7.266316E-2,5.3391416E-2,-4.784716E-2,-3.562204E-2,2.814712E-2,7.3785804E-2,-1.0160888E-2,9.899663E-2,3.4408488E-3,-1.1311392E-1,1.4051139E-2,-1.284243E-1,-4.0433086E-3,-1.0923561E-2,9.39573E-2,-6.3969395E-3,1.1624439E-1,-4.2272292E-2,4.921485E-2,-3.286986E-2,6.803026E-2,5.711595E-2,1.5119343E-2,8.9364134E-2,-4.3003704E-2],"split_indices":[4,16,16,6,0,5,2,15,16,16,5,16,15,0,0,1,1,16,1,15,16,0,15,1,15,0,0,19,19,0,3,15,19,16,0,16,15,0,19,19,0,1,5,0,0,15,0,3,0,16,19,15,15,0,15,0,0,0,0,0,0,0,0,0,0,0,0,0,0,0,0,0,0,0,0,0,0,0,0,0,0,0,0,0,0,0,0,0,0,0,0],"split_type":[0,0,0,0,0,0,0,0,0,0,0,0,0,0,0,0,0,0,0,0,0,0,0,0,0,0,0,0,0,0,0,0,0,0,0,0,0,0,0,0,0,0,0,0,0,0,0,0,0,0,0,0,0,0,0,0,0,0,0,0,0,0,0,0,0,0,0,0,0,0,0,0,0,0,0,0,0,0,0,0,0,0,0,0,0,0,0,0,0,0,0],"sum_hessian":[7.825433E2,4.7751343E2,3.0502988E2,4.2803928E2,4.9474125E1,8.8580956E1,2.1644893E2,4.1121204E2,1.6827253E1,4.3948887E1,5.525237E0,8.6124985E1,2.4559708E0,2.0385492E2,1.2594004E1,4.0377505E2,7.4369864E0,1.2448401E1,4.378852E0,7.64924E0,3.629965E1,1.2221094E0,4.303128E0,1.3728864E1,7.239612E1,1.2185857E0,1.237385E0,1.4955293E1,1.8889963E2,2.2199664E0,1.0374037E1,1.6509642E2,2.3867863E2,3.8575573E0,3.5794291E0,6.16808E0,6.2803216E0,1.4598819E0,2.91897E0,3.4343104E0,4.2149296E0,2.2837187E1,1.3462462E1,2.63073E0,1.6723977E0,9.337209E0,4.3916545E0,6.5127535E0,6.588337E1,9.27513E0,5.680162E0,4.505782E1,1.4384181E2,4.9368873E0,5.43715E0,7.255795E1,9.253847E1,1.6201953E2,7.66591E1,1.4601454E0,2.397412E0,2.1205287E0,4.047551E0,1.4525651E0,4.8277564E0,1.2121763E0,1.7067938E0,1.4797407E0,1.9545698E0,7.8333654E0,1.500382E1,1.0023599E1,3.4388635E0,7.133208E0,2.2040014E0,1.9347776E0,2.4568768E0,5.31191E0,1.2008431E0,6.3676872E1,2.2064934E0,1.9094077E0,7.3657227E0,2.4620917E0,3.2180705E0,3.476794E1,1.0289877E1,2.8776127E1,1.1506568E2,3.7040496E0,1.7331004E0],"tree_param":{"num_deleted":"0","num_feature":"22","num_nodes":"91","size_leaf_vector":"1"}},{"base_weights":[2.8974462E-2,-3.468289E-2,2.4735984E-1,-7.6948196E-2,2.0259485E-1,1.168657E-1,4.4518775E-1,-1.2794398E-1,1.3817677E-1,3.34182E-1,-1.3929343E-1,8.7291783E-1,7.437397E-2,2.77266E-1,6.896555E-1,-2.5283512E-1,-4.127781E-2,6.797265E-1,5.0867826E-2,2.4005993E-1,1.2209855E0,-2.9575723E-1,4.8579523E-1,-5.298532E-2,1.5908805E-1,-2.8023317E-1,1.7004001E-1,-6.793625E-1,3.7131673E-1,8.035519E-1,-9.2763476E-2,-3.50757E-1,6.841749E-2,6.911886E-2,-2.15848E-1,1.1131959E0,8.265891E-2,-4.293607E-1,1.470088E-1,-4.188794E-1,3.1553525E-1,1.370825E-1,3.4276936E-2,-1.2269405E-1,-8.3191496E-1,1.0111661E0,-6.102526E-2,-1.8352745E-3,-6.354057E-3,-6.5071976E-1,4.247778E-1,7.294241E-2,5.839508E-1,-8.5856825E-2,-1.3855857E-2,9.6543443E-1,2.0549314E-1,5.5989216E-4,8.552978E-1,5.245733E-2,-6.920089E-2,-2.8188199E-2,-8.630737E-2,2.4841035E-2,-9.8662354E-2,-3.199079E-2,2.3066366E-2,-7.280802E-2,-7.783394E-3,3.1151308E-2,1.3726903E-1,5.769213E-2,-5.8929212E-2,-1.3462578E-2,-1.22281626E-1,1.1581055E-1,6.9645606E-3,5.528754E-2,-7.907211E-2,-4.097261E-2,4.130989E-2,-5.938021E-2,1.6224032E-2,-2.3207331E-2,-1.1874658E-1,1.1981241E-1,3.1137167E-2,-1.03063025E-1,8.111188E-3,8.2767114E-2,-7.1377486E-2,-1.2067029E-2,3.4494456E-2,8.1227385E-2,-5.5592366E-2,1.6092348E-1,3.1766087E-2,-1.8351333E-4,9.6188515E-2,3.5541993E-2,1.02757476E-1],"categories":[],"categories_nodes":[],"categories_segments":[],"categories_sizes":[],"default_left":[0,0,0,0,0,0,0,0,0,0,0,0,0,0,0,0,0,0,0,0,0,0,0,0,0,0,0,0,0,0,0,0,0,0,0,0,0,0,0,0,0,0,0,0,0,0,0,0,0,0,0,0,0,0,0,0,0,0,0,0,0,0,0,0,0,0,0,0,0,0,0,0,0,0,0,0,0,0,0,0,0,0,0,0,0,0,0,0,0,0,0,0,0,0,0,0,0,0,0,0,0],"id":8,"left_children":[1,3,5,7,9,11,13,15,17,19,21,23,25,27,29,31,33,35,37,39,41,43,45,47,-1,49,51,53,55,57,59,61,63,65,67,69,71,73,75,77,79,-1,-1,81,83,85,-1,-1,-1,87,89,91,93,-1,-1,95,97,-1,99,-1,-1,-1,-1,-1,-1,-1,-1,-1,-1,-1,-1,-1,-1,-1,-1,-1,-1,-1,-1,-1,-1,-1,-1,-1,-1,-1,-1,-1,-1,-1,-1,-1,-1,-1,-1,-1,-1,-1,-1,-1,-1],"loss_changes":[1.0872573E1,6.0926843E0,4.5044813E0,5.668349E0,4.180744E0,3.395265E0,2.6740417E0,4.501983E0,4.6550436E0,5.2700334E0,2.710549E0,3.832305E0,3.544141E0,4.125395E0,2.54733E0,5.390355E0,4.7810025E0,3.4509735E0,4.0565295E0,3.1907737E0,3.394766E-1,1.9033372E0,3.8604932E0,8.7792985E-5,0E0,6.0948E0,3.2446413E0,2.8874576E-1,3.7267523E0,9.996424E-1,1.9990674E0,4.3757057E0,7.9716716E0,9.642419E0,6.7335753E0,1.2056799E0,2.6111302E0,3.2690568E0,5.614787E0,2.8761797E0,4.1140604E0,0E0,0E0,2.4470148E0,8.1230354E-1,1.7432642E-1,0E0,0E0,0E0,4.253287E0,4.388296E0,3.5908005E0,4.4592648E0,0E0,0E0,3.001617E0,5.0856533E0,0E0,1.6015129E0,0E0,0E0,0E0,0E0,0E0,0E0,0E0,0E0,0E0,0E0,0E0,0E0,0E0,0E0,0E0,0E0,0E0,0E0,0E0,0E0,0E0,0E0,0E0,0E0,0E0,0E0,0E0,0E0,0E0,0E0,0E0,0E0,0E0,0E0,0E0,0E0,0E0,0E0,0E0,0E0,0E0,0E0],"parents":[2147483647,0,0,1,1,2,2,3,3,4,4,5,5,6,6,7,7,8,8,9,9,10,10,11,11,12,12,13,13,14,14,15,15,16,16,17,17,18,18,19,19,20,20,21,21,22,22,23,23,25,25,26,26,27,27,28,28,29,29,30,30,31,31,32,32,33,33,34,34,35,35,36,36,37,37,38,38,39,39,40,40,43,43,44,44,45,45,49,49,50,50,51,51,52,52,55,55,56,56,58,58],"right_children":[2,4,6,8,10,12,14,16,18,20,22,24,26,28,30,32,34,36,38,40,42,44,46,48,-1,50,52,54,56,58,60,62,64,66,68,70,72,74,76,78,80,-1,-1,82,84,86,-1,-1,-1,88,90,92,94,-1,-1,96,98,-1,100,-1,-1,-1,-1,-1,-1,-1,-1,-1,-1,-1,-1,-1,-1,-1,-1,-1,-1,-1,-1,-1,-1,-1,-1,-1,-1,-1,-1,-1,-1,-1,-1,-1,-1,-1,-1,-1,-1,-1,-1,-1,-1],"split_conditions":[9.014718E-1,1E0,1E0,1E0,2E0,9.5666796E-1,3.1164942E0,2E0,8.007753E-2,1E0,3E0,1.3E1,1.8508393E0,1E-1,5.304793E0,4.6314403E-1,3.4116146E-1,1.3E1,1.3683258E-1,1.1300751E-1,4E-1,1.5E1,3E0,1.3204694E0,1.5908805E-1,2E0,1E0,1.3383089E0,1E1,1.4840591E0,1E0,7.3036224E-1,1.5606449E0,1.7557216E-1,1E1,8.3901264E-2,2E0,3E0,1.5660119E-1,5.258889E-2,1E0,1.370825E-1,3.4276936E-2,2E-1,3.2317802E-1,1.6E1,-6.102526E-2,-1.8352745E-3,-6.354057E-3,1E0,4E-1,2E0,3E0,-8.5856825E-2,-1.3855857E-2,1.8198094E0,1.6E1,5.5989216E-4,1E1,5.245733E-2,-6.920089E-2,-2.8188199E-2,-8.630737E-2,2.4841035E-2,-9.8662354E-2,-3.199079E-2,2.3066366E-2,-7.280802E-2,-7.783394E-3,3.1151308E-2,1.3726903E-1,5.769213E-2,-5.8929212E-2,-1.3462578E-2,-1.22281626E-1,1.1581055E-1,6.9645606E-3,5.528754E-2,-7.907211E-2,-4.097261E-2,4.130989E-2,-5.938021E-2,1.6224032E-2,-2.3207331E-2,-1.1874658E-1,1.1981241E-1,3.1137167E-2,-1.03063025E-1,8.111188E-3,8.2767114E-2,-7.1377486E-2,-1.2067029E-2,3.4494456E-2,8.1227385E-2,-5.5592366E-2,1.6092348E-1,3.1766087E-2,-1.8351333E-4,9.6188515E-2,3.5541993E-2,1.02757476E-1],"split_indices":[16,7,18,12,5,16,15,1,16,13,2,0,15,20,16,16,16,0,16,15,20,0,5,15,0,5,9,16,0,16,5,15,15,15,0,15,2,2,16,15,1,0,0,20,15,0,0,0,0,6,20,2,5,0,0,15,0,0,0,0,0,0,0,0,0,0,0,0,0,0,0,0,0,0,0,0,0,0,0,0,0,0,0,0,0,0,0,0,0,0,0,0,0,0,0,0,0,0,0,0,0],"split_type":[0,0,0,0,0,0,0,0,0,0,0,0,0,0,0,0,0,0,0,0,0,0,0,0,0,0,0,0,0,0,0,0,0,0,0,0,0,0,0,0,0,0,0,0,0,0,0,0,0,0,0,0,0,0,0,0,0,0,0,0,0,0,0,0,0,0,0,0,0,0,0,0,0,0,0,0,0,0,0,0,0,0,0,0,0,0,0,0,0,0,0,0,0,0,0,0,0,0,0,0,0],"sum_hessian":[7.804791E2,6.0497546E2,1.7550366E2,5.140802E2,9.089529E1,1.0670686E2,6.87968E1,4.158964E2,9.8183784E1,6.565016E1,2.5245125E1,4.638109E0,1.02068756E2,4.204843E1,2.6748365E1,1.6958986E2,2.4630653E2,1.2689505E1,8.549428E1,6.0499653E1,5.1505084E0,2.061253E1,4.632596E0,2.4302266E0,2.2078826E0,2.1275856E1,8.07929E1,3.206853E0,3.884158E1,2.3325823E1,3.4225419E0,1.2990219E2,3.9687675E1,1.5125699E2,9.504954E1,6.851149E0,5.8383555E0,1.3682688E1,7.181159E1,5.7499213E0,5.474973E1,3.9206553E0,1.2298534E0,1.6511665E1,4.1008635E0,3.183896E0,1.4487E0,1.2073966E0,1.22283E0,1.3997245E1,7.27861E0,6.639403E1,1.43988695E1,1.9673545E0,1.2394984E0,7.423257E0,3.1418322E1,1.4880099E0,2.1837814E1,1.7472018E0,1.67534E0,1.15874435E2,1.4027758E1,3.455675E1,5.130926E0,4.4093124E1,1.0716387E2,1.9266712E1,7.578283E1,2.2134306E0,4.6377187E0,3.4454403E0,2.392915E0,1.0829617E1,2.853071E0,4.11116E0,6.770043E1,1.4565586E0,4.2933626E0,6.1123824E0,4.863735E1,5.814321E0,1.0697345E1,2.1412034E0,1.9596599E0,1.9506493E0,1.2332467E0,8.945266E0,5.0519795E0,5.577855E0,1.700755E0,3.9110973E1,2.7283058E1,1.2235445E1,2.1634247E0,2.9786358E0,4.444621E0,2.544216E1,5.9761634E0,6.3822346E0,1.5455579E1],"tree_param":{"num_deleted":"0","num_feature":"22","num_nodes":"101","size_leaf_vector":"1"}},{"base_weights":[-3.3646496E-3,-4.2879645E-2,2.2113483E-1,-1.2775865E-1,7.6342575E-2,1.2798141E-1,6.0858583E-1,-2.6284757E-1,-3.408064E-2,1.3137028E-2,4.6920392E-1,-3.8104665E-1,1.9924198E-1,1.0734704E-1,1.034242E0,-1.7691676E-1,-5.564953E-1,4.913603E-2,-4.2610338E-1,4.120556E-2,-9.371217E-1,2.1055812E-1,7.530685E-1,6.9796644E-2,-7.32889E-1,-4.7851965E-1,2.9261366E-1,5.875602E-1,-4.388281E-1,-2.113338E-2,1.2261851E0,-2.9707596E-1,4.3902805E-1,-6.457043E-1,7.4960105E-2,1.7588234E-2,7.815942E-1,-6.2874484E-1,-7.067576E-2,1.1499308E-1,-2.6683944E-1,-1.0719969E-1,-2.5675965E-2,2.1466408E-2,1.3632517E-1,9.701583E-1,-4.260301E-1,-6.367474E-2,-1.358129E-1,2.9008573E-2,-7.1795595E-1,1.6612323E-1,2.1226935E-1,1.0450565E-1,1.4798544E-1,-8.6235017E-1,3.784629E-2,1.3323471E-1,2.4290014E-2,-3.745396E-2,1.0356642E-2,1.053529E-1,1.4344527E-2,-4.5743942E-2,-1.14524774E-1,2.840975E-2,-4.6927906E-3,1.0174652E-1,-1.54774105E-2,-9.143854E-2,-2.1477124E-2,3.1504888E-2,-4.674906E-2,-1.5238057E-2,2.289479E-2,8.693004E-2,-4.5769434E-2,-3.459006E-2,8.6110726E-2,1.2005406E-1,-6.766767E-4,-7.2504515E-3,-5.856018E-2,-4.3134816E-2,5.8671623E-2,1.2280794E-2,-9.441728E-2,9.212694E-2,1.0333643E-2,-3.970422E-2,6.357464E-2,-2.2348935E-2,-1.12108566E-1],"categories":[],"categories_nodes":[],"categories_segments":[],"categories_sizes":[],"default_left":[0,0,0,0,0,0,0,0,0,0,0,0,0,0,0,0,0,0,0,0,0,0,0,0,0,0,0,0,0,0,0,0,0,0,0,0,0,0,0,0,0,0,0,0,0,0,0,0,0,0,0,0,0,0,0,0,0,0,0,0,0,0,0,0,0,0,0,0,0,0,0,0,0,0,0,0,0,0,0,0,0,0,0,0,0,0,0,0,0,0,0,0,0],"id":9,"left_children":[1,3,5,7,9,11,13,15,17,19,21,23,25,27,29,31,33,35,37,39,41,43,45,-1,47,49,51,53,55,-1,57,59,61,63,-1,65,67,69,71,73,75,-1,-1,77,-1,79,81,83,-1,-1,85,-1,87,-1,89,91,-1,-1,-1,-1,-1,-1,-1,-1,-1,-1,-1,-1,-1,-1,-1,-1,-1,-1,-1,-1,-1,-1,-1,-1,-1,-1,-1,-1,-1,-1,-1,-1,-1,-1,-1,-1,-1],"loss_changes":[6.8508E0,6.6542473E0,4.093907E0,4.8494806E0,6.7897525E0,3.501937E0,4.6120977E0,3.8647604E0,7.4542584E0,6.354247E0,2.6241388E0,5.045184E0,5.424677E0,3.2168603E0,3.0935268E0,9.2317505E0,4.572605E0,4.3501935E0,2.8366923E0,5.280151E0,3.5201406E-1,4.5958433E0,4.9392414E0,0E0,3.8856716E0,2.1389186E0,7.7862763E0,1.1386495E0,2.3515964E0,0E0,7.640362E-1,3.2507744E0,3.5682538E0,2.6157799E0,0E0,3.1440263E0,1.8747387E0,2.8012238E0,2.5429802E0,5.7330713E0,1.01406765E1,0E0,0E0,6.234144E0,0E0,3.4375334E0,1.5183252E-1,1.6004783E0,0E0,0E0,1.6920509E0,0E0,5.3929157E0,0E0,1.4340149E0,4.3688798E-1,0E0,0E0,0E0,0E0,0E0,0E0,0E0,0E0,0E0,0E0,0E0,0E0,0E0,0E0,0E0,0E0,0E0,0E0,0E0,0E0,0E0,0E0,0E0,0E0,0E0,0E0,0E0,0E0,0E0,0E0,0E0,0E0,0E0,0E0,0E0,0E0,0E0],"parents":[2147483647,0,0,1,1,2,2,3,3,4,4,5,5,6,6,7,7,8,8,9,9,10,10,11,11,12,12,13,13,14,14,15,15,16,16,17,17,18,18,19,19,20,20,21,21,22,22,24,24,25,25,26,26,27,27,28,28,30,30,31,31,32,32,33,33,35,35,36,36,37,37,38,38,39,39,40,40,43,43,45,45,46,46,47,47,50,50,52,52,54,54,55,55],"right_children":[2,4,6,8,10,12,14,16,18,20,22,24,26,28,30,32,34,36,38,40,42,44,46,-1,48,50,52,54,56,-1,58,60,62,64,-1,66,68,70,72,74,76,-1,-1,78,-1,80,82,84,-1,-1,86,-1,88,-1,90,92,-1,-1,-1,-1,-1,-1,-1,-1,-1,-1,-1,-1,-1,-1,-1,-1,-1,-1,-1,-1,-1,-1,-1,-1,-1,-1,-1,-1,-1,-1,-1,-1,-1,-1,-1,-1,-1],"split_conditions":[1E0,4.6314403E-1,4.2174464E-1,2E0,4E0,1E0,2E0,5.731664E-1,4.5043206E-1,6E0,3.0957565E-1,1.3944489E-1,1.4630905E-1,1.1E1,7.514506E-2,4.5107248E-1,1.1135837E0,4.1830453E-1,1E0,4.1060185E-1,1.4840591E0,4E0,1E0,6.9796644E-2,8.132754E-1,3.6439985E-2,1.9221647E-1,1E0,4E0,-2.113338E-2,2E0,1E0,4.799706E-1,4.1227075E-1,7.4960105E-2,1.1433227E-1,4.625225E-1,5.324207E-1,3.6122593E-1,1.4503802E-1,8.2801557E-1,-1.0719969E-1,-2.5675965E-2,1E0,1.3632517E-1,5.17208E-1,3.7553978E-1,5.86818E-1,-1.358129E-1,2.9008573E-2,1.2337487E-1,1.6612323E-1,8E0,1.0450565E-1,1E0,1.2E1,3.784629E-2,1.3323471E-1,2.4290014E-2,-3.745396E-2,1.0356642E-2,1.053529E-1,1.4344527E-2,-4.5743942E-2,-1.14524774E-1,2.840975E-2,-4.6927906E-3,1.0174652E-1,-1.54774105E-2,-9.143854E-2,-2.1477124E-2,3.1504888E-2,-4.674906E-2,-1.5238057E-2,2.289479E-2,8.693004E-2,-4.5769434E-2,-3.459006E-2,8.6110726E-2,1.2005406E-1,-6.766767E-4,-7.2504515E-3,-5.856018E-2,-4.3134816E-2,5.8671623E-2,1.2280794E-2,-9.441728E-2,9.212694E-2,1.0333643E-2,-3.970422E-2,6.357464E-2,-2.2348935E-2,-1.12108566E-1],"split_indices":[7,16,19,1,3,1,3,15,19,1,19,19,15,0,16,15,15,19,4,19,16,1,10,0,15,16,15,5,1,0,4,12,15,16,0,19,15,19,15,19,15,0,0,9,0,19,19,15,0,0,19,0,0,0,4,0,0,0,0,0,0,0,0,0,0,0,0,0,0,0,0,0,0,0,0,0,0,0,0,0,0,0,0,0,0,0,0,0,0,0,0,0,0],"split_type":[0,0,0,0,0,0,0,0,0,0,0,0,0,0,0,0,0,0,0,0,0,0,0,0,0,0,0,0,0,0,0,0,0,0,0,0,0,0,0,0,0,0,0,0,0,0,0,0,0,0,0,0,0,0,0,0,0,0,0,0,0,0,0,0,0,0,0,0,0,0,0,0,0,0,0,0,0,0,0,0,0,0,0,0,0,0,0,0,0,0,0,0,0],"sum_hessian":[7.701919E2,6.5560535E2,1.14586555E2,3.8291876E2,2.7268658E2,9.344922E1,2.1137337E1,1.5606232E2,2.2685645E2,2.3578561E2,3.690096E1,1.0941898E1,8.2507324E1,1.0281901E1,1.0855436E1,1.21971886E2,3.4090435E1,1.8785431E2,3.9002136E1,2.2995003E2,5.8355756E0,2.0219517E1,1.6681444E1,2.4486742E0,8.493224E0,9.490834E0,7.301649E1,5.431019E0,4.8508825E0,1.43597E0,9.419466E0,1.0249478E2,1.9477104E1,3.238415E1,1.7062807E0,1.8107906E2,6.7752657E0,2.4350245E1,1.465189E1,1.8601875E2,4.3931282E1,4.389727E0,1.4458485E0,1.8245146E1,1.974372E0,1.4237338E1,2.4441051E0,4.634554E0,3.8586702E0,2.2040765E0,7.286758E0,2.957682E0,7.005881E1,1.9863051E0,3.4447136E0,3.1588347E0,1.6920477E0,8.181176E0,1.2382901E0,8.594297E1,1.6551805E1,5.493067E0,1.3984037E1,2.4911406E1,7.472747E0,3.4628582E1,1.4645047E2,5.3428063E0,1.4324595E0,1.3693187E1,1.0657059E1,7.5342565E0,7.1176333E0,5.5488396E1,1.3053035E2,5.8071485E0,3.8124134E1,1.3101082E1,5.144063E0,1.1335306E1,2.9020324E0,1.2124139E0,1.2316914E0,3.1759434E0,1.4586105E0,1.6418253E0,5.6449327E0,8.337325E0,6.172148E1,1.7146932E0,1.7300204E0,1.4477861E0,1.7110486E0],"tree_param":{"num_deleted":"0","num_feature":"22","num_nodes":"93","size_leaf_vector":"1"}},{"base_weights":[2.3014085E-2,-1.684004E-2,2.364792E-1,-7.485238E-2,1.8351476E-1,2.9744172E-1,-2.0851941E-1,-3.9176032E-1,-4.9479306E-2,1.5437092E-1,7.9223543E-1,-6.698934E-1,3.3699852E-1,2.311356E-1,-7.817165E-1,-4.7354725E-1,5.54266E-1,-2.1033913E-2,-3.3127505E-1,1.8064176E-1,-9.5013805E-2,-1.9798384E-3,1.2245184E-1,3.149592E-2,-1.12844825E-1,-7.185215E-2,3.9338654E-1,5.1841533E-1,-9.404854E-2,-1.0620228E0,2.7179534E-2,1.0125005E-1,-6.1488444E-1,8.8023975E-2,-2.4949748E-3,-3.184765E-2,1.2993467E-1,-5.620708E-1,1.9949622E-1,9.9932544E-2,1.6448987E-1,2.366111E-1,-5.453721E-1,8.3681434E-1,3.191574E-1,1.4078801E-2,9.2962414E-1,-1.2908718E-1,-1.3947809E-2,-2.8732812E-2,1.0527598E-1,-6.935286E-2,3.739915E-2,-9.984383E-3,8.614281E-3,-7.310565E-2,2.9638082E-2,6.1400574E-2,-4.545402E-2,-2.127876E-2,2.105089E-2,-1.8492488E-2,6.425255E-2,-9.509193E-2,-1.7731471E-2,9.562923E-2,-1.3341366E-2,2.1848405E-2,6.77661E-2,5.955499E-2,-5.210618E-2,1.23484254E-1,3.6233556E-2],"categories":[],"categories_nodes":[],"categories_segments":[],"categories_sizes":[],"default_left":[0,0,0,0,0,0,0,0,0,0,0,0,0,0,0,0,0,0,0,0,0,0,0,0,0,0,0,0,0,0,0,0,0,0,0,0,0,0,0,0,0,0,0,0,0,0,0,0,0,0,0,0,0,0,0,0,0,0,0,0,0,0,0,0,0,0,0,0,0,0,0,0,0],"id":10,"left_children":[1,3,5,7,9,11,13,15,17,19,21,23,25,27,29,31,33,35,37,39,-1,-1,-1,-1,-1,41,43,45,-1,47,-1,49,51,-1,-1,53,-1,55,57,-1,59,61,63,65,67,69,71,-1,-1,-1,-1,-1,-1,-1,-1,-1,-1,-1,-1,-1,-1,-1,-1,-1,-1,-1,-1,-1,-1,-1,-1,-1,-1],"loss_changes":[6.513222E0,7.518506E0,3.3293786E0,4.0124397E0,2.4548073E0,4.29488E0,3.9859319E0,3.1271806E0,3.7234836E0,4.2302103E0,2.2691402E0,2.39327E0,2.3989162E0,3.6235232E0,2.2915974E0,2.8746233E0,6.6522276E-1,6.0922904E0,5.3309484E0,1.653328E0,0E0,0E0,0E0,0E0,0E0,2.0729542E0,2.712428E0,1.672359E0,0E0,9.9400663E-1,0E0,3.1460702E0,2.431242E0,0E0,0E0,3.3887992E0,0E0,4.56194E0,3.9793792E0,0E0,2.4060197E0,1.6170919E0,6.60159E-1,1.5607805E0,2.7088509E0,1.7620953E0,3.2506323E-1,0E0,0E0,0E0,0E0,0E0,0E0,0E0,0E0,0E0,0E0,0E0,0E0,0E0,0E0,0E0,0E0,0E0,0E0,0E0,0E0,0E0,0E0,0E0,0E0,0E0,0E0],"parents":[2147483647,0,0,1,1,2,2,3,3,4,4,5,5,6,6,7,7,8,8,9,9,10,10,11,11,12,12,13,13,14,14,15,15,16,16,17,17,18,18,19,19,25,25,26,26,27,27,29,29,31,31,32,32,35,35,37,37,38,38,40,40,41,41,42,42,43,43,44,44,45,45,46,46],"right_children":[2,4,6,8,10,12,14,16,18,20,22,24,26,28,30,32,34,36,38,40,-1,-1,-1,-1,-1,42,44,46,-1,48,-1,50,52,-1,-1,54,-1,56,58,-1,60,62,64,66,68,70,72,-1,-1,-1,-1,-1,-1,-1,-1,-1,-1,-1,-1,-1,-1,-1,-1,-1,-1,-1,-1,-1,-1,-1,-1,-1,-1],"split_conditions":[1E0,9.014718E-1,1.6E1,7E0,1E0,7.515426E-2,1E0,1E0,7.102184E-1,6E0,2E0,2E0,1E0,1E0,1E0,1.0127653E-1,1E0,1.8198094E0,1E0,5E0,-9.5013805E-2,-1.9798384E-3,1.2245184E-1,3.149592E-2,-1.12844825E-1,5.6206053E-1,8E0,1.8E1,-9.404854E-2,8.3758104E-1,2.7179534E-2,9.357637E-2,3E0,8.8023975E-2,-2.4949748E-3,3.083168E-1,1.2993467E-1,4E0,2.5E-1,9.9932544E-2,8E0,2E0,8.23448E-1,4E0,1E0,4E0,4E0,-1.2908718E-1,-1.3947809E-2,-2.8732812E-2,1.0527598E-1,-6.935286E-2,3.739915E-2,-9.984383E-3,8.614281E-3,-7.310565E-2,2.9638082E-2,6.1400574E-2,-4.545402E-2,-2.127876E-2,2.105089E-2,-1.8492488E-2,6.425255E-2,-9.509193E-2,-1.7731471E-2,9.562923E-2,-1.3341366E-2,2.1848405E-2,6.77661E-2,5.955499E-2,-5.210618E-2,1.23484254E-1,3.6233556E-2],"split_indices":[7,16,0,0,11,15,6,11,16,1,3,3,1,9,13,16,3,15,6,0,0,0,0,0,0,16,0,0,0,15,0,16,3,0,0,16,0,3,21,0,0,3,16,1,9,1,3,0,0,0,0,0,0,0,0,0,0,0,0,0,0,0,0,0,0,0,0,0,0,0,0,0,0],"split_type":[0,0,0,0,0,0,0,0,0,0,0,0,0,0,0,0,0,0,0,0,0,0,0,0,0,0,0,0,0,0,0,0,0,0,0,0,0,0,0,0,0,0,0,0,0,0,0,0,0,0,0,0,0,0,0,0,0,0,0,0,0,0,0,0,0,0,0,0,0,0,0,0,0],"sum_hessian":[7.64121E2,6.446798E2,1.1944118E2,5.004127E2,1.442671E2,1.0534152E2,1.4099658E1,3.602485E1,4.6438782E2,1.388719E2,5.3952003E0,3.5124316E0,1.01829094E2,8.317053E0,5.782605E0,3.361791E1,2.4069386E0,4.2278516E2,4.1602684E1,1.3646259E2,2.4093235E0,2.2058194E0,3.1893811E0,1.2153453E0,2.2970862E0,1.2308683E1,8.952041E1,7.127037E0,1.190016E0,4.5609903E0,1.2216145E0,6.6908484E0,2.6927061E1,1.2076064E0,1.199332E0,4.2031866E2,2.4664721E0,2.8953737E1,1.2648948E1,1.4625093E0,1.3500008E2,7.7563252E0,4.552358E0,1.13635845E1,7.815682E1,3.6655617E0,3.4614754E0,3.33456E0,1.2264307E0,5.246364E0,1.4444845E0,2.5220013E1,1.7070482E0,2.6674893E2,1.5356973E2,2.4315622E1,4.6381145E0,7.77964E0,4.8693075E0,1.4282672E1,1.207174E2,4.0720186E0,3.6843066E0,1.4124364E0,3.1399217E0,1.0130443E1,1.2331419E0,6.227771E1,1.5879111E1,1.7026346E0,1.9629271E0,1.4854913E0,1.9759842E0],"tree_param":{"num_deleted":"0","num_feature":"22","num_nodes":"73","size_leaf_vector":"1"}},{"base_weights":[7.3640943E-3,-1.4038017E-1,7.764268E-2,-2.222131E-1,1.20589636E-1,-2.3740092E-2,2.3401439E-1,-1.9227442E-1,-1.0700794E0,4.095884E-1,-2.400074E-1,5.753465E-1,-4.353157E-2,-4.0325534E-1,2.538674E-1,3.8916776E-1,-2.2232905E-1,-1.5239336E-2,-1.3107942E-1,1.7369734E-1,7.486239E-1,-5.211001E-1,2.1752974E-1,9.027222E-1,-1.21605374E-1,-3.7794447E-1,2.2154128E-2,2.4288744E-1,-8.3705135E-2,1.133316E0,2.291655E-1,-1.7240144E-1,1.1557168E0,-3.8919595E-1,-1.1788548E-1,5.8861816E-1,-2.5176886E-1,1.0145197E0,-4.698225E-2,-6.63799E-1,6.1134476E-2,-4.2478624E-1,6.824153E-1,1.5057343E-1,1.4649223E-1,-7.0927165E-2,5.74419E-2,-6.476822E-1,-7.620021E-2,-4.472962E-1,6.1960805E-2,3.95853E-2,-2.0735152E-3,1.361662E-1,2.1897702E-2,7.147974E-1,1.8718946E-1,-5.814094E-2,8.489452E-2,1.4585377E-1,4.456562E-2,-4.2537984E-2,5.6528416E-2,-1.7777348E-2,5.736036E-2,-1.7162537E-2,8.710979E-2,6.5053284E-2,-4.4884957E-2,6.1036674E-3,1.1716279E-1,-2.008422E-2,-9.801819E-2,1.3613175E-2,-1.0291686E-1,1.0266552E-1,-5.039317E-2,5.6821514E-2,-4.7311842E-2,3.878651E-2,-8.5309625E-2,-3.092941E-2,9.2902005E-2,-1.2084483E-2,-1.0464873E-1,1.2894235E-2,-1.9949486E-2,1.0310801E-1,-4.7422876E-3,-5.7908095E-4,3.0439084E-2],"categories":[],"categories_nodes":[],"categories_segments":[],"categories_sizes":[],"default_left":[0,0,0,0,0,0,0,0,0,0,0,0,0,0,0,0,0,0,0,0,0,0,0,0,0,0,0,0,0,0,0,0,0,0,0,0,0,0,0,0,0,0,0,0,0,0,0,0,0,0,0,0,0,0,0,0,0,0,0,0,0,0,0,0,0,0,0,0,0,0,0,0,0,0,0,0,0,0,0,0,0,0,0,0,0,0,0,0,0,0,0],"id":11,"left_children":[1,3,5,7,9,11,13,15,17,19,21,23,25,27,29,31,33,-1,-1,35,37,39,41,43,45,47,49,51,-1,53,55,57,59,61,63,65,67,69,-1,71,-1,73,75,77,-1,-1,-1,79,81,83,85,-1,-1,-1,-1,87,89,-1,-1,-1,-1,-1,-1,-1,-1,-1,-1,-1,-1,-1,-1,-1,-1,-1,-1,-1,-1,-1,-1,-1,-1,-1,-1,-1,-1,-1,-1,-1,-1,-1,-1],"loss_changes":[7.987667E0,5.322903E0,8.268999E0,4.595484E0,6.33522E0,3.785183E0,2.6973963E0,3.3003926E0,1.176889E0,2.5564895E0,3.6188157E0,2.4397962E0,6.77212E0,2.0485377E0,4.0748634E0,4.2468424E0,3.012929E0,0E0,0E0,3.8750768E0,4.8440666E0,3.1817908E0,3.5978684E0,2.7677412E0,2.1028662E0,4.0696626E0,4.854814E0,1.4609851E-1,0E0,7.870507E-1,3.8480082E0,3.1241517E0,2.3277807E-1,2.5589008E0,4.6316E0,2.5091474E0,2.270062E0,1.6335487E0,0E0,2.1079116E0,0E0,1.9259317E0,3.298651E0,1.3465376E0,0E0,0E0,0E0,5.9864607E0,6.149748E0,3.8468475E0,4.2112045E0,0E0,0E0,0E0,0E0,3.7097993E0,4.098836E0,0E0,0E0,0E0,0E0,0E0,0E0,0E0,0E0,0E0,0E0,0E0,0E0,0E0,0E0,0E0,0E0,0E0,0E0,0E0,0E0,0E0,0E0,0E0,0E0,0E0,0E0,0E0,0E0,0E0,0E0,0E0,0E0,0E0,0E0],"parents":[2147483647,0,0,1,1,2,2,3,3,4,4,5,5,6,6,7,7,8,8,9,9,10,10,11,11,12,12,13,13,14,14,15,15,16,16,19,19,20,20,21,21,22,22,23,23,24,24,25,25,26,26,27,27,29,29,30,30,31,31,32,32,33,33,34,34,35,35,36,36,37,37,39,39,41,41,42,42,43,43,47,47,48,48,49,49,50,50,55,55,56,56],"right_children":[2,4,6,8,10,12,14,16,18,20,22,24,26,28,30,32,34,-1,-1,36,38,40,42,44,46,48,50,52,-1,54,56,58,60,62,64,66,68,70,-1,72,-1,74,76,78,-1,-1,-1,80,82,84,86,-1,-1,-1,-1,88,90,-1,-1,-1,-1,-1,-1,-1,-1,-1,-1,-1,-1,-1,-1,-1,-1,-1,-1,-1,-1,-1,-1,-1,-1,-1,-1,-1,-1,-1,-1,-1,-1,-1,-1],"split_conditions":[2.0487635E-1,3.9932236E-1,1E0,3.8111892E-1,5.127332E-1,2.1785942E-1,2.9831296E-1,4.698814E-2,8.3901264E-2,2.2298245E-1,1E0,4.2986235E-1,3.083168E-1,2E0,3.20333E-1,2.0715425E-2,2E0,-1.5239336E-2,-1.3107942E-1,2.5E-1,4.808034E-1,3.7470236E-1,1.1E1,2.804017E-1,5.731664E-1,2.5E-1,7.7699624E-2,2.722561E-1,-8.3705135E-2,1.5E1,8E0,4E0,1E0,3.6460334E-1,3E0,1E0,9E0,1E0,-4.698225E-2,1.06301256E-1,6.1134476E-2,2E0,1E0,3E0,1.4649223E-1,-7.0927165E-2,5.74419E-2,1.0154827E-1,1E0,1.1416609E0,4.1060185E-1,3.95853E-2,-2.0735152E-3,1.361662E-1,2.1897702E-2,3.517312E-1,2E0,-5.814094E-2,8.489452E-2,1.4585377E-1,4.456562E-2,-4.2537984E-2,5.6528416E-2,-1.7777348E-2,5.736036E-2,-1.7162537E-2,8.710979E-2,6.5053284E-2,-4.4884957E-2,6.1036674E-3,1.1716279E-1,-2.008422E-2,-9.801819E-2,1.3613175E-2,-1.0291686E-1,1.0266552E-1,-5.039317E-2,5.6821514E-2,-4.7311842E-2,3.878651E-2,-8.5309625E-2,-3.092941E-2,9.2902005E-2,-1.2084483E-2,-1.0464873E-1,1.2894235E-2,-1.9949486E-2,1.0310801E-1,-4.7422876E-3,-5.7908095E-4,3.0439084E-2],"split_indices":[16,19,18,19,19,16,15,15,15,15,18,15,16,3,15,16,17,0,0,21,19,15,0,15,15,21,19,15,0,0,0,3,14,19,5,5,0,17,0,16,0,3,10,3,0,0,0,19,7,16,19,0,0,0,0,19,3,0,0,0,0,0,0,0,0,0,0,0,0,0,0,0,0,0,0,0,0,0,0,0,0,0,0,0,0,0,0,0,0,0,0],"split_type":[0,0,0,0,0,0,0,0,0,0,0,0,0,0,0,0,0,0,0,0,0,0,0,0,0,0,0,0,0,0,0,0,0,0,0,0,0,0,0,0,0,0,0,0,0,0,0,0,0,0,0,0,0,0,0,0,0,0,0,0,0,0,0,0,0,0,0,0,0,0,0,0,0,0,0,0,0,0,0,0,0,0,0,0,0,0,0,0,0,0,0],"sum_hessian":[7.672336E2,2.4699239E2,5.2024115E2,1.881441E2,5.8848293E1,3.1612888E2,2.0411229E2,1.8291214E2,5.231965E0,3.259185E1,2.6256443E1,9.211997E0,3.069169E2,5.583186E0,1.985291E2,8.402727E0,1.7450941E2,1.4265523E0,3.8054128E0,2.0111311E1,1.2480539E1,1.6178246E1,1.00781975E1,6.0669546E0,3.1450422E0,4.9607254E1,2.5730963E2,2.4194632E0,3.163723E0,4.197787E0,1.9433131E2,5.2971563E0,3.105571E0,6.6129524E1,1.0837988E2,9.987697E0,1.0123613E1,1.0382238E1,2.0983007E0,1.4735293E1,1.4429525E0,4.2677937E0,5.810404E0,3.1373835E0,2.929571E0,1.6949401E0,1.4501021E0,2.5587448E1,2.4019804E1,1.9312746E1,2.3799689E2,1.2136562E0,1.2058071E0,2.9674642E0,1.2303224E0,1.4185608E1,1.801457E2,4.090014E0,1.2071424E0,1.4381409E0,1.6674302E0,6.424824E1,1.8812885E0,1.0042523E2,7.9546466E0,2.8120363E0,7.17566E0,1.402348E0,8.721266E0,1.665131E0,8.717107E0,6.645652E0,8.089642E0,2.6153169E0,1.6524767E0,4.6079364E0,1.2024674E0,1.9323658E0,1.2050178E0,4.08842E0,2.149903E1,2.0060434E1,3.9593697E0,1.3279491E1,6.033254E0,1.8986322E2,4.8133663E1,9.776234E0,4.4093738E0,6.84268E1,1.117189E2],"tree_param":{"num_deleted":"0","num_feature":"22","num_nodes":"91","size_leaf_vector":"1"}},{"base_weights":[-2.7188888E-2,5.080038E-1,-3.778164E-2,6.617985E-1,-5.697608E-2,-6.35752E-2,1.5480469E-1,-1.1617025E-2,8.000063E-1,-1.968807E-1,-3.422964E-2,9.4869025E-3,3.8588566E-1,1.1853409E0,4.2911413E-1,-1.4485846E-1,-8.4886795E-1,-1.3706146E-1,1.8252596E-2,6.708031E-1,-1.0475896E-1,-6.813361E-1,5.0612015E-1,4.959599E-2,1.4519295E-1,-1.8248947E-1,9.620024E-1,-1.7868827E-1,1.1721746E-1,-1.3044459E-1,4.920092E-2,-8.162279E-2,-7.574197E-1,3.434996E-2,-7.289218E-1,-1.2891813E-2,8.507089E-1,-2.1744533E-1,4.094723E-1,2.198884E-2,-1.16774574E-1,6.561413E-1,-3.5031733E-1,4.7005836E-2,-9.164782E-2,-1.2931749E-2,1.4574789E-1,-6.7441673E-3,-5.19209E-2,2.3910267E-2,-1.779501E-2,-9.41375E-2,5.730362E-2,-2.0682304E-3,2.4821494E-2,-9.8545566E-2,3.486171E-2,-1.3017565E-2,1.1906811E-1,-1.6885754E-3,-8.1845514E-2,8.832551E-2,-1.751817E-2,8.35075E-2,-5.3105712E-2,-8.6104564E-2,4.8499253E-2],"categories":[],"categories_nodes":[],"categories_segments":[],"categories_sizes":[],"default_left":[0,0,0,0,0,0,0,0,0,0,0,0,0,0,0,0,0,0,0,0,0,0,0,0,0,0,0,0,0,0,0,0,0,0,0,0,0,0,0,0,0,0,0,0,0,0,0,0,0,0,0,0,0,0,0,0,0,0,0,0,0,0,0,0,0,0,0],"id":12,"left_children":[1,3,5,7,-1,9,11,-1,13,15,17,19,21,23,25,27,29,31,33,35,37,39,41,-1,-1,43,45,47,-1,-1,-1,49,51,53,55,-1,57,59,61,-1,-1,63,65,-1,-1,-1,-1,-1,-1,-1,-1,-1,-1,-1,-1,-1,-1,-1,-1,-1,-1,-1,-1,-1,-1,-1,-1],"loss_changes":[4.4012327E0,2.8751614E0,3.7796154E0,1.5607805E0,0E0,2.6141078E0,3.0160713E0,0E0,1.1662126E0,3.969716E0,2.9723787E0,4.3188343E0,4.7965226E0,2.3192024E-1,2.6325974E0,5.242113E0,5.9629126E0,6.33744E0,4.417852E0,1.3208957E0,2.9176853E0,1.9834957E0,4.3097153E0,0E0,0E0,2.5146377E0,2.4531019E0,4.169592E0,0E0,0E0,0E0,5.3541346E0,4.2456846E0,4.2242775E0,2.4852E0,0E0,2.4906998E0,4.8912945E0,2.6812644E0,0E0,0E0,6.257416E0,2.7149796E0,0E0,0E0,0E0,0E0,0E0,0E0,0E0,0E0,0E0,0E0,0E0,0E0,0E0,0E0,0E0,0E0,0E0,0E0,0E0,0E0,0E0,0E0,0E0,0E0],"parents":[2147483647,0,0,1,1,2,2,3,3,5,5,6,6,8,8,9,9,10,10,11,11,12,12,13,13,14,14,15,15,16,16,17,17,18,18,19,19,20,20,21,21,22,22,25,25,26,26,27,27,31,31,32,32,33,33,34,34,36,36,37,37,38,38,41,41,42,42],"right_children":[2,4,6,8,-1,10,12,-1,14,16,18,20,22,24,26,28,30,32,34,36,38,40,42,-1,-1,44,46,48,-1,-1,-1,50,52,54,56,-1,58,60,62,-1,-1,64,66,-1,-1,-1,-1,-1,-1,-1,-1,-1,-1,-1,-1,-1,-1,-1,-1,-1,-1,-1,-1,-1,-1,-1,-1],"split_conditions":[3.7250835E-2,1E0,1.5432174E0,1.5783591E-2,-5.697608E-2,1.3257146E-1,2.5E-1,-1.1617025E-2,2.7310695E-2,1.122092E0,1.8002571E-1,1.0868583E-1,9.192138E-2,2.4336359E-1,2E0,1.0404941E0,1.1725365E-1,1.6534927E-1,4E0,1.6760268E0,1E0,1E0,5E-1,4.959599E-2,1.4519295E-1,2.5E-1,1E1,1.1433227E-1,1.1721746E-1,-1.3044459E-1,4.920092E-2,1.25E-1,3E0,1E0,4E0,-1.2891813E-2,1E0,3.949399E-1,2.6047227E0,2.198884E-2,-1.16774574E-1,4E0,1.3E1,4.7005836E-2,-9.164782E-2,-1.2931749E-2,1.4574789E-1,-6.7441673E-3,-5.19209E-2,2.3910267E-2,-1.779501E-2,-9.41375E-2,5.730362E-2,-2.0682304E-3,2.4821494E-2,-9.8545566E-2,3.486171E-2,-1.3017565E-2,1.1906811E-1,-1.6885754E-3,-8.1845514E-2,8.832551E-2,-1.751817E-2,8.35075E-2,-5.3105712E-2,-8.6104564E-2,4.8499253E-2],"split_indices":[19,8,16,19,0,19,21,0,19,16,16,19,19,16,1,16,19,16,5,16,7,5,21,0,0,21,0,19,0,0,0,21,5,9,1,0,5,19,16,0,0,1,0,0,0,0,0,0,0,0,0,0,0,0,0,0,0,0,0,0,0,0,0,0,0,0,0],"split_type":[0,0,0,0,0,0,0,0,0,0,0,0,0,0,0,0,0,0,0,0,0,0,0,0,0,0,0,0,0,0,0,0,0,0,0,0,0,0,0,0,0,0,0,0,0,0,0,0,0,0,0,0,0,0,0,0,0,0,0,0,0,0,0,0,0,0,0],"sum_hessian":[7.719605E2,1.40710535E1,7.5788947E2,1.2651644E1,1.41941E0,6.6896344E2,8.892603E1,1.93259E0,1.0719053E1,1.1966458E2,5.492988E2,5.523313E1,3.36929E1,4.18018E0,6.538873E0,1.11953926E2,7.7106557E0,1.8506923E2,3.6422964E2,7.4186187E0,4.7814514E1,2.939011E0,3.075389E1,1.9633852E0,2.216795E0,3.350734E0,3.1881392E0,1.0999293E2,1.9609947E0,5.775526E0,1.9351298E0,1.709259E2,1.4143321E1,3.5748196E2,6.747679E0,1.4144566E0,6.0041623E0,3.9693417E1,8.121096E0,1.2222852E0,1.716726E0,2.6368774E1,4.385116E0,1.964125E0,1.3866088E0,1.2262486E0,1.9618907E0,8.381048E1,2.6182455E1,3.913667E1,1.3178923E2,1.2682253E1,1.4610677E0,2.8503845E2,7.244351E1,5.519167E0,1.2285124E0,1.7042304E0,4.299932E0,3.053264E1,9.160778E0,4.203775E0,3.917321E0,2.3172789E1,3.195985E0,2.7021482E0,1.6829678E0],"tree_param":{"num_deleted":"0","num_feature":"22","num_nodes":"67","size_leaf_vector":"1"}},{"base_weights":[-8.572798E-3,-2.2470731E-2,4.1444686E-1,-7.751188E-2,6.3472085E-2,5.166381E-1,-5.173371E-2,-2.5991845E-1,-4.5402598E-2,-1.5718944E-2,2.0841822E-1,-3.5315645E-1,6.508739E-1,6.868034E-1,-3.2718727E-1,6.597579E-1,-6.7757726E-2,-4.0843554E-2,4.9916077E-1,9.941326E-2,8.6861557E-1,-9.5330656E-2,3.2868795E-2,7.6026094E-1,-2.3448518E-2,-1.7309039E-3,9.2002496E-2,-1.6723484E-1,-7.9372174E-1,9.7447085E-1,-2.5690386E-1,-2.332978E-1,-1.0041807E-2,1.3336157E-3,-5.403902E-1,1.3673656E-1,-4.990729E-2,6.2984586E-2,1.0588801E-1,-1.1187401E-2,1.0560557E0,9.131458E-1,-4.3717396E-2,-2.2385953E-2,9.940248E-2,-2.6828213E-2,-1.043512E-1,1.2362712E-2,1.3021927E-1,3.7958484E-2,-6.857812E-2,-3.3373203E-2,1.8810194E-2,-2.9317424E-2,4.483312E-3,-8.822518E-3,1.5838822E-2,-7.371106E-2,4.4495426E-2,-4.5145597E-2,7.653372E-2,7.107715E-2,4.9957086E-4,1.2326467E-1,2.5072321E-2,2.5281698E-2,1.0091896E-1],"categories":[],"categories_nodes":[],"categories_segments":[],"categories_sizes":[],"default_left":[0,0,0,0,0,0,0,0,0,0,0,0,0,0,0,0,0,0,0,0,0,0,0,0,0,0,0,0,0,0,0,0,0,0,0,0,0,0,0,0,0,0,0,0,0,0,0,0,0,0,0,0,0,0,0,0,0,0,0,0,0,0,0,0,0,0,0],"id":13,"left_children":[1,3,5,7,9,11,-1,13,15,17,19,21,23,25,27,29,31,33,35,37,39,-1,-1,41,-1,-1,-1,43,45,47,49,51,53,55,57,-1,59,61,-1,-1,63,65,-1,-1,-1,-1,-1,-1,-1,-1,-1,-1,-1,-1,-1,-1,-1,-1,-1,-1,-1,-1,-1,-1,-1,-1,-1],"loss_changes":[4.5376754E0,3.5370812E0,2.6051483E0,2.656801E0,3.3557253E0,2.8716207E0,0E0,4.554538E0,6.1712394E0,2.47572E0,7.344811E0,1.8164842E0,2.1106281E0,8.0958176E-1,4.654736E0,3.7223668E0,3.605425E0,3.8332002E0,4.3140397E0,3.0705042E0,2.7837467E0,0E0,0E0,3.6934261E0,0E0,0E0,0E0,3.4473424E0,1.8348637E0,2.3954191E0,1.3160026E0,4.1923785E0,4.3795214E0,2.3873062E0,3.0735893E0,0E0,2.4474492E0,3.28473E0,0E0,0E0,1.4362183E0,7.773943E-1,0E0,0E0,0E0,0E0,0E0,0E0,0E0,0E0,0E0,0E0,0E0,0E0,0E0,0E0,0E0,0E0,0E0,0E0,0E0,0E0,0E0,0E0,0E0,0E0,0E0],"parents":[2147483647,0,0,1,1,2,2,3,3,4,4,5,5,7,7,8,8,9,9,10,10,11,11,12,12,13,13,14,14,15,15,16,16,17,17,18,18,19,19,20,20,23,23,27,27,28,28,29,29,30,30,31,31,32,32,33,33,34,34,36,36,37,37,40,40,41,41],"right_children":[2,4,6,8,10,12,-1,14,16,18,20,22,24,26,28,30,32,34,36,38,40,-1,-1,42,-1,-1,-1,44,46,48,50,52,54,56,58,-1,60,62,-1,-1,64,66,-1,-1,-1,-1,-1,-1,-1,-1,-1,-1,-1,-1,-1,-1,-1,-1,-1,-1,-1,-1,-1,-1,-1,-1,-1],"split_conditions":[5.364556E0,1E0,1.6E1,1.8076062E-1,5.3547835E-1,1E0,-5.173371E-2,6E0,9.4824284E-2,1.9E1,1.6E1,2.1095407E-1,1.2883553E1,1E0,9.102459E-2,3.517312E-1,9E0,1.7E1,2E1,6.607823E-1,6.3829553E-1,-9.5330656E-2,3.2868795E-2,4.808034E-1,-2.3448518E-2,-1.7309039E-3,9.2002496E-2,1.8E1,1.4336628E-1,7.224457E-2,1E0,1E0,1.1926563E-1,3.1579655E-1,6.45772E-1,1.3673656E-1,3.5050836E-1,5.884804E-1,1.0588801E-1,-1.1187401E-2,3E0,1E0,-4.3717396E-2,-2.2385953E-2,9.940248E-2,-2.6828213E-2,-1.043512E-1,1.2362712E-2,1.3021927E-1,3.7958484E-2,-6.857812E-2,-3.3373203E-2,1.8810194E-2,-2.9317424E-2,4.483312E-3,-8.822518E-3,1.5838822E-2,-7.371106E-2,4.4495426E-2,-4.5145597E-2,7.653372E-2,7.107715E-2,4.9957086E-4,1.2326467E-1,2.5072321E-2,2.5281698E-2,1.0091896E-1],"split_indices":[15,4,0,15,16,3,0,0,16,0,0,19,15,3,16,19,0,0,0,19,16,0,0,19,0,0,0,0,15,16,2,7,19,19,15,0,19,16,0,0,5,1,0,0,0,0,0,0,0,0,0,0,0,0,0,0,0,0,0,0,0,0,0,0,0,0,0],"split_type":[0,0,0,0,0,0,0,0,0,0,0,0,0,0,0,0,0,0,0,0,0,0,0,0,0,0,0,0,0,0,0,0,0,0,0,0,0,0,0,0,0,0,0,0,0,0,0,0,0,0,0,0,0,0,0,0,0,0,0,0,0,0,0,0,0,0,0],"sum_hessian":[7.6924774E2,7.4569543E2,2.3552277E1,4.5463043E2,2.9106503E2,2.162603E1,1.9262463E0,6.6988266E1,3.8764215E2,1.8880394E2,1.0226109E2,2.6732924E0,1.8952738E1,3.8330603E0,6.315521E1,1.1035347E1,3.766068E2,1.8089735E2,7.9065824E0,8.875703E1,1.3504064E1,1.2100732E0,1.4632192E0,1.6994364E1,1.9583745E0,1.1840652E0,2.648995E0,4.8042263E1,1.5112943E1,8.168002E0,2.8673446E0,9.657356E1,2.8003326E2,1.6773285E2,1.3164503E1,2.485728E0,5.4208546E0,8.653707E1,2.219961E0,2.2319577E0,1.1272105E1,1.5280776E1,1.713588E0,4.657827E1,1.463996E0,5.5378904E0,9.575052E0,2.654227E0,5.513775E0,1.2005558E0,1.6667889E0,7.8154625E1,1.8418936E1,4.475791E1,2.3527534E2,1.07099E2,6.0633858E1,1.1183655E1,1.9808487E0,3.9309149E0,1.4899396E0,6.1852574E0,8.0351814E1,8.809728E0,2.462378E0,2.4015732E0,1.2879202E1],"tree_param":{"num_deleted":"0","num_feature":"22","num_nodes":"67","size_leaf_vector":"1"}},{"base_weights":[-9.399248E-3,-3.5073005E-2,2.1060826E-1,-7.23386E-2,1.0615193E-1,2.5452518E-1,-5.344517E-1,-1.2616426E-1,1.37806805E-2,-2.0136692E-1,2.3722269E-1,1.9451027E-1,7.802033E-1,-1.0323458E-3,-7.4199915E-1,-1.1100523E-1,-1.0135252E0,5.5604655E-2,-4.3042395E-1,3.0935273E-1,-5.389471E-1,2.8607547E-1,-7.8975E-1,5.7137653E-2,4.2240694E-1,1.0655872E-1,4.392638E-1,-1.694437E-2,-9.7675875E-2,-7.315244E-2,-3.26087E-1,-4.20222E-2,-1.2127662E-1,-1.8034466E-2,4.2781016E-1,-6.9082004E-1,4.7296846E-1,4.3372485E-1,-8.179768E-2,-6.486832E-1,6.7328356E-2,9.620616E-1,2.3277465E-1,-9.4995186E-2,-1.7981468E-2,6.7383075E-1,-5.0763533E-2,-3.8103586E-1,5.581822E-1,-8.500564E-2,1.042495E-1,-5.3883833E-3,-8.0584906E-2,-5.454901E-2,-1.0628173E-3,-8.295536E-3,3.0168539E-2,6.034095E-2,-2.7536789E-2,-1.0559406E-1,-2.5154326E-2,-1.053175E-2,8.427494E-2,-4.5610916E-2,5.789846E-2,4.46815E-3,-8.34808E-2,1.7490257E-3,1.2715086E-1,1.4501809E-2,8.187129E-2,-1.3041357E-2,9.708661E-2,-6.261873E-2,9.165659E-3,3.4885943E-2,-8.528015E-2,1.1949551E-1,2.8804187E-2,-3.6751956E-2,2.7070371E-2],"categories":[],"categories_nodes":[],"categories_segments":[],"categories_sizes":[],"default_left":[0,0,0,0,0,0,0,0,0,0,0,0,0,0,0,0,0,0,0,0,0,0,0,0,0,0,0,0,0,0,0,0,0,0,0,0,0,0,0,0,0,0,0,0,0,0,0,0,0,0,0,0,0,0,0,0,0,0,0,0,0,0,0,0,0,0,0,0,0,0,0,0,0,0,0,0,0,0,0,0,0],"id":14,"left_children":[1,3,5,7,9,11,13,15,17,19,21,23,25,-1,27,29,31,33,35,37,39,41,43,45,47,-1,49,-1,-1,51,53,-1,-1,55,57,59,61,63,-1,65,-1,67,69,-1,-1,71,73,75,77,79,-1,-1,-1,-1,-1,-1,-1,-1,-1,-1,-1,-1,-1,-1,-1,-1,-1,-1,-1,-1,-1,-1,-1,-1,-1,-1,-1,-1,-1,-1,-1],"loss_changes":[4.3402286E0,3.6273782E0,2.763631E0,2.5270407E0,5.8520374E0,2.2620587E0,5.13682E-1,4.3984222E0,3.9335008E0,7.679515E0,5.314571E0,2.1674435E0,2.6243114E-1,0E0,2.9405093E-1,2.66964E0,1.4166164E-1,5.3034725E0,4.6135025E0,2.8751824E0,3.975132E0,3.291037E0,3.0520892E-1,3.0174477E0,3.067603E0,0E0,1.7085719E0,0E0,0E0,3.946552E0,3.400991E0,0E0,0E0,3.392979E0,4.111641E0,2.0683656E0,1.0875897E0,2.4412186E0,0E0,3.250783E0,0E0,1.968514E0,4.5987716E0,0E0,0E0,1.738203E0,3.2605946E0,1.8048935E0,3.5766497E0,4.6780685E-1,0E0,0E0,0E0,0E0,0E0,0E0,0E0,0E0,0E0,0E0,0E0,0E0,0E0,0E0,0E0,0E0,0E0,0E0,0E0,0E0,0E0,0E0,0E0,0E0,0E0,0E0,0E0,0E0,0E0,0E0,0E0],"parents":[2147483647,0,0,1,1,2,2,3,3,4,4,5,5,6,6,7,7,8,8,9,9,10,10,11,11,12,12,14,14,15,15,16,16,17,17,18,18,19,19,20,20,21,21,22,22,23,23,24,24,26,26,29,29,30,30,33,33,34,34,35,35,36,36,37,37,39,39,41,41,42,42,45,45,46,46,47,47,48,48,49,49],"right_children":[2,4,6,8,10,12,14,16,18,20,22,24,26,-1,28,30,32,34,36,38,40,42,44,46,48,-1,50,-1,-1,52,54,-1,-1,56,58,60,62,64,-1,66,-1,68,70,-1,-1,72,74,76,78,80,-1,-1,-1,-1,-1,-1,-1,-1,-1,-1,-1,-1,-1,-1,-1,-1,-1,-1,-1,-1,-1,-1,-1,-1,-1,-1,-1,-1,-1,-1,-1],"split_conditions":[1.7256154E0,1E0,1.7E1,1E0,1.8002571E-1,4E0,3E0,1.6181252E0,5.324207E-1,8.146036E-2,6E0,2E0,2.6047227E0,-1.0323458E-3,2E0,4E0,1.652826E0,1.6E1,1E0,1E0,3E0,2.1142608E-1,2E1,1.0868583E-1,9.192138E-2,1.0655872E-1,4.7484856E0,-1.694437E-2,-9.7675875E-2,4E0,5E0,-4.20222E-2,-1.2127662E-1,3.897776E-1,5E0,2.578731E-1,2E0,2.0715425E-2,-8.179768E-2,1E0,6.7328356E-2,1.5304354E-1,1E0,-9.4995186E-2,-1.7981468E-2,4.2518236E-2,1.7430419E-1,5.0492343E-2,1.8638398E-1,3.636111E-1,1.042495E-1,-5.3883833E-3,-8.0584906E-2,-5.454901E-2,-1.0628173E-3,-8.295536E-3,3.0168539E-2,6.034095E-2,-2.7536789E-2,-1.0559406E-1,-2.5154326E-2,-1.053175E-2,8.427494E-2,-4.5610916E-2,5.789846E-2,4.46815E-3,-8.34808E-2,1.7490257E-3,1.2715086E-1,1.4501809E-2,8.187129E-2,-1.3041357E-2,9.708661E-2,-6.261873E-2,9.165659E-3,3.4885943E-2,-8.528015E-2,1.1949551E-1,2.8804187E-2,-3.6751956E-2,2.7070371E-2],"split_indices":[16,9,0,4,16,3,3,16,19,16,1,2,16,0,2,1,16,0,7,8,5,16,0,19,19,0,16,0,0,5,1,0,0,19,3,16,3,16,0,2,0,19,13,0,0,19,19,19,19,19,0,0,0,0,0,0,0,0,0,0,0,0,0,0,0,0,0,0,0,0,0,0,0,0,0,0,0,0,0,0,0],"split_type":[0,0,0,0,0,0,0,0,0,0,0,0,0,0,0,0,0,0,0,0,0,0,0,0,0,0,0,0,0,0,0,0,0,0,0,0,0,0,0,0,0,0,0,0,0,0,0,0,0,0,0,0,0,0,0,0,0,0,0,0,0,0,0,0,0,0,0,0,0,0,0,0,0,0,0,0,0,0,0,0,0],"sum_hessian":[7.6608936E2,6.867855E2,7.9303795E1,5.437831E2,1.4300247E2,7.551123E1,3.7925615E0,3.3434695E2,2.0943611E2,4.257544E1,1.0042703E2,6.9003365E1,6.5078654E0,1.3735691E0,2.4189923E0,3.2983734E2,4.5096045E0,1.9221317E2,1.722296E1,1.6976135E1,2.5599306E1,9.655536E1,3.8716722E0,4.383252E1,2.5170849E1,2.385574E0,4.122291E0,1.2040962E0,1.2148961E0,2.8161526E2,4.8222076E1,1.9153013E0,2.5943031E0,1.6126015E2,3.0953018E1,1.3552001E1,3.6709578E0,1.5843474E1,1.132661E0,2.390061E1,1.6986966E0,5.8107724E0,9.074459E1,2.6247964E0,1.246876E0,5.7461824E0,3.8086334E1,3.3776145E0,2.1793234E1,2.6651163E0,1.4571748E0,2.754451E2,6.1701713E0,2.801106E1,2.0211018E1,1.3465768E2,2.6602455E1,2.4881447E1,6.0715704E0,6.6340537E0,6.917948E0,1.7107584E0,1.9601992E0,1.9230821E0,1.3920392E1,5.218867E0,1.8681742E1,1.6946033E0,4.116169E0,8.000905E1,1.0735538E1,1.7011491E0,4.0450335E0,6.882406E0,3.120393E1,1.4283136E0,1.9493009E0,5.471765E0,1.6321468E1,1.4668794E0,1.198237E0],"tree_param":{"num_deleted":"0","num_feature":"22","num_nodes":"81","size_leaf_vector":"1"}},{"base_weights":[-2.0935822E-3,-3.687372E-2,1.9276837E-1,-1.0742605E-1,6.199607E-2,1.3344654E-1,7.465124E-1,6.936983E-2,-1.6085486E-1,8.3220065E-1,5.1238548E-2,5.201716E-2,4.7757503E-1,9.9093044E-1,-1.5109046E-2,-4.4172287E-1,1.4570782E-1,8.087176E-2,-2.0491476E-1,1.2471862E-1,1.1930783E-2,6.755891E-2,-3.8471583E-1,-4.8479278E-2,2.210075E-1,6.1952734E-1,-9.643081E-2,1.2370735E0,4.190564E-1,-9.561153E-1,1.9291483E-2,1.1527699E0,8.506417E-2,4.76004E-3,8.485182E-1,-8.911758E-1,-1.7159016E-1,3.7387148E-2,4.3343818E-1,-1.0103049E-1,-2.5105782E-2,4.1733563E-1,-1.2842904E-1,3.2445684E-1,-9.282342E-2,7.072361E-1,-3.9399944E-2,3.121832E-2,1.4209686E-1,-3.0118871E-2,1.0432241E-1,-1.1613385E-1,-2.8866325E-2,8.7354176E-2,-2.9683305E-2,1.449656E-3,1.5735506E-1,-4.8833176E-2,1.7173035E-2,6.928017E-2,-7.232076E-3,1.2416198E-1,2.56219E-2,-9.934129E-2,-9.436503E-3,-3.351705E-2,-8.454646E-3,5.3522047E-3,-6.805181E-2,1.1456602E-1,2.24125E-2,5.270026E-2,-8.060056E-2,8.597659E-2,-1.0064156E-1,-2.0155711E-2,5.9935696E-2,4.0261373E-2,-7.282202E-2,-2.5250627E-2,8.072681E-2],"categories":[],"categories_nodes":[],"categories_segments":[],"categories_sizes":[],"default_left":[0,0,0,0,0,0,0,0,0,0,0,0,0,0,0,0,0,0,0,0,0,0,0,0,0,0,0,0,0,0,0,0,0,0,0,0,0,0,0,0,0,0,0,0,0,0,0,0,0,0,0,0,0,0,0,0,0,0,0,0,0,0,0,0,0,0,0,0,0,0,0,0,0,0,0,0,0,0,0,0,0],"id":15,"left_children":[1,3,5,7,9,11,13,15,17,19,21,23,25,27,-1,29,31,33,35,-1,-1,37,39,41,43,45,-1,47,49,51,53,55,57,59,61,63,65,67,69,-1,71,73,75,77,-1,79,-1,-1,-1,-1,-1,-1,-1,-1,-1,-1,-1,-1,-1,-1,-1,-1,-1,-1,-1,-1,-1,-1,-1,-1,-1,-1,-1,-1,-1,-1,-1,-1,-1,-1,-1],"loss_changes":[5.214104E0,4.560086E0,3.7280211E0,3.6129737E0,2.2148957E0,2.9585276E0,2.575582E0,3.5441551E0,3.1383991E0,9.421308E-1,1.9454641E0,1.4918824E0,4.742055E0,7.235584E-1,0E0,2.8258321E0,4.686983E0,2.678167E0,5.523486E0,0E0,0E0,2.8638902E0,2.1983187E0,2.1209328E0,4.189292E0,1.9715228E0,0E0,5.183716E-1,2.187573E0,4.338956E-1,2.2099571E0,2.0705042E0,3.8099415E0,2.3184881E0,6.4474154E-1,8.232393E-1,3.359795E0,2.8409262E0,2.6921432E0,0E0,3.5729508E0,6.1358824E0,2.6831012E0,2.8226407E0,0E0,1.9208412E0,0E0,0E0,0E0,0E0,0E0,0E0,0E0,0E0,0E0,0E0,0E0,0E0,0E0,0E0,0E0,0E0,0E0,0E0,0E0,0E0,0E0,0E0,0E0,0E0,0E0,0E0,0E0,0E0,0E0,0E0,0E0,0E0,0E0,0E0,0E0],"parents":[2147483647,0,0,1,1,2,2,3,3,4,4,5,5,6,6,7,7,8,8,9,9,10,10,11,11,12,12,13,13,15,15,16,16,17,17,18,18,21,21,22,22,23,23,24,24,25,25,27,27,28,28,29,29,30,30,31,31,32,32,33,33,34,34,35,35,36,36,37,37,38,38,40,40,41,41,42,42,43,43,45,45],"right_children":[2,4,6,8,10,12,14,16,18,20,22,24,26,28,-1,30,32,34,36,-1,-1,38,40,42,44,46,-1,48,50,52,54,56,58,60,62,64,66,68,70,-1,72,74,76,78,-1,80,-1,-1,-1,-1,-1,-1,-1,-1,-1,-1,-1,-1,-1,-1,-1,-1,-1,-1,-1,-1,-1,-1,-1,-1,-1,-1,-1,-1,-1,-1,-1,-1,-1,-1,-1],"split_conditions":[1E0,4.6314403E-1,1.8816859E0,1E0,4.6863922E-1,3E0,2E0,6.0361676E-2,1.1433227E-1,2.862523E-1,5.304793E0,1E0,1.4840591E0,1.1E1,-1.5109046E-2,2.850036E-1,6.731223E-2,1.1043396E-1,1.3153511E-1,1.2471862E-1,1.1930783E-2,2.905935E0,1.9135574E-1,1E0,1.3868718E0,3E0,-9.643081E-2,1E0,3E0,1E0,3.333367E-1,8E0,7E0,4.8045866E-2,2E0,1E0,1.2848805E-1,2.6047227E0,1.0868583E-1,-1.0103049E-1,1E0,1.1E1,1.250447E0,3E0,-9.282342E-2,8.7924145E-2,-3.9399944E-2,3.121832E-2,1.4209686E-1,-3.0118871E-2,1.0432241E-1,-1.1613385E-1,-2.8866325E-2,8.7354176E-2,-2.9683305E-2,1.449656E-3,1.5735506E-1,-4.8833176E-2,1.7173035E-2,6.928017E-2,-7.232076E-3,1.2416198E-1,2.56219E-2,-9.934129E-2,-9.436503E-3,-3.351705E-2,-8.454646E-3,5.3522047E-3,-6.805181E-2,1.1456602E-1,2.24125E-2,5.270026E-2,-8.060056E-2,8.597659E-2,-1.0064156E-1,-2.0155711E-2,5.9935696E-2,4.0261373E-2,-7.282202E-2,-2.5250627E-2,8.072681E-2],"split_indices":[7,16,16,2,16,2,5,16,19,19,16,4,16,0,0,19,16,19,19,0,0,16,19,3,16,5,0,3,3,4,19,0,0,16,2,12,16,16,19,0,4,0,16,5,0,19,0,0,0,0,0,0,0,0,0,0,0,0,0,0,0,0,0,0,0,0,0,0,0,0,0,0,0,0,0,0,0,0,0,0,0],"split_type":[0,0,0,0,0,0,0,0,0,0,0,0,0,0,0,0,0,0,0,0,0,0,0,0,0,0,0,0,0,0,0,0,0,0,0,0,0,0,0,0,0,0,0,0,0,0,0,0,0,0,0,0,0,0,0,0,0,0,0,0,0,0,0,0,0,0,0,0,0,0,0,0,0,0,0,0,0,0,0,0,0],"sum_hessian":[7.6729663E2,6.517747E2,1.1552192E2,3.8030615E2,2.7146857E2,1.0546463E2,1.0057287E1,8.818935E1,2.9211682E2,2.6875644E0,2.68781E2,8.621513E1,1.9249496E1,7.8230815E0,2.234206E0,1.0838406E1,7.7350945E1,4.4907047E1,2.4720976E2,1.225001E0,1.4625635E0,2.5989658E2,8.884438E0,5.4511158E1,3.170398E1,1.8043465E1,1.2060311E0,4.6559143E0,3.167167E0,4.6150584E0,6.223347E0,3.3705137E0,7.398043E1,4.1771618E1,3.1354318E0,1.0256344E1,2.3695341E2,2.4111548E2,1.878109E1,2.5824609E0,6.3019767E0,7.3672194E0,4.7143936E1,2.974422E1,1.9597576E0,1.6884512E1,1.1589522E0,1.2196031E0,3.4363112E0,1.710652E0,1.456515E0,2.9638107E0,1.6512479E0,1.2046871E0,5.01866E0,1.1888773E0,2.1816363E0,9.105105E0,6.487532E1,3.4034667E0,3.836815E1,1.2256873E0,1.9097445E0,8.871345E0,1.3849989E0,8.130574E1,1.5564767E2,2.3672063E2,4.394843E0,3.2497764E0,1.5531314E1,3.882279E0,2.4196978E0,5.9228287E0,1.4443909E0,4.349646E1,3.6474774E0,2.826332E1,1.4809011E0,1.4498527E0,1.543466E1],"tree_param":{"num_deleted":"0","num_feature":"22","num_nodes":"81","size_leaf_vector":"1"}},{"base_weights":[1.0368243E-2,-2.1966726E-2,1.892552E-1,-5.562475E-2,1.23562925E-1,-7.002924E-1,2.2256586E-1,-1.1113991E-2,-1.5242574E-1,2.92496E-1,-6.635604E-2,-1.4365062E-2,-8.603479E-2,6.2542754E-1,1.4483444E-1,-2.3876925E-1,3.5464387E-2,-3.7242696E-1,-1.1554735E-2,2.0167363E-1,5.8574736E-1,-2.2474895E-1,1.5783146E-1,1.7241529E-1,9.3458265E-1,-6.3051575E-1,1.8438825E-1,4.9346232E-1,-3.249712E-1,1.9113284E-1,-4.4611167E-2,-4.0369543E-1,7.162558E-2,-5.180528E-2,7.629314E-1,-4.238398E-2,3.4450606E-1,1.1624628E0,-8.9690825E-3,-3.4228882E-1,2.0923613E-1,2.6081163E-1,-9.9479996E-2,4.7898126E-1,-9.3229294E-2,1.0821784E0,1.8309195E-2,-1.4727886E-1,-1.0476553E-1,3.405905E-1,7.047622E-2,1.1047894E-2,1.16269484E-1,-4.6763893E-2,1.4606056E-2,9.118308E-3,6.7852214E-2,-6.9424883E-3,6.605716E-2,2.258158E-2,-4.4502404E-2,2.5734592E-3,-3.8451318E-2,-4.1628532E-2,1.2188001E-1,3.107563E-2,-4.7915246E-2,5.56446E-2,-1.5379103E-2,4.181947E-2,1.3029811E-1,-3.6744516E-2,6.928556E-2,-4.722198E-2,1.7290063E-2,1.0093077E-1,-5.265093E-2,-2.2472737E-3,9.266881E-2,-3.2823004E-2,9.782305E-2,1.2889361E-1,5.4818075E-2,2.7446616E-2,-5.0253488E-2,1.0000251E-2,9.850552E-2,2.6142988E-2,-1.7796857E-2],"categories":[],"categories_nodes":[],"categories_segments":[],"categories_sizes":[],"default_left":[0,0,0,0,0,0,0,0,0,0,0,0,0,0,0,0,0,0,0,0,0,0,0,0,0,0,0,0,0,0,0,0,0,0,0,0,0,0,0,0,0,0,0,0,0,0,0,0,0,0,0,0,0,0,0,0,0,0,0,0,0,0,0,0,0,0,0,0,0,0,0,0,0,0,0,0,0,0,0,0,0,0,0,0,0,0,0,0,0],"id":16,"left_children":[1,3,5,7,9,11,13,15,17,19,21,-1,-1,23,25,27,29,31,33,35,37,39,41,43,45,47,49,51,53,55,57,59,-1,61,63,65,67,69,71,73,75,77,-1,79,-1,81,-1,83,-1,85,87,-1,-1,-1,-1,-1,-1,-1,-1,-1,-1,-1,-1,-1,-1,-1,-1,-1,-1,-1,-1,-1,-1,-1,-1,-1,-1,-1,-1,-1,-1,-1,-1,-1,-1,-1,-1,-1,-1],"loss_changes":[4.4046974E0,3.1672454E0,3.60991E0,2.2590811E0,3.9176846E0,2.7275848E-1,3.4517217E0,3.8312316E0,5.1153345E0,1.5994711E0,2.0955377E0,0E0,0E0,2.3590088E0,3.0641944E0,4.0334797E0,3.7499306E0,2.4832325E0,3.211117E0,1.7842271E0,5.0607815E0,1.8267965E0,3.1801436E0,3.3337622E0,9.6307564E-1,8.318051E-1,1.6171095E0,1.6297953E0,3.798057E0,4.9138556E0,3.528114E0,1.7471848E0,0E0,2.5290875E0,3.2435162E0,3.176923E0,3.4791043E0,2.3771858E-1,2.3280747E0,1.9194267E0,5.2132964E0,4.4310894E0,0E0,3.276661E0,0E0,2.3708057E-1,0E0,6.518342E-1,0E0,5.891864E0,2.6366882E0,0E0,0E0,0E0,0E0,0E0,0E0,0E0,0E0,0E0,0E0,0E0,0E0,0E0,0E0,0E0,0E0,0E0,0E0,0E0,0E0,0E0,0E0,0E0,0E0,0E0,0E0,0E0,0E0,0E0,0E0,0E0,0E0,0E0,0E0,0E0,0E0,0E0,0E0],"parents":[2147483647,0,0,1,1,2,2,3,3,4,4,5,5,6,6,7,7,8,8,9,9,10,10,13,13,14,14,15,15,16,16,17,17,18,18,19,19,20,20,21,21,22,22,23,23,24,24,25,25,26,26,27,27,28,28,29,29,30,30,31,31,33,33,34,34,35,35,36,36,37,37,38,38,39,39,40,40,41,41,43,43,45,45,47,47,49,49,50,50],"right_children":[2,4,6,8,10,12,14,16,18,20,22,-1,-1,24,26,28,30,32,34,36,38,40,42,44,46,48,50,52,54,56,58,60,-1,62,64,66,68,70,72,74,76,78,-1,80,-1,82,-1,84,-1,86,88,-1,-1,-1,-1,-1,-1,-1,-1,-1,-1,-1,-1,-1,-1,-1,-1,-1,-1,-1,-1,-1,-1,-1,-1,-1,-1,-1,-1,-1,-1,-1,-1,-1,-1,-1,-1,-1,-1],"split_conditions":[1E0,1E0,7.515426E-2,3E0,1.2E1,2E0,2.0912641E-1,8E0,2E0,3E0,1E0,-1.4365062E-2,-8.603479E-2,1.3649781E-1,2.5059795E-1,1.2936214E-1,2E0,3E0,1E0,9E0,5.591351E-1,1E0,6E0,1.2166067E-1,1E0,2.3370077E-1,6.564225E-1,1.1804236E-1,1E0,2.1459782E0,1.8E1,8E0,7.162558E-2,1.7E1,1.1300751E-1,8E0,1.1E1,1.9221647E-1,1.7447999E0,1.6E1,3E0,9.5053554E-1,-9.9479996E-2,2E0,-9.3229294E-2,3E0,1.8309195E-2,1E0,-1.0476553E-1,5.029142E-1,2E0,1.1047894E-2,1.16269484E-1,-4.6763893E-2,1.4606056E-2,9.118308E-3,6.7852214E-2,-6.9424883E-3,6.605716E-2,2.258158E-2,-4.4502404E-2,2.5734592E-3,-3.8451318E-2,-4.1628532E-2,1.2188001E-1,3.107563E-2,-4.7915246E-2,5.56446E-2,-1.5379103E-2,4.181947E-2,1.3029811E-1,-3.6744516E-2,6.928556E-2,-4.722198E-2,1.7290063E-2,1.0093077E-1,-5.265093E-2,-2.2472737E-3,9.266881E-2,-3.2823004E-2,9.782305E-2,1.2889361E-1,5.4818075E-2,2.7446616E-2,-5.0253488E-2,1.0000251E-2,9.850552E-2,2.6142988E-2,-1.7796857E-2],"split_indices":[7,12,15,1,0,3,15,0,3,3,4,0,0,15,15,15,3,4,11,0,15,9,1,15,12,15,15,15,4,15,0,0,0,0,15,0,0,15,15,0,1,15,0,3,0,1,0,5,0,15,2,0,0,0,0,0,0,0,0,0,0,0,0,0,0,0,0,0,0,0,0,0,0,0,0,0,0,0,0,0,0,0,0,0,0,0,0,0,0],"split_type":[0,0,0,0,0,0,0,0,0,0,0,0,0,0,0,0,0,0,0,0,0,0,0,0,0,0,0,0,0,0,0,0,0,0,0,0,0,0,0,0,0,0,0,0,0,0,0,0,0,0,0,0,0,0,0,0,0,0,0,0,0,0,0,0,0,0,0,0,0,0,0,0,0,0,0,0,0,0,0,0,0,0,0,0,0,0,0,0,0],"sum_hessian":[7.597726E2,6.442055E2,1.1556709E2,5.237018E2,1.20503716E2,3.4486718E0,1.1211842E2,3.5950845E2,1.6419336E2,6.348958E1,5.7014137E1,1.1939278E0,2.254744E0,1.6994474E1,9.512395E1,6.0361412E1,2.9914703E2,6.3453285E1,1.00740074E2,4.9764748E1,1.37248335E1,3.3408127E1,2.3606009E1,7.5252485E0,9.469226E0,3.8919349E0,9.123202E1,5.8599877E0,5.4501423E1,1.0114067E2,1.9800636E2,6.2293324E1,1.1599617E0,9.6650215E1,4.089864E0,1.8631826E1,3.113292E1,6.483209E0,7.241624E0,2.6454515E1,6.953613E0,2.2380207E1,1.2258017E0,6.3339434E0,1.1913052E0,7.546937E0,1.9222894E0,2.4299817E0,1.4619529E0,3.7634983E1,5.3597034E1,4.4680996E0,1.3918879E0,4.1836914E1,1.266451E1,8.491424E1,1.6226427E1,1.9214673E2,5.859638E0,3.5627115E0,5.873061E1,7.913087E1,1.7519344E1,1.16448E0,2.9253838E0,1.0461723E1,8.170103E0,2.1760756E1,9.372165E0,1.6611035E0,4.8221054E0,5.108673E0,2.1329513E0,2.1193031E1,5.261484E0,3.153062E0,3.800551E0,1.6378529E1,6.0016794E0,2.5513482E0,3.7825952E0,4.421308E0,3.125629E0,1.2149991E0,1.2149827E0,2.8245646E1,9.389336E0,3.0275297E1,2.3321735E1],"tree_param":{"num_deleted":"0","num_feature":"22","num_nodes":"89","size_leaf_vector":"1"}},{"base_weights":[-1.0357976E-2,-4.1433495E-2,1.5592444E-1,-2.5517048E-2,-3.1718633E-1,6.8218924E-2,4.9620944E-1,-7.5252965E-2,7.911193E-2,4.8778E-1,-4.766903E-1,-4.020709E-1,1.2520988E-1,2.3565024E-1,9.702011E-2,-2.0595139E-2,-3.3106813E-1,-1.9380678E-1,2.5531188E-1,1.0716831E-1,-7.7886224E-2,-8.6221385E-1,-1.1331879E-1,7.965485E-2,-8.6872387E-1,9.124606E-2,1.074548E-1,-7.8483306E-2,7.1728724E-1,-4.107912E-2,4.785925E-1,-6.6565955E-1,-1.8147649E-1,-4.656996E-1,1.0201645E-1,-6.855231E-2,3.9894912E-1,-5.182584E-2,3.393316E-2,4.2455565E-2,-1.0939322E0,2.3741117E-1,-1.08592644E-1,5.288168E-1,-9.5537394E-2,2.1419741E-2,-1.2299408E-1,1.2235974E-1,-8.894267E-2,2.6152444E-1,-7.0432246E-1,-1.1775127E-2,9.596715E-1,-2.2472339E-3,-7.0203766E-2,1.1111017E-1,-8.473745E-3,3.8019244E-2,-1.0485577E-1,4.7336474E-2,-2.6257588E-2,5.2972354E-2,-5.2911222E-2,6.724166E-2,-7.941327E-3,1.7768322E-2,-5.7943013E-2,8.477124E-2,2.6535625E-2,-5.001493E-2,5.4889586E-2,-1.3579181E-1,-4.161319E-2,6.078878E-2,-6.131668E-3,1.1526939E-2,8.888584E-2,1.5484828E-2,-7.3670134E-2,-3.13477E-2,6.76537E-2,-1.04319155E-1,-2.1199556E-2,1.1157178E-1,2.3852704E-2],"categories":[],"categories_nodes":[],"categories_segments":[],"categories_sizes":[],"default_left":[0,0,0,0,0,0,0,0,0,0,0,0,0,0,0,0,0,0,0,0,0,0,0,0,0,0,0,0,0,0,0,0,0,0,0,0,0,0,0,0,0,0,0,0,0,0,0,0,0,0,0,0,0,0,0,0,0,0,0,0,0,0,0,0,0,0,0,0,0,0,0,0,0,0,0,0,0,0,0,0,0,0,0,0,0],"id":17,"left_children":[1,3,5,7,9,11,13,15,17,19,21,23,25,27,-1,29,31,33,35,-1,37,39,41,43,45,47,-1,49,51,53,55,57,59,61,63,65,67,-1,-1,69,71,73,-1,75,-1,-1,-1,77,-1,79,81,-1,83,-1,-1,-1,-1,-1,-1,-1,-1,-1,-1,-1,-1,-1,-1,-1,-1,-1,-1,-1,-1,-1,-1,-1,-1,-1,-1,-1,-1,-1,-1,-1,-1],"loss_changes":[3.913306E0,2.7912593E0,3.5254128E0,3.1495407E0,4.6901417E0,2.6228044E0,2.7699733E0,5.725479E0,9.432671E0,2.1431508E0,4.032383E0,2.454615E0,2.6867251E0,2.6265469E0,0E0,3.4846303E0,3.488318E0,6.2504716E0,5.563287E0,0E0,9.290965E-1,3.0134573E0,5.8277874E0,3.358448E0,2.404707E0,2.6864355E0,0E0,2.5638885E0,1.4902737E0,3.9986978E0,4.881544E0,9.169904E0,2.8436005E0,2.8282356E0,3.960581E0,4.8098316E0,4.7262907E0,0E0,0E0,1.3321368E0,1.4577246E0,1.4562382E0,0E0,6.30653E-1,0E0,0E0,0E0,2.4238443E0,0E0,2.1153302E0,4.8082542E-1,0E0,3.3964825E-1,0E0,0E0,0E0,0E0,0E0,0E0,0E0,0E0,0E0,0E0,0E0,0E0,0E0,0E0,0E0,0E0,0E0,0E0,0E0,0E0,0E0,0E0,0E0,0E0,0E0,0E0,0E0,0E0,0E0,0E0,0E0,0E0],"parents":[2147483647,0,0,1,1,2,2,3,3,4,4,5,5,6,6,7,7,8,8,9,9,10,10,11,11,12,12,13,13,15,15,16,16,17,17,18,18,20,20,21,21,22,22,23,23,24,24,25,25,27,27,28,28,29,29,30,30,31,31,32,32,33,33,34,34,35,35,36,36,39,39,40,40,41,41,43,43,47,47,49,49,50,50,52,52],"right_children":[2,4,6,8,10,12,14,16,18,20,22,24,26,28,-1,30,32,34,36,-1,38,40,42,44,46,48,-1,50,52,54,56,58,60,62,64,66,68,-1,-1,70,72,74,-1,76,-1,-1,-1,78,-1,80,82,-1,84,-1,-1,-1,-1,-1,-1,-1,-1,-1,-1,-1,-1,-1,-1,-1,-1,-1,-1,-1,-1,-1,-1,-1,-1,-1,-1,-1,-1,-1,-1,-1,-1],"split_conditions":[1E0,5E0,4.295604E-1,1.3E1,1.2E1,1E0,6.296276E-1,4.295604E-1,2.2333196E-1,2.4058619E-1,2.984358E-1,8.132754E-1,5.364556E0,1E0,9.702011E-2,4.0264562E-1,4.7611532E-1,1E0,1.8451294E-1,1.0716831E-1,8.614286E-1,9.357637E-2,5.127332E-1,3.6803225E-1,1.3944489E-1,2.8224392E0,1.074548E-1,3.016231E-1,1E0,3.9216557E-1,4.1389522E-1,1.7352648E-1,4.8462063E-1,3.9429866E-2,1E0,1E0,4.799706E-1,-5.182584E-2,3.393316E-2,1E0,8.527371E-1,2.4336359E-1,-1.08592644E-1,4.193149E-1,-9.5537394E-2,2.1419741E-2,-1.2299408E-1,4.075781E-1,-8.894267E-2,1.3869329E-1,5.9338856E-1,-1.1775127E-2,1.5E1,-2.2472339E-3,-7.0203766E-2,1.1111017E-1,-8.473745E-3,3.8019244E-2,-1.0485577E-1,4.7336474E-2,-2.6257588E-2,5.2972354E-2,-5.2911222E-2,6.724166E-2,-7.941327E-3,1.7768322E-2,-5.7943013E-2,8.477124E-2,2.6535625E-2,-5.001493E-2,5.4889586E-2,-1.3579181E-1,-4.161319E-2,6.078878E-2,-6.131668E-3,1.1526939E-2,8.888584E-2,1.5484828E-2,-7.3670134E-2,-3.13477E-2,6.76537E-2,-1.04319155E-1,-2.1199556E-2,1.1157178E-1,2.3852704E-2],"split_indices":[7,3,19,0,0,17,16,19,19,19,19,15,15,4,0,19,19,4,16,0,15,16,19,19,19,16,0,16,2,19,19,16,19,19,5,14,15,0,0,4,16,16,0,15,0,0,0,19,0,16,15,0,0,0,0,0,0,0,0,0,0,0,0,0,0,0,0,0,0,0,0,0,0,0,0,0,0,0,0,0,0,0,0,0,0],"split_type":[0,0,0,0,0,0,0,0,0,0,0,0,0,0,0,0,0,0,0,0,0,0,0,0,0,0,0,0,0,0,0,0,0,0,0,0,0,0,0,0,0,0,0,0,0,0,0,0,0,0,0,0,0,0,0,0,0,0,0,0,0,0,0,0,0,0,0,0,0,0,0,0,0,0,0,0,0,0,0,0,0,0,0,0,0],"sum_hessian":[7.550692E2,6.3681036E2,1.1825883E2,6.030924E2,3.371794E1,9.497923E1,2.3279598E1,4.089681E2,1.941243E2,5.2359E0,2.8482042E1,9.611344E0,8.536789E1,1.5987971E1,7.291627E0,3.378608E2,7.110731E1,7.612038E1,1.1800392E2,2.1362395E0,3.0996604E0,1.3153673E1,1.532837E1,5.1373577E0,4.473987E0,8.3477486E1,1.8904018E0,1.0183277E1,5.8046937E0,3.2542484E2,1.2435979E1,2.090323E1,5.0204075E1,3.936528E1,3.67551E1,3.6416664E1,8.158726E1,1.3901666E0,1.7094939E0,2.8486848E0,1.0304988E1,1.1821387E1,3.5069828E0,3.9237041E0,1.2136537E0,1.220866E0,3.253121E0,8.1758766E1,1.7187213E0,6.9756484E0,3.207629E0,1.4215399E0,4.383154E0,3.1752026E2,7.904579E0,5.4002137E0,7.035765E0,5.603858E0,1.5299373E1,4.99939E0,4.5204685E1,1.917147E0,3.744813E1,8.216594E0,2.8538507E1,2.501298E1,1.1403685E1,1.748991E1,6.409734E1,1.3812367E0,1.4674481E0,6.694308E0,3.6106803E0,4.814997E0,7.00639E0,2.4405823E0,1.4831219E0,7.9569305E1,2.189458E0,3.0267422E0,3.9489062E0,1.2371778E0,1.9704511E0,3.153606E0,1.229548E0],"tree_param":{"num_deleted":"0","num_feature":"22","num_nodes":"85","size_leaf_vector":"1"}},{"base_weights":[-3.3446397E-3,-3.901794E-2,1.6124266E-1,-2.2647135E-1,-9.999621E-3,7.6830074E-2,4.7604987E-1,2.9829672E-1,-3.1566015E-1,6.0150164E-1,-3.3695627E-2,-4.62273E-1,1.2543301E-1,5.965996E-1,-4.0418896E-1,5.884041E-1,-2.8303927E-1,-4.6320033E-1,8.78995E-2,7.4271774E-1,-4.386495E-2,-7.8072034E-2,8.975038E-2,-7.375616E-1,7.222902E-2,1.7829934E-1,-4.414966E-1,4.2958323E-2,7.7024835E-1,-7.706189E-2,2.5363222E-2,7.623241E-1,-1.9172676E-2,-8.149651E-2,9.086597E-2,-2.9589054E-1,-8.55554E-1,-7.216036E-2,6.1084276E-1,2.9466933E-1,1.1582793E0,2.1883817E-3,-2.4799764E-1,-4.8428583E-1,1.8217117E-1,1.7922107E-2,-1.0662537E0,3.5191438E-1,4.629548E-2,-1.2101686E-1,6.719502E-2,6.576832E-2,-2.6763976E-1,9.0618926E-1,-1.3512158E-1,7.6718256E-3,1.1670899E-1,-4.162444E-2,4.7013797E-2,-1.0649891E-2,-6.890089E-2,-9.4081074E-2,1.1595818E-2,1.3556435E-2,-8.690879E-2,1.17095664E-1,-1.6548764E-2,9.12178E-2,-2.955382E-2,1.4217912E-1,-1.6217703E-2,3.407591E-2,